~o
<STREAMINFO> 1 25
<VECSIZE> 25<NULLD><MFCC_E_D_N><DIAGC>
~h "jmodel"
<BEGINHMM>
<NUMSTATES> 3
<STATE> 2
<NUMMIXES> 128
<MIXTURE> 1 5.748963e-03
<MEAN> 25
 -2.582147e+00 3.177409e+00 2.314788e+00 8.751163e+00 4.369002e+00 3.446951e+00 4.060548e+00 3.931832e+00 5.828164e+00 5.251448e+00 5.885957e+00 3.079620e+00 -2.004522e+00 -1.632815e+00 -8.650882e-01 1.074697e+00 1.559988e+00 2.229546e+00 2.154843e+00 2.082885e+00 1.693120e+00 1.268818e+00 1.567687e+00 6.151479e-01 -4.688326e-02
<VARIANCE> 25
 1.006501e+01 1.177772e+01 1.494814e+01 1.869412e+01 2.319080e+01 2.214935e+01 2.188896e+01 2.199219e+01 2.100881e+01 2.253033e+01 2.094577e+01 1.709242e+01 1.788091e+00 2.116408e+00 3.025018e+00 3.210765e+00 3.738222e+00 3.370604e+00 3.317909e+00 3.385920e+00 3.519679e+00 3.726648e+00 3.513182e+00 2.837416e+00 3.122238e-03
<GCONST> 8.847466e+01
<MIXTURE> 2 4.549242e-03
<MEAN> 25
 -4.875671e+00 1.311720e+00 9.943511e-01 9.899809e+00 6.692275e+00 7.424650e+00 7.847087e+00 6.958091e+00 8.373269e+00 6.373019e+00 7.624402e+00 3.074697e+00 -6.200235e-02 4.161923e-02 1.425301e-01 2.258583e-01 2.652900e-01 2.813653e-01 2.954302e-01 3.195550e-01 3.497573e-01 3.089160e-01 1.971766e-01 8.006547e-02 1.228299e-06
<VARIANCE> 25
 6.952293e+00 8.901894e+00 1.065126e+01 1.591096e+01 1.723581e+01 1.556308e+01 1.689898e+01 1.848562e+01 1.658668e+01 1.738619e+01 1.811029e+01 1.434002e+01 1.252503e-01 2.266278e-01 3.364712e-01 4.671271e-01 6.492781e-01 8.148874e-01 9.298787e-01 1.003176e+00 1.051662e+00 1.077774e+00 1.075658e+00 1.013934e+00 1.000000e-06
<GCONST> 5.804302e+01
<MIXTURE> 3 4.549242e-03
<MEAN> 25
 -4.875671e+00 1.311720e+00 9.943511e-01 9.899809e+00 6.692275e+00 7.424650e+00 7.847087e+00 6.958091e+00 8.373269e+00 6.373019e+00 7.624402e+00 3.074697e+00 -6.200235e-02 4.161923e-02 1.425301e-01 2.258583e-01 2.652900e-01 2.813653e-01 2.954302e-01 3.195550e-01 3.497573e-01 3.089160e-01 1.971766e-01 8.006547e-02 1.228299e-06
<VARIANCE> 25
 6.952293e+00 8.901894e+00 1.065126e+01 1.591096e+01 1.723581e+01 1.556308e+01 1.689898e+01 1.848562e+01 1.658668e+01 1.738619e+01 1.811029e+01 1.434002e+01 1.252503e-01 2.266278e-01 3.364712e-01 4.671271e-01 6.492781e-01 8.148874e-01 9.298787e-01 1.003176e+00 1.051662e+00 1.077774e+00 1.075658e+00 1.013934e+00 1.000000e-06
<GCONST> 5.804302e+01
<MIXTURE> 4 1.671429e-02
<MEAN> 25
 3.449131e+00 2.439979e+00 -3.602086e+00 9.762294e-01 4.285454e+00 -6.835037e-02 -5.499062e-03 1.061221e-01 1.522797e+00 1.380109e+00 -1.895595e+00 -1.068983e-01 -2.746298e+00 1.221819e+00 1.748235e+00 3.012603e+00 9.204733e-01 4.082905e-01 1.497912e+00 9.857567e-01 9.498833e-01 4.357883e-01 1.216260e+00 9.509917e-01 -1.013037e-01
<VARIANCE> 25
 2.068988e+01 2.923297e+01 3.002531e+01 3.882261e+01 4.457889e+01 6.788545e+01 6.398046e+01 5.266333e+01 5.449822e+01 6.103109e+01 4.876357e+01 3.657121e+01 2.310760e+00 4.939462e+00 3.682111e+00 5.045579e+00 4.899797e+00 6.341453e+00 6.000214e+00 5.569394e+00 5.880668e+00 6.308943e+00 6.075011e+00 4.560856e+00 6.195474e-03
<GCONST> 1.052999e+02
<MIXTURE> 5 3.206198e-03
<MEAN> 25
 -3.348629e+00 2.114254e+00 6.955095e-01 9.341726e+00 6.655225e+00 6.333886e+00 6.930967e+00 4.722693e+00 5.393685e+00 3.914037e+00 4.604182e+00 2.449955e+00 -3.413392e-01 7.502133e-01 1.221515e+00 1.032079e+00 3.021271e-01 -1.451095e-01 -6.593452e-02 1.902930e-02 4.731477e-01 6.945099e-01 4.257224e-01 1.232829e-01 -3.679631e-05
<VARIANCE> 25
 1.046201e+01 1.409074e+01 2.371313e+01 2.583665e+01 2.008285e+01 1.919426e+01 2.227668e+01 2.009061e+01 2.191611e+01 2.132670e+01 2.400216e+01 1.795087e+01 1.214636e+00 1.228813e+00 1.340014e+00 1.651692e+00 2.257207e+00 2.493564e+00 2.294571e+00 2.260803e+00 2.302812e+00 2.217726e+00 2.094607e+00 1.940777e+00 9.930878e-07
<GCONST> 7.540894e+01
<MIXTURE> 6 5.475854e-03
<MEAN> 25
 9.665442e+00 -4.135337e-01 -6.681996e+00 -1.100908e+01 -2.115833e+00 6.711037e+00 -5.872552e+00 -5.277126e+00 -3.630608e+00 1.832286e+00 4.614655e+00 -1.243745e+00 4.839043e-01 8.893766e-01 -3.607245e-01 -1.468386e+00 -6.388856e-01 1.319769e+00 1.527700e+00 2.455686e-01 -1.222404e+00 -1.225270e+00 3.203959e-01 1.221069e+00 -8.142823e-03
<VARIANCE> 25
 9.202627e+00 1.700522e+01 2.391031e+01 3.920866e+01 3.660505e+01 3.062213e+01 4.402830e+01 3.797375e+01 4.072077e+01 3.929498e+01 4.209848e+01 2.830172e+01 3.106865e-01 8.637660e-01 9.600648e-01 1.968417e+00 1.598811e+00 2.011039e+00 1.932810e+00 2.043873e+00 2.392686e+00 1.969280e+00 2.237067e+00 1.445211e+00 5.834249e-04
<GCONST> 8.388725e+01
<MIXTURE> 7 5.475854e-03
<MEAN> 25
 9.665442e+00 -4.135337e-01 -6.681996e+00 -1.100908e+01 -2.115833e+00 6.711037e+00 -5.872552e+00 -5.277126e+00 -3.630608e+00 1.832286e+00 4.614655e+00 -1.243745e+00 4.839043e-01 8.893766e-01 -3.607245e-01 -1.468386e+00 -6.388856e-01 1.319769e+00 1.527700e+00 2.455686e-01 -1.222404e+00 -1.225270e+00 3.203959e-01 1.221069e+00 -8.142823e-03
<VARIANCE> 25
 9.202627e+00 1.700522e+01 2.391031e+01 3.920866e+01 3.660505e+01 3.062213e+01 4.402830e+01 3.797375e+01 4.072077e+01 3.929498e+01 4.209848e+01 2.830172e+01 3.106865e-01 8.637660e-01 9.600648e-01 1.968417e+00 1.598811e+00 2.011039e+00 1.932810e+00 2.043873e+00 2.392686e+00 1.969280e+00 2.237067e+00 1.445211e+00 5.834249e-04
<GCONST> 8.388725e+01
<MIXTURE> 8 1.165917e-02
<MEAN> 25
 -4.725225e+00 1.358219e+00 1.296318e+00 9.546909e+00 6.564946e+00 6.238864e+00 6.468984e+00 5.673451e+00 6.647262e+00 5.628285e+00 6.581178e+00 3.160055e+00 -6.325579e-01 -1.420653e+00 -1.073565e+00 -1.729811e+00 -2.296627e-01 -9.488894e-01 -1.751666e-01 -2.914203e-01 -2.512227e-01 -1.763358e-01 -2.112626e-01 8.621574e-02 9.874639e-02
<VARIANCE> 25
 9.339425e+00 9.841283e+00 1.159887e+01 1.611374e+01 1.666487e+01 1.582565e+01 1.816524e+01 1.760425e+01 1.708840e+01 1.735504e+01 1.888770e+01 1.400282e+01 2.757607e+00 2.824704e+00 3.902495e+00 3.755992e+00 3.451043e+00 3.317050e+00 3.126873e+00 3.077704e+00 2.868607e+00 2.653727e+00 2.433429e+00 1.913406e+00 6.681176e-03
<GCONST> 8.631020e+01
<MIXTURE> 9 1.199672e-02
<MEAN> 25
 9.256597e+00 3.350826e+00 -6.189677e+00 -1.063029e+01 -2.199436e+00 4.971873e+00 -2.186954e+00 -2.288781e+00 -5.350407e+00 -1.257799e+00 5.435320e-01 2.510391e-03 1.440628e+00 -1.406588e-01 -4.909356e-01 -2.688855e+00 -1.630000e+00 8.613832e-01 -9.740847e-01 -2.233609e-01 -1.762593e-01 -5.838621e-01 6.150579e-01 -1.594093e-01 7.285583e-02
<VARIANCE> 25
 1.237427e+01 2.148712e+01 3.353601e+01 5.336325e+01 4.990217e+01 3.215474e+01 4.301084e+01 5.180127e+01 4.205367e+01 4.131685e+01 3.596546e+01 2.674889e+01 2.074561e+00 2.450935e+00 4.553502e+00 4.871018e+00 5.022264e+00 4.077258e+00 4.209219e+00 6.005045e+00 5.014118e+00 4.059562e+00 3.985937e+00 2.790741e+00 2.227151e-03
<GCONST> 9.872850e+01
<MIXTURE> 10 6.596976e-03
<MEAN> 25
 8.208874e-01 7.633523e+00 5.375906e+00 7.148777e+00 1.586737e+00 -2.115246e+00 -5.178803e-01 -1.685485e+00 8.735502e-01 8.594027e-01 8.396106e-01 6.575696e-01 -1.924629e+00 -6.733333e-01 -4.585040e-01 3.027692e+00 2.462975e+00 2.710134e+00 2.373758e+00 2.277864e+00 1.861586e+00 1.545169e+00 2.335539e+00 5.250328e-01 -1.381294e-01
<VARIANCE> 25
 1.954006e+01 2.069065e+01 2.230262e+01 2.905962e+01 3.831268e+01 3.493963e+01 3.514337e+01 3.383849e+01 2.761748e+01 2.905082e+01 2.695958e+01 2.501310e+01 2.235647e+00 3.426121e+00 5.535499e+00 5.171307e+00 5.552474e+00 4.470261e+00 4.700173e+00 4.843446e+00 4.388136e+00 5.020600e+00 4.442989e+00 3.191015e+00 2.698179e-03
<GCONST> 9.746093e+01
<MIXTURE> 11 1.633820e-02
<MEAN> 25
 7.079137e+00 3.121657e+00 3.933189e+00 4.723297e+00 -2.691047e+00 -7.243857e-01 -2.424808e+00 -5.402743e+00 -2.921791e+00 -5.470276e-02 -2.497952e+00 -2.857433e+00 -4.604781e-01 6.139876e-01 2.489668e-01 2.884076e-01 5.031871e-01 -2.115396e-01 4.969695e-01 -1.610517e-01 -2.781804e-01 1.173105e-01 -1.020623e-02 3.084540e-01 -1.503908e-02
<VARIANCE> 25
 1.106280e+01 2.537687e+01 1.984978e+01 2.660564e+01 3.438531e+01 3.947720e+01 4.176838e+01 4.567733e+01 4.353054e+01 3.143750e+01 3.005310e+01 2.787207e+01 9.523407e-01 1.242393e+00 1.769873e+00 2.016901e+00 1.812852e+00 2.311131e+00 2.437010e+00 2.584452e+00 1.993095e+00 1.880324e+00 2.016208e+00 2.132155e+00 8.333840e-04
<GCONST> 8.697588e+01
<MIXTURE> 12 5.904134e-03
<MEAN> 25
 1.076478e+01 3.742937e+00 -4.502264e+00 -1.599246e+01 -8.695164e+00 8.643080e+00 -8.965722e-01 -1.921634e+00 -1.722490e+00 -4.886241e+00 1.774427e+00 7.165860e-01 6.784052e-02 2.936808e-01 7.958711e-02 -3.681789e-01 -3.102389e-01 2.964854e-02 3.054965e-01 4.478234e-01 1.410982e-01 -3.845868e-01 -3.855733e-01 5.374189e-02 -6.300830e-03
<VARIANCE> 25
 8.887335e+00 2.100557e+01 2.335597e+01 3.504303e+01 4.207011e+01 3.095788e+01 4.179853e+01 4.897838e+01 4.406140e+01 3.738723e+01 3.799443e+01 2.892734e+01 2.469141e-01 6.884271e-01 6.861863e-01 1.169982e+00 1.186414e+00 1.053927e+00 1.171166e+00 1.386271e+00 1.240548e+00 1.222494e+00 1.221430e+00 9.567890e-01 5.786322e-04
<GCONST> 7.892296e+01
<MIXTURE> 13 5.904134e-03
<MEAN> 25
 1.076478e+01 3.742937e+00 -4.502264e+00 -1.599246e+01 -8.695164e+00 8.643080e+00 -8.965722e-01 -1.921634e+00 -1.722490e+00 -4.886241e+00 1.774427e+00 7.165860e-01 6.784052e-02 2.936808e-01 7.958711e-02 -3.681789e-01 -3.102389e-01 2.964854e-02 3.054965e-01 4.478234e-01 1.410982e-01 -3.845868e-01 -3.855733e-01 5.374189e-02 -6.300830e-03
<VARIANCE> 25
 8.887335e+00 2.100557e+01 2.335597e+01 3.504303e+01 4.207011e+01 3.095788e+01 4.179853e+01 4.897838e+01 4.406140e+01 3.738723e+01 3.799443e+01 2.892734e+01 2.469141e-01 6.884271e-01 6.861863e-01 1.169982e+00 1.186414e+00 1.053927e+00 1.171166e+00 1.386271e+00 1.240548e+00 1.222494e+00 1.221430e+00 9.567890e-01 5.786322e-04
<GCONST> 7.892296e+01
<MIXTURE> 14 6.488954e-03
<MEAN> 25
 -4.318593e+00 -3.796667e-01 -3.103290e-01 8.910893e+00 7.514582e+00 7.379979e+00 7.831286e+00 7.326870e+00 7.252162e+00 5.227111e+00 6.868504e+00 4.103277e+00 -2.746112e-01 1.937371e-01 3.649934e-01 3.101972e-01 6.773665e-03 5.989823e-02 9.737104e-02 1.772186e-01 2.959189e-01 5.395088e-01 5.066073e-01 7.623959e-02 -9.332865e-03
<VARIANCE> 25
 9.291959e+00 1.385849e+01 1.863173e+01 1.784429e+01 2.091072e+01 1.959555e+01 2.150495e+01 2.063649e+01 2.008438e+01 2.391185e+01 2.137826e+01 1.598139e+01 9.629512e-01 1.640779e+00 1.775226e+00 1.935638e+00 2.245666e+00 2.259961e+00 2.256337e+00 2.241299e+00 2.284977e+00 2.508371e+00 2.197024e+00 1.813951e+00 1.030009e-03
<GCONST> 8.191789e+01
<MIXTURE> 15 2.475190e-03
<MEAN> 25
 -5.424104e+00 -6.444228e-01 -2.011948e-01 7.368020e+00 5.719728e+00 5.701523e+00 6.060597e+00 4.979655e+00 5.164851e+00 4.154551e+00 5.502402e+00 2.539962e+00 -1.212346e-01 -2.916862e-02 7.500418e-02 2.436760e-01 4.894040e-01 7.865168e-01 1.072446e+00 1.182141e+00 1.059321e+00 7.561350e-01 4.197349e-01 1.534032e-01 -8.263445e-05
<VARIANCE> 25
 6.984151e+00 5.606074e+00 9.032881e+00 1.281365e+01 1.407832e+01 1.429724e+01 1.492043e+01 1.489847e+01 1.410044e+01 1.418376e+01 1.510192e+01 1.250873e+01 1.247606e-01 2.061875e-01 3.197811e-01 5.030959e-01 6.995990e-01 7.936963e-01 7.631562e-01 7.916138e-01 9.090421e-01 1.023956e+00 1.071348e+00 1.041232e+00 2.795582e-05
<GCONST> 5.858709e+01
<MIXTURE> 16 2.475190e-03
<MEAN> 25
 -5.424104e+00 -6.444228e-01 -2.011948e-01 7.368020e+00 5.719728e+00 5.701523e+00 6.060597e+00 4.979655e+00 5.164851e+00 4.154551e+00 5.502402e+00 2.539962e+00 -1.212346e-01 -2.916862e-02 7.500418e-02 2.436760e-01 4.894040e-01 7.865168e-01 1.072446e+00 1.182141e+00 1.059321e+00 7.561350e-01 4.197349e-01 1.534032e-01 -8.263445e-05
<VARIANCE> 25
 6.984151e+00 5.606074e+00 9.032881e+00 1.281365e+01 1.407832e+01 1.429724e+01 1.492043e+01 1.489847e+01 1.410044e+01 1.418376e+01 1.510192e+01 1.250873e+01 1.247606e-01 2.061875e-01 3.197811e-01 5.030959e-01 6.995990e-01 7.936963e-01 7.631562e-01 7.916138e-01 9.090421e-01 1.023956e+00 1.071348e+00 1.041232e+00 2.795582e-05
<GCONST> 5.858709e+01
<MIXTURE> 17 9.518312e-03
<MEAN> 25
 3.606313e+00 -8.036080e-01 6.381953e+00 2.383202e+00 -5.860728e+00 -6.174067e+00 -3.008816e+00 -1.341100e-01 -2.564995e+00 -3.179643e+00 1.518534e-01 6.633316e-02 -7.167578e-01 -1.171634e+00 1.246559e+00 -2.082747e+00 -2.271580e+00 -1.321237e-01 2.250355e-01 7.393427e-01 -2.015403e-01 -1.160176e-01 1.000142e+00 4.426537e-01 7.813769e-02
<VARIANCE> 25
 1.644378e+01 3.032135e+01 2.901893e+01 3.788060e+01 4.328136e+01 4.872049e+01 4.116428e+01 3.430182e+01 3.441315e+01 2.618015e+01 2.803773e+01 2.713870e+01 1.838695e+00 2.725040e+00 4.054223e+00 3.059512e+00 4.075997e+00 5.358535e+00 5.204092e+00 4.600986e+00 4.112546e+00 4.022121e+00 3.072491e+00 2.741618e+00 2.340682e-03
<GCONST> 9.677428e+01
<MIXTURE> 18 1.221018e-02
<MEAN> 25
 3.942240e+00 4.609304e+00 6.740227e+00 4.744534e+00 -4.611585e+00 -8.343021e+00 -1.732231e+00 -1.174834e+00 -3.377672e+00 -2.459825e+00 -8.620880e-01 5.814202e-01 -7.575896e-01 2.152991e+00 -1.974335e-01 2.022328e+00 3.108203e+00 1.479476e+00 8.040956e-01 -2.045207e-01 6.205665e-01 5.232314e-01 -2.914051e-01 -5.594426e-02 -1.236017e-01
<VARIANCE> 25
 1.610450e+01 2.533776e+01 3.282705e+01 2.612303e+01 3.995341e+01 3.373151e+01 3.861613e+01 3.505613e+01 3.918567e+01 3.448655e+01 3.260080e+01 3.092646e+01 2.568902e+00 3.057798e+00 4.734931e+00 4.073363e+00 4.109084e+00 4.672926e+00 4.662252e+00 4.467301e+00 4.479806e+00 4.309381e+00 4.564039e+00 3.630409e+00 4.127317e-03
<GCONST> 9.854369e+01
<MIXTURE> 19 9.912824e-03
<MEAN> 25
 -1.015117e+01 2.149225e+00 3.645806e-02 9.873862e-01 3.946660e+00 6.618934e-01 3.626544e+00 1.186783e+00 1.421348e+00 1.010678e+00 1.643867e+00 2.268426e+00 1.842744e+00 1.766475e+00 2.042665e+00 7.974092e-01 -1.176948e+00 -1.149656e+00 -8.884422e-01 -1.450284e+00 -1.594024e+00 -1.162088e+00 -6.523757e-01 -6.444120e-01 2.863018e-03
<VARIANCE> 25
 4.923767e+01 2.876257e+01 4.521641e+01 4.944563e+01 3.139225e+01 3.951093e+01 2.922586e+01 2.760120e+01 3.096865e+01 2.519560e+01 3.139834e+01 1.871451e+01 2.840968e+00 2.075713e+00 2.172698e+00 2.188212e+00 2.513362e+00 2.313498e+00 2.545777e+00 2.217149e+00 2.087359e+00 1.887430e+00 2.445463e+00 1.937499e+00 2.232687e-03
<GCONST> 9.141348e+01
<MIXTURE> 20 6.308331e-03
<MEAN> 25
 -1.418052e+01 7.415920e+00 8.454884e-01 6.151778e+00 4.842950e+00 1.637154e+00 5.209294e+00 8.531149e-01 9.219355e-01 7.984792e-01 2.568478e+00 -3.022536e-01 -3.285686e+00 -8.667822e-01 -1.565230e+00 3.324281e-01 1.540898e+00 2.063123e+00 1.979263e+00 2.056216e+00 2.144495e+00 2.040114e+00 1.684578e+00 9.453647e-01 4.731905e-02
<VARIANCE> 25
 1.967436e+01 2.345541e+01 3.095949e+01 3.717730e+01 3.085275e+01 2.788840e+01 2.993094e+01 3.147778e+01 2.796420e+01 2.821293e+01 2.515846e+01 2.091671e+01 2.092845e+00 2.182259e+00 1.909854e+00 2.541513e+00 2.702858e+00 2.312938e+00 2.309990e+00 2.319873e+00 2.235413e+00 2.652305e+00 2.241667e+00 1.865567e+00 1.886361e-03
<GCONST> 8.921957e+01
<MIXTURE> 21 7.928653e-03
<MEAN> 25
 3.971226e+00 -4.452552e+00 5.909845e+00 -1.364265e+00 -1.025724e+01 -8.283073e+00 -2.812334e+00 3.868374e+00 -1.988473e+00 -3.471624e+00 1.922592e-01 2.633390e-01 -7.189820e-01 1.269288e+00 2.513163e+00 -1.061805e-02 -1.518304e+00 3.519559e-01 6.362280e-01 -1.495078e+00 -1.937330e+00 3.039588e-01 1.385586e+00 2.663146e-01 -1.226058e-02
<VARIANCE> 25
 8.610736e+00 1.818889e+01 2.900476e+01 2.818181e+01 3.011365e+01 3.686426e+01 4.285923e+01 4.033121e+01 4.148876e+01 3.056501e+01 3.265823e+01 2.259460e+01 3.649061e-01 1.070254e+00 1.950577e+00 1.287788e+00 2.160857e+00 2.116396e+00 3.598601e+00 2.412134e+00 2.096563e+00 2.507470e+00 2.051151e+00 2.214293e+00 4.198239e-04
<GCONST> 8.498258e+01
<MIXTURE> 22 8.827789e-03
<MEAN> 25
 -1.792006e+01 7.154288e+00 -4.131176e+00 7.392056e+00 4.603004e+00 2.760141e+00 8.399167e+00 1.748440e+00 5.378663e+00 3.300721e+00 5.716424e+00 1.185096e+00 -3.097253e-01 -2.073840e-01 -1.255611e-01 -1.491908e-01 -7.313633e-03 1.366092e-01 1.808383e-01 1.779669e-01 2.482698e-01 2.071601e-01 1.726333e-01 1.924369e-01 8.859101e-03
<VARIANCE> 25
 8.122952e+00 1.682611e+01 1.738192e+01 2.517139e+01 2.289618e+01 2.084266e+01 1.943323e+01 1.870891e+01 1.814219e+01 2.086534e+01 1.923989e+01 1.378592e+01 1.090871e+00 1.357630e+00 1.363836e+00 1.571924e+00 1.408787e+00 1.528051e+00 1.508846e+00 1.532707e+00 1.614486e+00 1.544813e+00 1.357308e+00 1.167899e+00 1.745423e-03
<GCONST> 7.831091e+01
<MIXTURE> 23 6.455497e-03
<MEAN> 25
 7.948986e+00 2.456521e+00 3.045209e+00 2.428877e+00 -4.886256e+00 -3.172659e+00 -4.281179e+00 -6.513402e+00 -3.444806e+00 -1.025575e+00 -4.124677e+00 -2.126660e+00 3.414379e-02 1.774649e-01 9.406563e-03 5.608479e-02 1.122009e-03 4.675008e-02 1.780102e-02 -5.052594e-02 8.961833e-03 5.005262e-02 3.610344e-03 3.934547e-02 -4.330672e-03
<VARIANCE> 25
 1.049586e+01 2.226651e+01 2.458715e+01 4.074828e+01 3.803260e+01 5.391277e+01 5.910823e+01 5.494513e+01 4.817253e+01 4.702432e+01 4.839684e+01 4.033006e+01 1.181125e-01 2.941872e-01 3.793909e-01 4.897253e-01 5.979137e-01 7.118664e-01 7.795298e-01 8.829675e-01 8.802619e-01 8.790017e-01 8.202325e-01 7.581645e-01 8.857574e-05
<GCONST> 7.299049e+01
<MIXTURE> 24 6.455497e-03
<MEAN> 25
 7.948986e+00 2.456521e+00 3.045209e+00 2.428877e+00 -4.886256e+00 -3.172659e+00 -4.281179e+00 -6.513402e+00 -3.444806e+00 -1.025575e+00 -4.124677e+00 -2.126660e+00 3.414379e-02 1.774649e-01 9.406563e-03 5.608479e-02 1.122009e-03 4.675008e-02 1.780102e-02 -5.052594e-02 8.961833e-03 5.005262e-02 3.610344e-03 3.934547e-02 -4.330672e-03
<VARIANCE> 25
 1.049586e+01 2.226651e+01 2.458715e+01 4.074828e+01 3.803260e+01 5.391277e+01 5.910823e+01 5.494513e+01 4.817253e+01 4.702432e+01 4.839684e+01 4.033006e+01 1.181125e-01 2.941872e-01 3.793909e-01 4.897253e-01 5.979137e-01 7.118664e-01 7.795298e-01 8.829675e-01 8.802619e-01 8.790017e-01 8.202325e-01 7.581645e-01 8.857574e-05
<GCONST> 7.299049e+01
<MIXTURE> 25 1.118642e-02
<MEAN> 25
 3.430532e-01 3.357421e+00 1.658521e+01 -9.454060e-01 -1.113514e+01 -1.683014e+00 -4.931505e+00 -3.022304e+00 -6.777395e+00 -5.379031e+00 4.020059e+00 -1.624848e+00 -1.502149e-01 4.458179e-01 1.503880e-01 1.431308e-01 2.038452e-01 1.205107e-01 2.508103e-01 -1.863130e-01 -2.687274e-01 8.882503e-02 -3.350343e-02 -8.402429e-02 -1.241882e-02
<VARIANCE> 25
 8.787887e+00 2.234397e+01 2.196922e+01 2.831237e+01 3.243098e+01 4.078907e+01 2.728782e+01 2.959011e+01 2.869166e+01 3.601613e+01 2.087609e+01 2.716164e+01 5.952878e-01 1.427409e+00 1.412243e+00 1.372765e+00 2.227503e+00 1.999865e+00 1.931090e+00 1.625649e+00 1.536025e+00 1.620278e+00 1.409157e+00 1.299446e+00 1.260874e-03
<GCONST> 8.280008e+01
<MIXTURE> 26 7.727677e-03
<MEAN> 25
 2.233341e+00 -6.385749e+00 -1.022062e+01 -7.809759e-01 7.913725e+00 5.554605e+00 3.877672e+00 -1.711078e-01 2.294806e+00 -9.441485e-01 -2.853625e+00 -1.092067e+00 -6.373871e-01 6.250026e-01 3.863049e-01 6.947004e-01 1.871695e-01 2.322650e-01 2.756582e-01 3.435261e-01 3.023439e-01 9.902842e-02 3.789833e-01 4.017235e-01 -5.135655e-02
<VARIANCE> 25
 2.459233e+01 3.345968e+01 2.649034e+01 6.157630e+01 3.840704e+01 4.200246e+01 4.633661e+01 4.359397e+01 3.876220e+01 5.355922e+01 3.935440e+01 4.629264e+01 1.645486e+00 1.940318e+00 1.905149e+00 1.969662e+00 2.284073e+00 2.419184e+00 2.490261e+00 2.717000e+00 2.314291e+00 2.316397e+00 2.130106e+00 2.079391e+00 3.326874e-03
<GCONST> 9.376566e+01
<MIXTURE> 27 7.727677e-03
<MEAN> 25
 2.233341e+00 -6.385749e+00 -1.022062e+01 -7.809759e-01 7.913725e+00 5.554605e+00 3.877672e+00 -1.711078e-01 2.294806e+00 -9.441485e-01 -2.853625e+00 -1.092067e+00 -6.373871e-01 6.250026e-01 3.863049e-01 6.947004e-01 1.871695e-01 2.322650e-01 2.756582e-01 3.435261e-01 3.023439e-01 9.902842e-02 3.789833e-01 4.017235e-01 -5.135655e-02
<VARIANCE> 25
 2.459233e+01 3.345968e+01 2.649034e+01 6.157630e+01 3.840704e+01 4.200246e+01 4.633661e+01 4.359397e+01 3.876220e+01 5.355922e+01 3.935440e+01 4.629264e+01 1.645486e+00 1.940318e+00 1.905149e+00 1.969662e+00 2.284073e+00 2.419184e+00 2.490261e+00 2.717000e+00 2.314291e+00 2.316397e+00 2.130106e+00 2.079391e+00 3.326874e-03
<GCONST> 9.376566e+01
<MIXTURE> 28 5.036674e-03
<MEAN> 25
 -5.451643e+00 1.172903e-02 -1.569330e+00 6.616287e+00 5.232500e+00 3.518181e+00 5.416431e+00 3.130172e+00 3.922906e+00 2.394200e+00 2.638351e+00 3.220446e+00 -1.152358e-01 2.232223e-01 5.287618e-01 7.848936e-01 8.221655e-01 7.029542e-01 5.231987e-01 3.920046e-01 4.448535e-01 4.824229e-01 3.710276e-01 1.896353e-01 -1.242595e-05
<VARIANCE> 25
 1.043377e+01 8.352378e+00 1.216023e+01 1.484366e+01 1.471105e+01 1.773206e+01 1.804039e+01 1.901551e+01 1.718463e+01 1.673153e+01 2.060886e+01 1.500367e+01 2.565389e-01 3.365524e-01 4.068339e-01 4.641571e-01 6.216307e-01 8.470523e-01 1.056479e+00 1.144800e+00 1.102591e+00 1.029909e+00 1.036744e+00 1.066795e+00 1.000000e-06
<GCONST> 6.025220e+01
<MIXTURE> 29 5.036674e-03
<MEAN> 25
 -5.451643e+00 1.172903e-02 -1.569330e+00 6.616287e+00 5.232500e+00 3.518181e+00 5.416431e+00 3.130172e+00 3.922906e+00 2.394200e+00 2.638351e+00 3.220446e+00 -1.152358e-01 2.232223e-01 5.287618e-01 7.848936e-01 8.221655e-01 7.029542e-01 5.231987e-01 3.920046e-01 4.448535e-01 4.824229e-01 3.710276e-01 1.896353e-01 -1.242595e-05
<VARIANCE> 25
 1.043377e+01 8.352378e+00 1.216023e+01 1.484366e+01 1.471105e+01 1.773206e+01 1.804039e+01 1.901551e+01 1.718463e+01 1.673153e+01 2.060886e+01 1.500367e+01 2.565389e-01 3.365524e-01 4.068339e-01 4.641571e-01 6.216307e-01 8.470523e-01 1.056479e+00 1.144800e+00 1.102591e+00 1.029909e+00 1.036744e+00 1.066795e+00 1.000000e-06
<GCONST> 6.025220e+01
<MIXTURE> 30 8.917812e-03
<MEAN> 25
 -4.494856e+00 -1.955844e-01 6.549833e-01 9.089485e+00 7.776258e+00 7.510958e+00 7.584587e+00 6.881296e+00 6.534019e+00 4.897042e+00 7.013437e+00 3.502835e+00 -2.377401e-02 3.039365e-02 5.648663e-02 8.878811e-02 8.156331e-02 4.432442e-02 1.351708e-02 -3.020081e-03 1.724336e-02 5.153413e-02 6.148052e-02 3.488803e-02 -5.556997e-04
<VARIANCE> 25
 6.938110e+00 9.864533e+00 1.039685e+01 1.374210e+01 1.575179e+01 1.641825e+01 1.912591e+01 1.818077e+01 1.628381e+01 1.836780e+01 2.123915e+01 1.436375e+01 9.739164e-02 1.995653e-01 3.250103e-01 4.815429e-01 6.194437e-01 7.241967e-01 7.724708e-01 8.124726e-01 8.762312e-01 9.372468e-01 9.205505e-01 8.626050e-01 5.096844e-05
<GCONST> 6.058838e+01
<MIXTURE> 31 4.136493e-03
<MEAN> 25
 -3.304241e+00 -5.690338e+00 5.974517e-02 4.881021e+00 3.680907e+00 1.680474e+00 5.239938e+00 6.651347e+00 2.738878e+00 1.238916e+00 6.530496e+00 3.156551e+00 2.530126e-01 4.757485e-01 -2.114908e-01 3.088677e-01 1.197564e-01 4.238121e-01 1.899262e-01 1.357407e-02 3.795739e-01 3.829970e-01 1.061695e-01 1.158044e-01 -1.837862e-02
<VARIANCE> 25
 7.161923e+00 1.528716e+01 1.748198e+01 1.798309e+01 2.536303e+01 2.394003e+01 2.366464e+01 2.532107e+01 2.591865e+01 2.803395e+01 2.033280e+01 1.871461e+01 1.908942e-01 4.934245e-01 6.030232e-01 7.669332e-01 9.662981e-01 1.091132e+00 1.223045e+00 1.393789e+00 1.344434e+00 1.314750e+00 1.244275e+00 1.132356e+00 2.580019e-04
<GCONST> 7.183035e+01
<MIXTURE> 32 4.136493e-03
<MEAN> 25
 -3.304241e+00 -5.690338e+00 5.974517e-02 4.881021e+00 3.680907e+00 1.680474e+00 5.239938e+00 6.651347e+00 2.738878e+00 1.238916e+00 6.530496e+00 3.156551e+00 2.530126e-01 4.757485e-01 -2.114908e-01 3.088677e-01 1.197564e-01 4.238121e-01 1.899262e-01 1.357407e-02 3.795739e-01 3.829970e-01 1.061695e-01 1.158044e-01 -1.837862e-02
<VARIANCE> 25
 7.161923e+00 1.528716e+01 1.748198e+01 1.798309e+01 2.536303e+01 2.394003e+01 2.366464e+01 2.532107e+01 2.591865e+01 2.803395e+01 2.033280e+01 1.871461e+01 1.908942e-01 4.934245e-01 6.030232e-01 7.669332e-01 9.662981e-01 1.091132e+00 1.223045e+00 1.393789e+00 1.344434e+00 1.314750e+00 1.244275e+00 1.132356e+00 2.580019e-04
<GCONST> 7.183035e+01
<MIXTURE> 33 1.508826e-02
<MEAN> 25
 6.397742e+00 -3.834056e+00 -2.354833e+00 -2.702092e+00 -1.800243e+00 -5.247684e+00 -6.843018e+00 1.627704e+00 2.374220e+00 -3.346797e-01 -4.550473e+00 -2.802356e+00 7.063120e-01 -1.179614e+00 -2.363942e+00 -1.857047e+00 1.335342e+00 1.443222e+00 -7.844878e-01 6.040964e-01 9.648950e-01 4.058795e-01 -2.525713e-01 -1.318358e+00 3.487989e-02
<VARIANCE> 25
 9.964652e+00 2.053396e+01 2.798899e+01 3.430176e+01 3.905613e+01 4.450016e+01 4.359936e+01 4.432896e+01 3.874488e+01 4.193356e+01 3.342449e+01 2.743807e+01 1.168772e+00 1.841494e+00 2.219449e+00 2.096274e+00 4.277559e+00 3.269749e+00 4.098999e+00 5.371902e+00 3.703333e+00 4.553692e+00 3.241515e+00 2.471681e+00 1.534385e-03
<GCONST> 9.383701e+01
<MIXTURE> 34 1.588179e-02
<MEAN> 25
 8.794191e+00 -1.840996e-03 1.770869e-01 1.212124e+00 -2.769617e+00 -1.287917e+00 -6.031929e+00 -4.440669e+00 -1.678172e+00 1.881089e-01 -2.647315e+00 -3.803042e+00 -6.895134e-02 1.342655e+00 1.464974e+00 2.333062e+00 -1.823889e-04 -1.980275e-01 7.530180e-01 -1.596856e+00 -8.986927e-01 2.779298e-01 -5.600166e-01 2.678707e-01 -6.071525e-02
<VARIANCE> 25
 7.962470e+00 3.023981e+01 2.867598e+01 4.841706e+01 4.198647e+01 4.987164e+01 5.374633e+01 5.680836e+01 5.242745e+01 4.213832e+01 4.722217e+01 3.098482e+01 1.313739e+00 1.962624e+00 4.148374e+00 4.066363e+00 5.519335e+00 5.823583e+00 5.500536e+00 6.089690e+00 5.050783e+00 4.937069e+00 4.889439e+00 4.100595e+00 1.199627e-03
<GCONST> 9.956927e+01
<MIXTURE> 35 1.467755e-02
<MEAN> 25
 -2.146425e+00 -5.227788e+00 -9.946455e+00 2.105323e-01 9.676932e+00 7.950779e-01 1.604381e+00 2.529646e+00 1.465269e+00 4.584134e+00 3.571571e-02 1.882596e+00 5.529137e-01 -1.117986e+00 -1.421905e+00 -1.388535e+00 4.066548e-01 -7.907648e-01 -6.822180e-01 -1.335673e-01 -1.526960e-01 1.607971e-01 -6.456224e-01 -4.994122e-01 1.071926e-01
<VARIANCE> 25
 1.956530e+01 2.947370e+01 4.363686e+01 6.218394e+01 4.224063e+01 5.736123e+01 5.083534e+01 4.351510e+01 5.023275e+01 3.852813e+01 3.653932e+01 3.087219e+01 3.471632e+00 3.564410e+00 6.769605e+00 5.539047e+00 5.202962e+00 5.583940e+00 4.908223e+00 4.732843e+00 5.053205e+00 4.513700e+00 4.073868e+00 3.796603e+00 5.340183e-03
<GCONST> 1.035887e+02
<MIXTURE> 36 1.093293e-02
<MEAN> 25
 4.664277e+00 -3.353655e+00 6.842109e+00 2.572997e+00 -9.905407e+00 -8.872724e+00 -5.998209e+00 3.080407e+00 -1.697992e+00 -4.333168e+00 2.640894e+00 3.110975e-02 3.519619e-01 1.291727e-01 -8.343734e-01 -6.223882e-02 8.010774e-01 4.477777e-02 -5.045796e-01 -5.431552e-03 4.837808e-01 5.988937e-01 -4.018348e-01 -2.880173e-01 -1.386197e-02
<VARIANCE> 25
 1.136232e+01 1.637339e+01 2.186096e+01 2.652061e+01 3.054387e+01 3.175012e+01 4.513900e+01 3.448079e+01 3.773999e+01 3.188486e+01 2.702090e+01 2.558498e+01 4.522253e-01 7.500600e-01 1.559111e+00 1.378450e+00 1.617692e+00 1.550267e+00 2.218395e+00 1.734395e+00 2.072020e+00 1.627717e+00 1.377918e+00 1.435909e+00 7.393973e-04
<GCONST> 8.203335e+01
<MIXTURE> 37 1.246826e-02
<MEAN> 25
 5.456269e-01 7.768660e+00 1.205387e+01 -5.549865e+00 -8.027321e+00 -1.049933e+00 -5.075189e+00 -8.322684e+00 -3.710080e+00 -9.091012e-01 -3.665814e+00 -1.290702e+00 1.823856e-01 6.470619e-01 -1.354089e+00 3.580101e+00 1.986037e+00 -2.995299e-01 1.092495e+00 4.364697e-01 5.277073e-01 -3.227056e-01 5.373963e-01 -9.628087e-02 -9.486242e-02
<VARIANCE> 25
 1.592287e+01 2.601245e+01 3.083726e+01 5.101083e+01 3.393037e+01 3.200240e+01 4.400314e+01 3.503357e+01 3.858849e+01 3.594782e+01 3.775193e+01 3.087578e+01 2.954682e+00 3.414012e+00 3.017729e+00 4.107530e+00 4.619380e+00 3.752936e+00 4.208158e+00 3.810259e+00 3.448135e+00 3.619713e+00 3.868687e+00 2.792354e+00 3.933419e-03
<GCONST> 9.778265e+01
<MIXTURE> 38 1.154525e-02
<MEAN> 25
 -4.469510e+00 8.957955e+00 4.602526e+00 3.230944e+00 8.467429e-01 -5.211575e+00 -6.042900e-01 -2.740812e+00 -2.850307e+00 -3.094400e+00 -1.483322e+00 -5.427170e-01 -4.513997e+00 1.252082e+00 -3.135920e-01 1.451340e+00 2.559703e+00 1.386863e+00 2.051594e+00 9.508041e-01 7.855614e-01 6.369494e-01 1.005719e+00 3.298377e-01 4.851511e-02
<VARIANCE> 25
 3.140064e+01 2.971117e+01 3.897216e+01 3.296441e+01 4.879454e+01 3.559467e+01 3.631681e+01 4.162813e+01 3.485429e+01 3.251079e+01 2.433296e+01 2.872640e+01 2.363403e+00 3.935233e+00 3.906693e+00 5.163421e+00 4.250026e+00 5.039854e+00 4.777051e+00 4.645543e+00 4.442030e+00 4.932719e+00 4.391044e+00 3.273022e+00 2.047993e-03
<GCONST> 9.926662e+01
<MIXTURE> 39 9.501865e-03
<MEAN> 25
 1.336579e+00 2.592813e+00 1.019605e+01 -9.179196e+00 -1.126795e+01 -9.950189e-01 -2.970874e+00 -6.554763e+00 -4.510111e+00 8.669437e-01 -3.665104e+00 -2.284185e+00 -7.273617e-01 1.518067e+00 1.621336e+00 -1.383832e+00 7.703894e-02 1.217104e+00 -1.196543e+00 -1.250576e+00 4.274946e-01 4.480657e-01 -5.024148e-01 1.225577e-01 1.356859e-03
<VARIANCE> 25
 8.896581e+00 3.003776e+01 3.163003e+01 3.851319e+01 3.725421e+01 4.279419e+01 4.430884e+01 3.353643e+01 3.937437e+01 3.311734e+01 3.615484e+01 2.945812e+01 6.914771e-01 1.548454e+00 1.519627e+00 2.930899e+00 2.410159e+00 2.824705e+00 3.066779e+00 2.749017e+00 2.431790e+00 2.611752e+00 2.119015e+00 2.070235e+00 1.180668e-03
<GCONST> 8.965976e+01
<MIXTURE> 40 1.030800e-02
<MEAN> 25
 -9.201238e+00 2.121602e+00 -1.055290e+00 8.078950e+00 3.684750e+00 5.531405e+00 5.329497e+00 4.198190e+00 4.622250e+00 4.149884e+00 5.619448e+00 1.781111e+00 -7.117547e-02 -2.347717e-01 -6.202914e-02 -2.386743e-01 -1.129317e-01 -9.396515e-02 7.732001e-02 9.954702e-02 -2.409620e-03 -1.668013e-02 4.346566e-02 2.211821e-02 4.130645e-03
<VARIANCE> 25
 4.352658e+01 2.044096e+01 2.926301e+01 2.808993e+01 2.668671e+01 1.956856e+01 1.976531e+01 1.841792e+01 1.705453e+01 1.861230e+01 1.915641e+01 1.469185e+01 7.749753e-01 7.393605e-01 9.195271e-01 1.092606e+00 1.120694e+00 1.265861e+00 1.331930e+00 1.327438e+00 1.231549e+00 1.239398e+00 1.180253e+00 1.057278e+00 8.474751e-04
<GCONST> 7.694350e+01
<MIXTURE> 41 6.713375e-03
<MEAN> 25
 1.304216e+00 1.783712e+00 1.046535e+01 -6.945615e+00 -1.046153e+01 -3.857866e+00 -2.477885e+00 -5.033545e+00 -4.650504e+00 2.653214e+00 -1.739313e+00 -9.446185e-01 7.938878e-02 -7.606721e-01 1.694310e+00 -3.555563e+00 -2.457387e+00 -1.120250e-01 -5.053502e-01 -3.538551e-01 -8.218375e-01 1.087659e+00 -1.045105e+00 8.477210e-02 8.611872e-02
<VARIANCE> 25
 1.169205e+01 2.961317e+01 3.262479e+01 4.012934e+01 3.868478e+01 4.014252e+01 3.712443e+01 2.995599e+01 3.307093e+01 2.877885e+01 3.184847e+01 2.716738e+01 3.174187e+00 3.308810e+00 3.829314e+00 3.797424e+00 4.903006e+00 5.867916e+00 4.720306e+00 4.558329e+00 3.986678e+00 4.217452e+00 3.827767e+00 3.220884e+00 2.941261e-03
<GCONST> 9.791646e+01
<MIXTURE> 42 1.106211e-02
<MEAN> 25
 -1.514980e+00 4.201283e+00 4.486653e+00 2.535320e+00 1.359349e-01 -5.865496e+00 -1.120799e+00 -1.691124e+00 -1.208247e+00 -1.147979e+00 -2.456655e+00 1.066568e+00 3.851341e+00 -5.632800e-01 1.582732e+00 1.787110e-01 -2.850852e+00 -7.650372e-01 -2.250272e+00 -7.536600e-01 -6.653031e-01 -8.252389e-01 5.599016e-01 -1.078368e+00 6.415054e-03
<VARIANCE> 25
 3.603402e+01 2.004545e+01 4.250767e+01 2.518774e+01 3.614130e+01 3.757713e+01 3.460233e+01 2.528037e+01 2.812449e+01 2.803174e+01 2.036772e+01 1.682588e+01 3.830259e+00 4.593277e+00 5.535374e+00 4.405931e+00 4.331165e+00 6.322369e+00 4.668015e+00 4.922696e+00 4.695983e+00 4.686440e+00 3.866028e+00 3.093883e+00 4.015046e-03
<GCONST> 9.856154e+01
<MIXTURE> 43 7.108249e-03
<MEAN> 25
 3.162551e+00 -6.292019e+00 -2.226139e+00 -5.143864e+00 -7.362689e+00 -3.350986e+00 4.099196e+00 1.320750e+00 -5.061066e+00 -7.057074e+00 -4.316432e+00 -1.277150e+00 2.318949e-01 2.152856e+00 1.915169e+00 -1.266329e-01 -1.419852e+00 -7.967002e-01 -9.678126e-01 -7.656574e-01 8.229301e-01 1.471785e+00 3.383379e-01 1.329714e-02 -4.494272e-02
<VARIANCE> 25
 9.579090e+00 1.963763e+01 2.732349e+01 3.533789e+01 3.843468e+01 3.718433e+01 3.340300e+01 3.964050e+01 3.961664e+01 3.866840e+01 2.640492e+01 2.960334e+01 6.984553e-01 1.271111e+00 1.561900e+00 2.496536e+00 2.380224e+00 2.371624e+00 2.642282e+00 3.040250e+00 2.599553e+00 2.569156e+00 2.320930e+00 1.923960e+00 9.423772e-04
<GCONST> 8.799004e+01
<MIXTURE> 44 7.328289e-03
<MEAN> 25
 -1.513440e+01 1.562736e+00 3.522763e+00 -3.212026e+00 3.329257e+00 1.992953e+00 2.243865e-02 2.364106e+00 1.496091e+00 -7.608930e-01 1.825938e+00 1.986896e+00 -1.770827e-01 1.899574e-02 1.292464e-01 2.749967e-01 -1.128772e-01 1.774929e-01 4.784659e-01 1.281679e-01 2.291954e-01 1.176065e-01 4.448611e-02 1.011560e-01 4.775311e-03
<VARIANCE> 25
 4.377644e+01 2.745882e+01 3.438886e+01 2.984979e+01 2.961558e+01 3.070546e+01 2.484665e+01 3.176144e+01 2.760588e+01 2.690231e+01 2.694121e+01 1.914195e+01 1.260435e+00 1.556398e+00 1.448300e+00 1.355515e+00 2.148923e+00 1.707333e+00 1.526405e+00 1.675337e+00 1.585155e+00 1.503947e+00 1.360080e+00 1.228558e+00 1.264341e-03
<GCONST> 8.460832e+01
<MIXTURE> 45 1.364932e-02
<MEAN> 25
 -1.146170e+01 3.099088e+00 -1.182158e+00 2.593618e+00 5.526937e+00 -6.636869e-01 4.244154e+00 2.269284e+00 2.753693e+00 2.231366e+00 3.126518e+00 2.715671e+00 -2.824663e+00 7.511916e-01 -6.326733e-01 -4.790918e-01 2.825093e-01 -3.386731e-01 5.080846e-01 8.259389e-02 -1.945003e-01 -2.390653e-01 1.856199e-01 1.440194e-01 1.032400e-01
<VARIANCE> 25
 3.394196e+01 2.648642e+01 2.658208e+01 3.021732e+01 2.808348e+01 2.755451e+01 2.675406e+01 2.539494e+01 2.326490e+01 2.043286e+01 2.945959e+01 1.443266e+01 2.144480e+00 2.703361e+00 2.683279e+00 2.344864e+00 2.496008e+00 2.820868e+00 2.017926e+00 2.116095e+00 2.045485e+00 1.926407e+00 1.804411e+00 1.627061e+00 4.584451e-03
<GCONST> 8.888931e+01
<MIXTURE> 46 9.336259e-03
<MEAN> 25
 -9.438218e+00 2.310697e+00 1.196694e+00 7.551993e+00 5.910064e+00 3.310521e+00 7.056510e+00 4.479217e+00 5.671953e+00 4.668867e+00 5.027826e+00 2.928405e+00 1.062843e+00 -2.443643e-01 4.090559e-02 9.923002e-01 5.998541e-01 9.397118e-01 3.854670e-01 6.763869e-01 4.768833e-01 5.072848e-01 6.360469e-01 5.227769e-01 -1.053506e-01
<VARIANCE> 25
 3.431265e+01 4.369313e+01 3.843068e+01 4.987947e+01 5.095221e+01 4.095493e+01 3.698888e+01 3.536555e+01 3.345451e+01 3.123516e+01 2.827829e+01 2.018079e+01 3.908956e+00 4.139729e+00 3.876880e+00 4.147823e+00 4.164755e+00 3.694292e+00 3.379002e+00 3.119803e+00 2.981231e+00 2.866008e+00 2.311538e+00 1.786029e+00 7.953428e-03
<GCONST> 9.831570e+01
<MIXTURE> 47 7.116147e-03
<MEAN> 25
 6.820087e+00 -6.961488e+00 -7.748964e+00 -6.582911e+00 1.730214e+00 1.686031e+00 -2.395653e+00 1.170035e+00 2.480352e+00 -1.864797e-01 -4.049993e+00 -5.952975e+00 -7.232364e-02 -1.229317e+00 -5.710729e-01 -4.321195e-01 7.027079e-01 9.587814e-01 6.789722e-01 3.884042e-01 2.026007e-01 -8.527874e-01 -3.319011e-01 -5.543419e-01 2.997924e-02
<VARIANCE> 25
 1.141369e+01 2.033168e+01 1.866833e+01 2.983096e+01 3.329477e+01 5.293984e+01 4.098953e+01 3.819744e+01 4.175789e+01 4.293135e+01 4.457049e+01 3.421831e+01 5.618535e-01 7.400935e-01 1.250164e+00 1.589980e+00 1.912620e+00 2.125061e+00 2.354409e+00 2.318733e+00 2.232579e+00 2.153759e+00 2.102106e+00 1.923945e+00 5.132486e-04
<GCONST> 8.567030e+01
<MIXTURE> 48 7.116147e-03
<MEAN> 25
 6.820087e+00 -6.961488e+00 -7.748964e+00 -6.582911e+00 1.730214e+00 1.686031e+00 -2.395653e+00 1.170035e+00 2.480352e+00 -1.864797e-01 -4.049993e+00 -5.952975e+00 -7.232364e-02 -1.229317e+00 -5.710729e-01 -4.321195e-01 7.027079e-01 9.587814e-01 6.789722e-01 3.884042e-01 2.026007e-01 -8.527874e-01 -3.319011e-01 -5.543419e-01 2.997924e-02
<VARIANCE> 25
 1.141369e+01 2.033168e+01 1.866833e+01 2.983096e+01 3.329477e+01 5.293984e+01 4.098953e+01 3.819744e+01 4.175789e+01 4.293135e+01 4.457049e+01 3.421831e+01 5.618535e-01 7.400935e-01 1.250164e+00 1.589980e+00 1.912620e+00 2.125061e+00 2.354409e+00 2.318733e+00 2.232579e+00 2.153759e+00 2.102106e+00 1.923945e+00 5.132486e-04
<GCONST> 8.567030e+01
<MIXTURE> 49 5.548473e-03
<MEAN> 25
 -5.086419e+00 3.557730e-01 1.703158e-01 8.452208e+00 6.149000e+00 5.618192e+00 6.068264e+00 4.486885e+00 5.025403e+00 3.723327e+00 4.932182e+00 2.862833e+00 3.657617e-01 6.560097e-01 7.026828e-01 3.531147e-01 -1.965418e-01 -6.697417e-01 -1.008875e+00 -1.121726e+00 -9.562266e-01 -6.806933e-01 -4.928979e-01 -2.707685e-01 -1.842585e-05
<VARIANCE> 25
 9.600866e+00 1.003895e+01 1.425320e+01 1.588269e+01 1.589190e+01 1.715919e+01 1.943331e+01 1.943562e+01 1.822945e+01 1.794528e+01 2.066215e+01 1.428592e+01 2.806857e-01 2.631739e-01 3.593923e-01 6.118367e-01 8.692587e-01 9.741193e-01 9.924396e-01 1.052546e+00 1.135038e+00 1.219307e+00 1.280480e+00 1.210909e+00 1.435163e-05
<GCONST> 6.432694e+01
<MIXTURE> 50 6.234641e-03
<MEAN> 25
 -4.667297e+00 9.274097e-02 -1.451486e+00 6.200746e+00 4.220960e+00 2.276392e+00 3.705180e+00 1.987271e+00 2.779905e+00 1.404947e+00 2.157530e+00 2.846884e+00 5.631480e-02 1.759396e-01 9.540368e-02 -1.772728e-01 -5.118390e-01 -6.152570e-01 -4.266462e-01 -5.125352e-02 4.410728e-01 7.741106e-01 7.390668e-01 4.451569e-01 -1.301583e-05
<VARIANCE> 25
 1.053794e+01 1.115888e+01 1.434672e+01 1.541858e+01 1.534401e+01 1.857921e+01 1.856904e+01 1.948717e+01 1.854696e+01 1.749004e+01 2.164972e+01 1.520352e+01 1.447876e-01 2.394428e-01 3.785429e-01 5.173824e-01 5.987353e-01 7.348699e-01 9.568260e-01 1.118142e+00 1.060243e+00 9.096958e-01 9.182222e-01 9.894410e-01 1.000000e-06
<GCONST> 5.954232e+01
<MIXTURE> 51 6.234641e-03
<MEAN> 25
 -4.667297e+00 9.274097e-02 -1.451486e+00 6.200746e+00 4.220960e+00 2.276392e+00 3.705180e+00 1.987271e+00 2.779905e+00 1.404947e+00 2.157530e+00 2.846884e+00 5.631480e-02 1.759396e-01 9.540368e-02 -1.772728e-01 -5.118390e-01 -6.152570e-01 -4.266462e-01 -5.125352e-02 4.410728e-01 7.741106e-01 7.390668e-01 4.451569e-01 -1.301583e-05
<VARIANCE> 25
 1.053794e+01 1.115888e+01 1.434672e+01 1.541858e+01 1.534401e+01 1.857921e+01 1.856904e+01 1.948717e+01 1.854696e+01 1.749004e+01 2.164972e+01 1.520352e+01 1.447876e-01 2.394428e-01 3.785429e-01 5.173824e-01 5.987353e-01 7.348699e-01 9.568260e-01 1.118142e+00 1.060243e+00 9.096958e-01 9.182222e-01 9.894410e-01 1.000000e-06
<GCONST> 5.954232e+01
<MIXTURE> 52 6.367945e-03
<MEAN> 25
 9.914164e+00 1.739240e+00 -5.930278e+00 -1.368017e+01 -3.982631e+00 8.478349e+00 -2.621501e+00 -2.923746e+00 -4.226108e+00 -2.119227e+00 3.255420e+00 6.517247e-01 -4.004150e-01 -4.712513e-01 -1.893632e-02 1.151697e+00 1.340655e+00 -4.123703e-01 -7.113176e-01 -5.910276e-01 -2.219036e-02 1.281591e+00 3.420259e-01 -6.735336e-01 -1.368742e-02
<VARIANCE> 25
 9.618281e+00 2.110860e+01 2.539020e+01 4.309282e+01 4.467949e+01 2.984718e+01 4.486074e+01 4.723684e+01 4.150600e+01 4.379538e+01 3.818082e+01 2.930079e+01 4.430957e-01 1.411667e+00 1.313214e+00 2.621056e+00 2.225650e+00 2.163626e+00 3.113478e+00 2.778072e+00 2.955920e+00 2.621494e+00 2.433290e+00 2.451805e+00 1.470679e-03
<GCONST> 8.944542e+01
<MIXTURE> 53 6.367945e-03
<MEAN> 25
 9.914164e+00 1.739240e+00 -5.930278e+00 -1.368017e+01 -3.982631e+00 8.478349e+00 -2.621501e+00 -2.923746e+00 -4.226108e+00 -2.119227e+00 3.255420e+00 6.517247e-01 -4.004150e-01 -4.712513e-01 -1.893632e-02 1.151697e+00 1.340655e+00 -4.123703e-01 -7.113176e-01 -5.910276e-01 -2.219036e-02 1.281591e+00 3.420259e-01 -6.735336e-01 -1.368742e-02
<VARIANCE> 25
 9.618281e+00 2.110860e+01 2.539020e+01 4.309282e+01 4.467949e+01 2.984718e+01 4.486074e+01 4.723684e+01 4.150600e+01 4.379538e+01 3.818082e+01 2.930079e+01 4.430957e-01 1.411667e+00 1.313214e+00 2.621056e+00 2.225650e+00 2.163626e+00 3.113478e+00 2.778072e+00 2.955920e+00 2.621494e+00 2.433290e+00 2.451805e+00 1.470679e-03
<GCONST> 8.944542e+01
<MIXTURE> 54 7.368620e-03
<MEAN> 25
 -3.633801e+00 4.931954e-02 -6.831419e-01 8.036570e+00 6.484003e+00 4.625407e+00 4.675332e+00 4.601055e+00 4.053099e+00 3.593801e+00 4.457477e+00 2.326298e+00 -2.133210e-03 2.653849e-02 3.415401e-02 4.748240e-02 5.136495e-02 4.707923e-02 3.888674e-02 2.892036e-02 3.080963e-02 2.506088e-02 1.452187e-02 1.778039e-03 -1.219590e-05
<VARIANCE> 25
 9.137465e+00 1.036359e+01 9.295803e+00 1.818508e+01 1.332127e+01 1.353345e+01 1.197145e+01 1.128198e+01 1.134292e+01 1.354989e+01 1.780268e+01 1.253449e+01 4.087522e-02 8.734614e-02 1.540843e-01 2.265825e-01 3.079380e-01 3.969485e-01 4.608482e-01 5.215847e-01 5.420835e-01 5.211474e-01 5.144392e-01 5.164422e-01 1.000000e-06
<GCONST> 4.724841e+01
<MIXTURE> 55 7.368620e-03
<MEAN> 25
 -3.633801e+00 4.931954e-02 -6.831419e-01 8.036570e+00 6.484003e+00 4.625407e+00 4.675332e+00 4.601055e+00 4.053099e+00 3.593801e+00 4.457477e+00 2.326298e+00 -2.133210e-03 2.653849e-02 3.415401e-02 4.748240e-02 5.136495e-02 4.707923e-02 3.888674e-02 2.892036e-02 3.080963e-02 2.506088e-02 1.452187e-02 1.778039e-03 -1.219590e-05
<VARIANCE> 25
 9.137465e+00 1.036359e+01 9.295803e+00 1.818508e+01 1.332127e+01 1.353345e+01 1.197145e+01 1.128198e+01 1.134292e+01 1.354989e+01 1.780268e+01 1.253449e+01 4.087522e-02 8.734614e-02 1.540843e-01 2.265825e-01 3.079380e-01 3.969485e-01 4.608482e-01 5.215847e-01 5.420835e-01 5.211474e-01 5.144392e-01 5.164422e-01 1.000000e-06
<GCONST> 4.724841e+01
<MIXTURE> 56 6.132464e-03
<MEAN> 25
 7.398911e+00 -6.687177e+00 -8.957932e+00 -8.496820e+00 4.017823e+00 4.343668e+00 -2.222104e+00 -1.398492e+00 1.976771e+00 6.232027e-01 -2.471969e+00 -7.117171e+00 -3.590117e-03 2.814110e-02 -5.138327e-02 1.022488e-01 2.264075e-01 3.406291e-02 1.448490e-01 -1.616626e-01 1.272065e-02 4.811628e-02 -9.293476e-02 -5.658666e-02 -6.584981e-03
<VARIANCE> 25
 9.383606e+00 2.233040e+01 1.981212e+01 4.016170e+01 3.169048e+01 5.255867e+01 5.909660e+01 3.554665e+01 3.723799e+01 3.653413e+01 3.842215e+01 2.975566e+01 1.985782e-01 4.139334e-01 4.624765e-01 8.627719e-01 8.074356e-01 1.272452e+00 8.890089e-01 9.314436e-01 9.360843e-01 1.040993e+00 1.011463e+00 9.126013e-01 2.422507e-04
<GCONST> 7.528578e+01
<MIXTURE> 57 6.132464e-03
<MEAN> 25
 7.398911e+00 -6.687177e+00 -8.957932e+00 -8.496820e+00 4.017823e+00 4.343668e+00 -2.222104e+00 -1.398492e+00 1.976771e+00 6.232027e-01 -2.471969e+00 -7.117171e+00 -3.590117e-03 2.814110e-02 -5.138327e-02 1.022488e-01 2.264075e-01 3.406291e-02 1.448490e-01 -1.616626e-01 1.272065e-02 4.811628e-02 -9.293476e-02 -5.658666e-02 -6.584981e-03
<VARIANCE> 25
 9.383606e+00 2.233040e+01 1.981212e+01 4.016170e+01 3.169048e+01 5.255867e+01 5.909660e+01 3.554665e+01 3.723799e+01 3.653413e+01 3.842215e+01 2.975566e+01 1.985782e-01 4.139334e-01 4.624765e-01 8.627719e-01 8.074356e-01 1.272452e+00 8.890089e-01 9.314436e-01 9.360843e-01 1.040993e+00 1.011463e+00 9.126013e-01 2.422507e-04
<GCONST> 7.528578e+01
<MIXTURE> 58 6.172147e-03
<MEAN> 25
 2.186565e+00 -2.731698e+00 7.033207e+00 -4.851864e+00 -1.281261e+01 -5.885503e+00 1.235108e+00 9.841278e-01 -1.972963e+00 1.555610e+00 5.359580e-01 -2.419163e-01 -3.268717e-02 -7.892663e-02 -4.431079e-02 -1.945228e-01 -6.573269e-02 2.258584e-01 2.230204e-01 3.710082e-02 1.141282e-01 1.271989e-01 -2.425739e-02 -9.691543e-02 -5.682829e-05
<VARIANCE> 25
 7.739057e+00 1.455292e+01 1.908761e+01 2.625509e+01 2.402017e+01 4.291119e+01 3.140607e+01 3.253302e+01 3.040732e+01 2.868843e+01 2.059639e+01 2.093778e+01 2.889341e-01 7.830235e-01 7.048001e-01 1.051149e+00 8.098542e-01 1.103531e+00 1.254387e+00 1.519608e+00 1.118753e+00 1.037783e+00 8.853324e-01 8.116316e-01 6.989872e-04
<GCONST> 7.489256e+01
<MIXTURE> 59 6.172147e-03
<MEAN> 25
 2.186565e+00 -2.731698e+00 7.033207e+00 -4.851864e+00 -1.281261e+01 -5.885503e+00 1.235108e+00 9.841278e-01 -1.972963e+00 1.555610e+00 5.359580e-01 -2.419163e-01 -3.268717e-02 -7.892663e-02 -4.431079e-02 -1.945228e-01 -6.573269e-02 2.258584e-01 2.230204e-01 3.710082e-02 1.141282e-01 1.271989e-01 -2.425739e-02 -9.691543e-02 -5.682829e-05
<VARIANCE> 25
 7.739057e+00 1.455292e+01 1.908761e+01 2.625509e+01 2.402017e+01 4.291119e+01 3.140607e+01 3.253302e+01 3.040732e+01 2.868843e+01 2.059639e+01 2.093778e+01 2.889341e-01 7.830235e-01 7.048001e-01 1.051149e+00 8.098542e-01 1.103531e+00 1.254387e+00 1.519608e+00 1.118753e+00 1.037783e+00 8.853324e-01 8.116316e-01 6.989872e-04
<GCONST> 7.489256e+01
<MIXTURE> 60 4.479129e-03
<MEAN> 25
 -4.264487e+00 -6.649057e-01 -1.084375e+00 3.697239e+00 1.731568e+00 2.118855e+00 1.637564e+00 1.531185e+00 2.158351e+00 1.264553e+00 2.386028e+00 1.916092e+00 -2.849127e-02 5.650640e-02 1.011057e-01 1.301869e-01 1.294798e-01 1.293240e-01 1.787916e-01 3.225632e-01 5.452076e-01 6.645933e-01 5.562593e-01 3.033151e-01 -3.906901e-04
<VARIANCE> 25
 6.932817e+00 4.524348e+00 1.027675e+01 1.130676e+01 1.357749e+01 1.700124e+01 1.399785e+01 1.185802e+01 1.272545e+01 1.319725e+01 1.594022e+01 1.229296e+01 8.693190e-02 1.683225e-01 2.793859e-01 4.319128e-01 5.865183e-01 7.280031e-01 8.283045e-01 8.989630e-01 9.026473e-01 8.356966e-01 8.391468e-01 8.626353e-01 2.295606e-05
<GCONST> 5.633097e+01
<MIXTURE> 61 4.479129e-03
<MEAN> 25
 -4.264487e+00 -6.649057e-01 -1.084375e+00 3.697239e+00 1.731568e+00 2.118855e+00 1.637564e+00 1.531185e+00 2.158351e+00 1.264553e+00 2.386028e+00 1.916092e+00 -2.849127e-02 5.650640e-02 1.011057e-01 1.301869e-01 1.294798e-01 1.293240e-01 1.787916e-01 3.225632e-01 5.452076e-01 6.645933e-01 5.562593e-01 3.033151e-01 -3.906901e-04
<VARIANCE> 25
 6.932817e+00 4.524348e+00 1.027675e+01 1.130676e+01 1.357749e+01 1.700124e+01 1.399785e+01 1.185802e+01 1.272545e+01 1.319725e+01 1.594022e+01 1.229296e+01 8.693190e-02 1.683225e-01 2.793859e-01 4.319128e-01 5.865183e-01 7.280031e-01 8.283045e-01 8.989630e-01 9.026473e-01 8.356966e-01 8.391468e-01 8.626353e-01 2.295606e-05
<GCONST> 5.633097e+01
<MIXTURE> 62 3.278034e-03
<MEAN> 25
 -5.091026e+00 1.241214e+00 1.026271e+00 8.818723e+00 6.130915e+00 5.050725e+00 5.499556e+00 4.033865e+00 4.986128e+00 3.917933e+00 4.966511e+00 2.951131e+00 -1.003324e+00 -1.166706e+00 -9.532436e-01 -2.767730e-01 4.275916e-01 1.005176e+00 1.384688e+00 1.552256e+00 1.478758e+00 1.243487e+00 1.067137e+00 7.261052e-01 -1.264886e-03
<VARIANCE> 25
 9.873005e+00 9.958960e+00 1.311584e+01 1.673339e+01 1.741418e+01 1.752483e+01 1.970122e+01 1.911283e+01 1.886002e+01 1.872700e+01 2.156159e+01 1.479604e+01 4.017271e-01 4.320417e-01 5.541465e-01 7.793610e-01 1.035032e+00 1.192222e+00 1.252357e+00 1.279046e+00 1.329671e+00 1.363855e+00 1.400036e+00 1.371338e+00 1.632312e-05
<GCONST> 6.752585e+01
<MIXTURE> 63 4.351215e-03
<MEAN> 25
 -4.111050e+00 -2.273750e+00 -4.636519e+00 2.819488e+00 3.392312e+00 -4.529462e-01 2.780348e+00 1.421163e+00 2.421638e+00 -7.135089e-01 -1.206290e+00 2.520352e+00 -1.150482e-01 3.522760e-01 4.163689e-01 4.737293e-01 3.719276e-01 3.724525e-01 3.669616e-01 1.080356e-01 1.156580e-01 2.462427e-01 2.101450e-01 1.820767e-01 -3.961237e-03
<VARIANCE> 25
 8.883211e+00 1.535749e+01 1.646878e+01 1.584464e+01 1.870567e+01 2.721791e+01 2.251411e+01 2.394414e+01 2.456021e+01 2.196550e+01 2.024815e+01 1.626723e+01 2.730547e-01 4.391832e-01 6.163986e-01 7.290996e-01 9.061592e-01 1.181680e+00 1.265109e+00 1.415179e+00 1.371259e+00 1.385415e+00 1.312804e+00 1.355545e+00 1.867498e-04
<GCONST> 7.139981e+01
<MIXTURE> 64 4.351215e-03
<MEAN> 25
 -4.111050e+00 -2.273750e+00 -4.636519e+00 2.819488e+00 3.392312e+00 -4.529462e-01 2.780348e+00 1.421163e+00 2.421638e+00 -7.135089e-01 -1.206290e+00 2.520352e+00 -1.150482e-01 3.522760e-01 4.163689e-01 4.737293e-01 3.719276e-01 3.724525e-01 3.669616e-01 1.080356e-01 1.156580e-01 2.462427e-01 2.101450e-01 1.820767e-01 -3.961237e-03
<VARIANCE> 25
 8.883211e+00 1.535749e+01 1.646878e+01 1.584464e+01 1.870567e+01 2.721791e+01 2.251411e+01 2.394414e+01 2.456021e+01 2.196550e+01 2.024815e+01 1.626723e+01 2.730547e-01 4.391832e-01 6.163986e-01 7.290996e-01 9.061592e-01 1.181680e+00 1.265109e+00 1.415179e+00 1.371259e+00 1.385415e+00 1.312804e+00 1.355545e+00 1.867498e-04
<GCONST> 7.139981e+01
<MIXTURE> 65 1.721197e-02
<MEAN> 25
 7.672310e+00 1.720508e+00 2.192843e+00 6.617453e-01 -5.130869e+00 -3.651394e+00 -5.632289e+00 -6.398882e+00 -3.572738e+00 -2.417662e+00 -5.169267e+00 -1.821209e+00 1.398862e-01 5.910113e-02 5.669316e-02 1.851717e-01 -1.743596e-01 2.989468e-01 -1.089253e-01 -1.822634e-01 8.935644e-02 2.978072e-02 6.024387e-02 -1.947578e-01 -4.430947e-03
<VARIANCE> 25
 1.083913e+01 1.944406e+01 2.610458e+01 3.398088e+01 3.630008e+01 5.973291e+01 5.751839e+01 5.700048e+01 5.301596e+01 5.451434e+01 5.363581e+01 4.839368e+01 5.911834e-01 9.859577e-01 1.674369e+00 1.796911e+00 1.970357e+00 2.165208e+00 2.495132e+00 2.904239e+00 2.440185e+00 2.450424e+00 2.542070e+00 2.225482e+00 3.970031e-04
<GCONST> 8.937575e+01
<MIXTURE> 66 1.191532e-02
<MEAN> 25
 6.629959e+00 -4.005138e+00 -5.436840e+00 -4.647958e+00 1.325066e+00 -4.830145e+00 -6.783349e+00 1.257604e+00 7.983549e-01 -1.915695e+00 -6.080819e+00 -3.609567e+00 -8.581541e-02 1.668118e+00 2.204486e+00 2.257889e+00 -1.184126e+00 -1.284495e+00 6.919214e-02 -5.441186e-01 -1.549951e-01 -1.859771e-01 -2.153566e-01 1.075482e+00 -6.234375e-02
<VARIANCE> 25
 8.795683e+00 2.208260e+01 2.762770e+01 3.328420e+01 3.754768e+01 5.441372e+01 5.513968e+01 4.444476e+01 5.368755e+01 6.565186e+01 3.620731e+01 3.609042e+01 1.321645e+00 2.398491e+00 2.337216e+00 2.537850e+00 4.247340e+00 4.260887e+00 4.281944e+00 4.756486e+00 4.159825e+00 4.893270e+00 3.819692e+00 3.336709e+00 1.502205e-03
<GCONST> 9.671043e+01
<MIXTURE> 67 1.559142e-02
<MEAN> 25
 8.972522e+00 2.025237e+00 -5.955825e+00 -8.244102e+00 9.094731e-01 3.091074e+00 -3.321607e+00 -2.224492e+00 -3.752216e+00 7.814900e-01 -6.349707e-02 -1.750486e+00 -1.076280e+00 1.830720e+00 1.062750e+00 3.064163e+00 1.392484e+00 -5.142837e-01 1.298158e+00 1.184130e-01 1.537622e-01 2.526479e-01 -2.784296e-01 6.280259e-01 -1.296079e-01
<VARIANCE> 25
 1.148352e+01 3.877951e+01 3.086182e+01 5.597178e+01 4.901321e+01 5.395422e+01 6.191383e+01 5.274004e+01 6.480721e+01 5.695957e+01 5.567222e+01 4.733279e+01 2.175179e+00 3.458380e+00 3.281214e+00 4.530936e+00 4.509434e+00 4.555440e+00 4.709771e+00 5.061962e+00 5.464066e+00 4.774574e+00 5.121516e+00 3.768082e+00 3.079085e-03
<GCONST> 1.029112e+02
<MIXTURE> 68 1.485092e-02
<MEAN> 25
 -2.010590e+00 -2.293403e+00 -4.083855e+00 1.244520e+00 5.248037e+00 -6.761482e-01 2.129984e+00 1.813291e+00 2.001149e+00 1.719193e+00 4.630260e-01 1.878609e+00 2.767779e+00 5.366871e-01 1.409795e-02 -2.582631e+00 -2.408540e+00 -1.575879e+00 -2.347869e+00 -1.787398e+00 -1.635202e+00 -1.479637e+00 -1.970791e+00 -1.061927e+00 1.026524e-01
<VARIANCE> 25
 2.593934e+01 3.194576e+01 5.859085e+01 5.238053e+01 4.654428e+01 5.489346e+01 4.507447e+01 4.212463e+01 4.029022e+01 4.359532e+01 3.733001e+01 2.564809e+01 1.859447e+00 3.755811e+00 5.914903e+00 5.843288e+00 4.693307e+00 5.631930e+00 5.753467e+00 4.956564e+00 5.010083e+00 5.245409e+00 5.062361e+00 3.408976e+00 6.184641e-03
<GCONST> 1.035687e+02
<MIXTURE> 69 1.204884e-02
<MEAN> 25
 4.633842e+00 -4.170598e+00 -3.547549e+00 -3.607728e+00 -3.473490e+00 -7.778299e+00 -1.084983e+00 2.205224e+00 -3.020180e-01 -4.649542e+00 -5.627875e+00 9.601083e-01 1.674339e+00 -2.222749e+00 -1.326529e+00 -2.235492e+00 -5.334285e-01 -3.256324e-01 -4.881513e-01 6.048946e-01 -6.241996e-01 -1.454574e+00 -2.167632e+00 -1.798596e-01 6.143278e-02
<VARIANCE> 25
 8.939526e+00 2.170691e+01 2.655180e+01 2.564750e+01 4.231708e+01 3.621603e+01 4.833599e+01 3.130288e+01 3.942014e+01 3.794259e+01 3.086482e+01 2.427806e+01 3.502891e+00 2.891364e+00 3.326488e+00 3.659951e+00 5.691458e+00 4.991690e+00 7.030143e+00 6.001931e+00 5.892641e+00 5.844345e+00 4.380663e+00 3.660679e+00 2.489489e-03
<GCONST> 9.854677e+01
<MIXTURE> 70 1.329190e-02
<MEAN> 25
 7.396475e+00 -1.951323e+00 -3.713448e+00 -3.576602e+00 -3.133133e-01 -6.377369e-01 -7.479260e+00 -3.852814e+00 7.025523e-01 2.819373e+00 -2.965563e-01 -4.773866e+00 1.915163e+00 -1.164328e+00 -7.440742e-01 -2.133955e+00 -1.536223e+00 1.217200e+00 -1.387253e+00 -1.028468e-01 3.175682e-01 -1.110483e-01 7.016388e-01 -1.455294e+00 5.590570e-02
<VARIANCE> 25
 9.922804e+00 2.190722e+01 2.874539e+01 4.515498e+01 3.434517e+01 4.309401e+01 4.909006e+01 4.305005e+01 4.574623e+01 3.173859e+01 4.412961e+01 2.672558e+01 3.393127e+00 3.114812e+00 4.839993e+00 4.948864e+00 5.092682e+00 6.232850e+00 6.625299e+00 7.267473e+00 5.952319e+00 5.396220e+00 5.643830e+00 4.144090e+00 2.616157e-03
<GCONST> 1.013480e+02
<MIXTURE> 71 1.406903e-02
<MEAN> 25
 6.214171e+00 4.998802e+00 4.312108e+00 3.055778e+00 -3.387326e+00 -3.204949e+00 -3.262487e+00 -6.503831e+00 -4.549414e+00 -2.431334e+00 -5.019497e+00 -3.179027e+00 -1.543191e+00 -6.412376e-01 -2.808796e-01 -1.747482e+00 1.087330e+00 -1.547523e-01 1.243929e-01 1.493218e+00 3.140689e-01 -1.544536e-01 6.775201e-01 2.574209e-01 3.972624e-02
<VARIANCE> 25
 1.925147e+01 2.617978e+01 2.354525e+01 4.366249e+01 3.973230e+01 4.070864e+01 4.243697e+01 4.156336e+01 3.865410e+01 4.323743e+01 3.706298e+01 3.418748e+01 1.763491e+00 3.049928e+00 5.220036e+00 4.777490e+00 4.605258e+00 4.780088e+00 4.925676e+00 5.370253e+00 4.199888e+00 3.996292e+00 3.621680e+00 3.399658e+00 1.413881e-03
<GCONST> 9.857007e+01
<MIXTURE> 72 8.134747e-03
<MEAN> 25
 3.703033e+00 -3.609907e+00 5.391433e+00 -2.400644e+00 -1.032632e+01 -9.563472e+00 -2.365734e+00 2.000848e+00 -4.861348e+00 -2.186951e+00 -1.863673e+00 6.651076e-01 9.383304e-01 -8.016682e-01 -2.511314e+00 4.228742e-01 2.097441e+00 -6.562302e-01 -1.326757e+00 1.515441e+00 1.832572e+00 -5.462031e-01 -1.282954e+00 4.017565e-01 -6.074110e-03
<VARIANCE> 25
 1.118626e+01 1.947130e+01 3.252506e+01 3.811754e+01 3.208293e+01 3.384892e+01 4.079853e+01 3.614385e+01 4.340229e+01 4.071978e+01 3.820878e+01 2.813269e+01 4.296847e-01 1.024379e+00 2.248052e+00 1.541943e+00 2.233415e+00 2.320230e+00 3.021937e+00 2.697656e+00 2.611803e+00 3.084241e+00 1.997156e+00 2.097096e+00 5.349344e-04
<GCONST> 8.734808e+01
<MIXTURE> 73 1.213625e-02
<MEAN> 25
 -5.625722e+00 -7.875246e-01 -1.287700e+00 4.900947e+00 4.224971e+00 2.313719e+00 5.497363e+00 3.431662e+00 4.347254e+00 3.436515e+00 4.282848e+00 3.041247e+00 7.933525e-01 -1.022104e+00 -9.483277e-01 -2.640785e+00 -1.253079e+00 -1.752661e+00 -8.944899e-01 -5.096866e-01 -9.117538e-01 -7.028637e-01 -1.096732e+00 -2.738394e-01 1.541719e-01
<VARIANCE> 25
 1.285117e+01 1.334863e+01 1.520250e+01 2.257911e+01 2.332101e+01 2.486895e+01 2.039427e+01 2.006535e+01 1.778794e+01 1.902112e+01 2.292979e+01 1.556040e+01 4.066391e+00 3.100176e+00 5.947056e+00 4.667715e+00 6.139353e+00 4.552060e+00 4.299395e+00 4.235165e+00 3.903370e+00 4.219470e+00 3.541665e+00 2.693918e+00 4.381354e-03
<GCONST> 9.272543e+01
<MIXTURE> 74 1.756491e-02
<MEAN> 25
 4.511873e+00 -1.600689e+00 5.275190e+00 -1.135691e+00 -8.731102e+00 -8.263465e+00 -2.703143e+00 7.533974e-01 -4.107666e+00 -2.832398e+00 -1.689944e+00 2.475652e-01 3.056653e-01 2.015956e+00 4.669746e-02 1.711058e+00 1.229319e+00 3.549499e-01 1.506468e-03 -1.325990e+00 1.738591e-01 1.840115e-01 -2.352652e-01 -1.021167e-01 -7.836232e-02
<VARIANCE> 25
 1.168036e+01 2.193672e+01 3.753106e+01 3.860906e+01 3.735819e+01 4.039802e+01 5.147667e+01 4.659273e+01 4.807173e+01 4.464885e+01 4.116937e+01 3.446295e+01 2.105051e+00 2.068855e+00 3.927833e+00 2.609023e+00 3.925427e+00 3.921319e+00 5.087025e+00 4.292641e+00 4.163713e+00 4.040359e+00 3.652457e+00 3.223965e+00 1.775859e-03
<GCONST> 9.737385e+01
<MIXTURE> 75 9.711651e-03
<MEAN> 25
 2.403247e+00 -9.936685e-01 1.027484e+01 1.996770e+00 -1.096478e+01 -7.253703e+00 -4.140748e+00 -6.399392e-01 -4.325620e+00 -4.694345e+00 2.990029e+00 4.032231e-01 1.712930e+00 -1.799035e+00 4.369304e-01 -2.639088e-01 -2.237010e+00 -3.365344e-01 -1.440934e+00 9.555945e-01 -6.976424e-02 -2.301714e-01 9.295109e-01 -5.741968e-01 3.033964e-02
<VARIANCE> 25
 1.110182e+01 1.658185e+01 3.106973e+01 2.694587e+01 2.835968e+01 3.165829e+01 3.156307e+01 2.903549e+01 3.463861e+01 2.829642e+01 2.168811e+01 1.964177e+01 2.126364e+00 1.677348e+00 4.107227e+00 2.484430e+00 3.746113e+00 4.327632e+00 3.675359e+00 3.896251e+00 3.950375e+00 3.688308e+00 3.206383e+00 2.524142e+00 1.822437e-03
<GCONST> 9.195928e+01
<MIXTURE> 76 1.052359e-02
<MEAN> 25
 -5.123391e+00 -7.003726e-01 -2.159383e+00 2.606251e+00 3.423276e+00 1.220146e+00 3.844944e+00 1.652281e+00 2.546475e+00 6.972005e-01 1.029646e+00 2.834015e+00 3.201274e-02 -5.121058e-01 -3.550058e-01 -7.836015e-01 -5.927586e-01 -6.592609e-01 -5.585903e-01 -2.263157e-01 -4.487492e-01 -6.169469e-01 -2.490251e-01 -5.174334e-02 1.833537e-02
<VARIANCE> 25
 3.806188e+01 2.402928e+01 2.439239e+01 2.539438e+01 3.294501e+01 3.886747e+01 2.404849e+01 2.175517e+01 2.046969e+01 2.048479e+01 2.598972e+01 1.594927e+01 1.373356e+00 1.263770e+00 1.617153e+00 1.088656e+00 1.337664e+00 1.986611e+00 1.620483e+00 1.689616e+00 1.488647e+00 1.511682e+00 1.224505e+00 1.352062e+00 9.547923e-04
<GCONST> 8.213765e+01
<MIXTURE> 77 1.244626e-02
<MEAN> 25
 -4.778146e-01 8.516313e+00 1.237961e+01 -1.149192e+01 -7.033510e+00 8.453644e-01 -9.254873e+00 -7.194426e+00 -3.326169e+00 -1.711923e-01 -4.597788e+00 -1.426511e+00 6.811178e-02 1.405573e-01 7.886963e-02 2.555299e-01 -2.823423e-02 6.997457e-02 -8.476955e-02 -8.272424e-02 7.722466e-02 -3.715316e-02 2.493230e-02 1.120965e-01 -9.606870e-03
<VARIANCE> 25
 1.034105e+01 2.029587e+01 2.783761e+01 4.259467e+01 3.289729e+01 3.459526e+01 3.640054e+01 3.160945e+01 3.508652e+01 3.293920e+01 3.746328e+01 3.488317e+01 2.957616e-01 7.707714e-01 6.422177e-01 1.077323e+00 1.227214e+00 9.822674e-01 1.250981e+00 1.102577e+00 1.035551e+00 1.059478e+00 9.634581e-01 9.164172e-01 5.424802e-04
<GCONST> 7.779495e+01
<MIXTURE> 78 9.702551e-03
<MEAN> 25
 -1.030320e+01 1.910872e+00 -1.799784e+00 2.656376e+00 3.192334e+00 -2.920486e+00 3.642169e+00 2.353012e+00 1.175297e+00 9.125736e-01 -8.141683e-01 3.128370e+00 2.460276e+00 -6.573777e-01 2.988569e-01 1.041959e-01 -7.325628e-02 2.183857e-01 -3.769234e-01 -4.523370e-02 5.652921e-01 9.555329e-02 -2.880569e-01 -6.040560e-01 -5.529220e-02
<VARIANCE> 25
 3.828288e+01 2.869111e+01 2.789348e+01 2.780646e+01 3.854845e+01 3.232585e+01 2.809752e+01 2.916390e+01 2.994425e+01 4.051724e+01 2.579403e+01 1.792270e+01 3.996030e+00 2.470870e+00 2.337934e+00 3.261928e+00 2.368190e+00 3.037508e+00 2.623546e+00 3.041897e+00 2.418115e+00 2.308089e+00 2.063406e+00 1.967118e+00 3.926659e-03
<GCONST> 9.262784e+01
<MIXTURE> 79 1.156824e-02
<MEAN> 25
 2.424636e+00 1.571463e+00 9.173792e+00 -6.594094e+00 -1.205444e+01 -1.789279e+00 -1.893481e+00 -6.460231e+00 -6.563333e+00 3.097900e-01 -3.503585e+00 -3.275989e+00 1.222805e+00 -5.291693e-01 -1.432487e+00 2.344396e+00 3.789442e-01 -1.466676e+00 5.329930e-01 8.889940e-01 -4.337482e-01 -5.419682e-01 3.577453e-01 2.797985e-01 -3.616028e-02
<VARIANCE> 25
 1.422684e+01 2.410516e+01 3.792384e+01 4.972858e+01 3.344909e+01 4.368227e+01 4.290223e+01 3.680195e+01 3.893822e+01 3.975204e+01 4.385872e+01 3.072500e+01 9.437559e-01 2.263772e+00 1.894355e+00 2.112793e+00 2.467251e+00 2.824703e+00 3.199219e+00 3.528309e+00 2.511521e+00 2.729364e+00 2.313231e+00 2.028311e+00 1.237057e-03
<GCONST> 9.181584e+01
<MIXTURE> 80 7.550998e-03
<MEAN> 25
 -1.460779e+01 3.983658e+00 6.885592e-01 2.865963e+00 2.449073e+00 1.407530e+00 6.396680e+00 2.495992e+00 2.717695e+00 2.372842e+00 4.853262e+00 1.187730e+00 4.285469e+00 -1.579588e-02 1.637613e+00 -1.135070e+00 -2.889390e+00 -2.777187e+00 -2.322729e+00 -2.021380e+00 -1.974899e+00 -1.685232e+00 -1.650463e+00 -6.026812e-01 -4.422339e-02
<VARIANCE> 25
 2.094972e+01 1.984606e+01 3.443935e+01 3.470233e+01 3.017646e+01 2.924538e+01 2.828198e+01 2.855450e+01 2.676020e+01 2.881030e+01 2.685254e+01 1.810626e+01 2.360669e+00 2.666245e+00 2.673146e+00 4.120435e+00 3.393704e+00 2.705953e+00 3.026010e+00 3.203566e+00 2.749114e+00 2.701291e+00 2.782616e+00 2.145704e+00 1.512363e-03
<GCONST> 9.139967e+01
<MIXTURE> 81 8.025434e-03
<MEAN> 25
 -1.118424e+00 4.066026e+00 1.014787e+01 -1.472971e+01 -9.052274e+00 -1.402316e+00 -6.703470e+00 -8.419271e+00 -4.151516e+00 -4.308192e-01 -7.532007e+00 -2.223737e+00 1.357336e-01 -5.819219e-01 -1.445726e-02 -5.623432e-01 -4.651180e-01 3.435391e-01 3.279951e-01 1.472064e-01 -1.364101e-01 1.061039e-01 -4.701467e-01 -1.167619e-01 1.152352e-02
<VARIANCE> 25
 1.010469e+01 3.264134e+01 2.650305e+01 3.011711e+01 3.366991e+01 3.044804e+01 4.599800e+01 2.812035e+01 3.780460e+01 3.175686e+01 2.550165e+01 3.098116e+01 7.688853e-01 2.271710e+00 1.568730e+00 2.866570e+00 2.649701e+00 2.127951e+00 3.279420e+00 2.301159e+00 2.347507e+00 2.526485e+00 2.288452e+00 2.083657e+00 1.177080e-03
<GCONST> 8.869749e+01
<MIXTURE> 82 8.213053e-03
<MEAN> 25
 -9.960158e+00 -3.897573e+00 1.638679e+00 -2.966389e+00 3.112931e+00 6.645083e-01 1.994645e+00 9.358526e-01 2.971520e+00 1.730026e+00 1.750886e+00 3.088128e+00 -1.314884e+00 -1.230884e-01 2.879495e-01 -2.601742e+00 -1.104171e+00 -1.266771e+00 -1.011424e+00 -8.703086e-01 -3.167266e-01 -4.790306e-01 -3.155196e-01 -9.310305e-02 1.782575e-01
<VARIANCE> 25
 1.803436e+01 2.494443e+01 3.234408e+01 3.087990e+01 3.299909e+01 3.229763e+01 3.175275e+01 3.295975e+01 3.085305e+01 2.510340e+01 3.083417e+01 1.749524e+01 3.752028e+00 3.049253e+00 3.318179e+00 3.272079e+00 3.562392e+00 3.285385e+00 2.944805e+00 3.013762e+00 2.795184e+00 2.489254e+00 2.448498e+00 1.869390e+00 3.456342e-03
<GCONST> 9.308853e+01
<MIXTURE> 83 1.167529e-02
<MEAN> 25
 -2.003868e+01 5.503818e+00 -1.789845e+00 -4.043409e-01 7.829491e+00 -1.235637e+00 5.459505e+00 3.044171e+00 1.191743e+00 2.190576e+00 7.254044e-01 2.881496e+00 -2.655287e-02 -4.497805e-01 4.873981e-03 -3.654147e-01 -4.975992e-01 -1.263864e-01 -1.341731e-01 -9.941485e-02 -4.174057e-02 -3.945336e-02 -3.057051e-02 -3.465738e-02 4.405846e-03
<VARIANCE> 25
 8.839098e+00 1.645257e+01 2.850735e+01 2.248424e+01 2.127373e+01 2.408275e+01 2.202511e+01 2.336064e+01 2.042890e+01 2.221561e+01 2.319744e+01 1.448619e+01 1.061363e+00 9.369791e-01 1.240572e+00 1.065772e+00 1.359373e+00 1.292917e+00 1.283392e+00 1.388085e+00 1.349425e+00 1.310819e+00 1.220633e+00 1.071559e+00 8.922820e-04
<GCONST> 7.703893e+01
<MIXTURE> 84 1.066614e-02
<MEAN> 25
 1.158043e+00 8.968719e+00 7.218600e+00 7.936287e+00 2.769029e+00 -9.120681e-01 -1.474309e+00 -4.490500e+00 -4.136454e+00 -2.925082e+00 -2.367157e+00 -1.563577e+00 -1.764326e+00 -1.177121e+00 -1.203418e+00 1.262855e+00 2.230021e+00 1.499802e+00 1.452081e+00 1.299989e+00 1.166611e+00 4.077719e-01 4.059017e-01 4.354238e-01 -7.113273e-02
<VARIANCE> 25
 2.335918e+01 1.846816e+01 2.154055e+01 2.437716e+01 2.936451e+01 2.825737e+01 2.806314e+01 2.639236e+01 2.517370e+01 2.509754e+01 2.370707e+01 2.453891e+01 2.150844e+00 2.542706e+00 3.854217e+00 3.349042e+00 3.309268e+00 3.360315e+00 3.286977e+00 3.401362e+00 3.459249e+00 3.234753e+00 3.578635e+00 2.793030e+00 3.540777e-03
<GCONST> 9.257435e+01
<MIXTURE> 85 7.591393e-03
<MEAN> 25
 -3.118061e+00 7.891503e+00 5.718435e+00 1.290073e+00 -3.492639e+00 -5.336536e+00 -2.973618e+00 -6.118151e+00 -3.544986e+00 -3.183923e+00 -4.720040e-01 -1.893854e+00 3.939652e+00 3.248321e-01 1.754069e+00 -2.087825e+00 -3.413881e+00 -2.580115e+00 -2.883274e+00 -2.340009e+00 -2.247292e+00 -1.264748e+00 -2.300942e+00 -6.158513e-01 9.178868e-03
<VARIANCE> 25
 4.249438e+01 2.341208e+01 3.648188e+01 3.819721e+01 3.970878e+01 4.128489e+01 3.217286e+01 2.787795e+01 2.663206e+01 2.610221e+01 2.625568e+01 2.057991e+01 2.714627e+00 4.324163e+00 4.058296e+00 5.189198e+00 4.405564e+00 3.888077e+00 3.856317e+00 3.989105e+00 3.848864e+00 4.038515e+00 3.940792e+00 3.481777e+00 5.441723e-03
<GCONST> 9.835969e+01
<MIXTURE> 86 1.273941e-02
<MEAN> 25
 -4.974893e+00 -1.208443e+00 -7.959107e-01 6.335652e+00 5.016868e+00 4.672746e+00 5.317736e+00 4.572111e+00 4.661403e+00 3.916282e+00 5.337968e+00 2.701059e+00 -6.778630e-03 -8.620217e-03 -3.818171e-02 -6.556093e-02 -1.178520e-01 -1.849837e-01 -2.674041e-01 -3.321925e-01 -3.533580e-01 -3.192308e-01 -2.302781e-01 -1.064861e-01 -5.474263e-04
<VARIANCE> 25
 7.884873e+00 5.633737e+00 9.978774e+00 1.230361e+01 1.588264e+01 1.435189e+01 1.354215e+01 1.305113e+01 1.319222e+01 1.423937e+01 1.433098e+01 1.277603e+01 9.991807e-02 1.930379e-01 3.184780e-01 4.834134e-01 6.362159e-01 7.345217e-01 7.435358e-01 7.642428e-01 8.304789e-01 8.845385e-01 9.114720e-01 9.030988e-01 5.348582e-05
<GCONST> 5.811596e+01
<MIXTURE> 87 1.100681e-02
<MEAN> 25
 -3.208137e+00 4.399667e+00 3.567265e+00 6.903253e+00 5.377726e+00 8.795808e-01 1.671789e+00 -9.352328e-01 -6.033494e-01 -8.447334e-01 -7.007536e-01 2.290006e-03 -2.111825e+00 -2.694539e+00 -2.080757e+00 -2.194348e+00 -3.754016e-02 -2.158706e-01 6.452277e-01 1.260663e+00 1.404125e+00 1.024209e+00 9.619218e-01 1.055197e+00 1.021367e-01
<VARIANCE> 25
 3.747752e+01 2.981652e+01 2.755646e+01 3.352437e+01 2.941224e+01 3.136287e+01 2.755459e+01 2.734652e+01 2.562345e+01 2.454887e+01 2.467879e+01 2.306975e+01 3.861782e+00 2.968788e+00 3.874818e+00 3.604162e+00 4.668582e+00 4.416401e+00 4.137172e+00 3.975778e+00 3.452515e+00 3.317823e+00 3.451952e+00 2.803769e+00 5.062399e-03
<GCONST> 9.635936e+01
<MIXTURE> 88 1.256585e-02
<MEAN> 25
 -4.167201e+00 -6.359143e-01 -1.103598e+00 4.788500e+00 4.290454e+00 2.541195e+00 4.191072e+00 2.663368e+00 3.182945e+00 2.396530e+00 3.327429e+00 2.914518e+00 -2.023269e-01 3.025758e-01 -3.571992e-02 2.242248e-01 3.024951e-01 -8.337139e-02 6.922172e-02 -1.820751e-01 -2.560129e-01 -3.704954e-01 -8.878016e-02 1.193578e-01 -3.023685e-03
<VARIANCE> 25
 1.005639e+01 9.333537e+00 1.448196e+01 1.612983e+01 1.996056e+01 2.483079e+01 1.897829e+01 1.897899e+01 1.640507e+01 1.654219e+01 2.438664e+01 1.446691e+01 1.738131e+00 1.639515e+00 2.344355e+00 2.121146e+00 2.403835e+00 2.968240e+00 2.463004e+00 2.449881e+00 2.282521e+00 2.372427e+00 2.091877e+00 2.252013e+00 1.325084e-03
<GCONST> 8.253064e+01
<MIXTURE> 89 9.333527e-03
<MEAN> 25
 5.991940e+00 -6.673351e+00 -3.312766e+00 -2.988714e+00 -1.465594e+00 -5.234115e+00 -6.064531e+00 4.075065e+00 3.438975e+00 -2.564633e+00 -5.897463e+00 -3.464131e+00 -5.892417e-01 1.850650e-01 1.957308e+00 8.967010e-01 -1.794927e+00 -1.671875e+00 8.859906e-01 1.205331e+00 -7.485119e-01 -1.251352e+00 4.232630e-01 1.550655e+00 -5.125728e-03
<VARIANCE> 25
 8.988406e+00 2.660710e+01 3.239127e+01 3.009892e+01 3.556788e+01 4.397834e+01 5.807901e+01 4.120474e+01 3.865845e+01 4.333078e+01 3.531496e+01 3.240726e+01 3.668723e-01 8.727176e-01 1.455518e+00 1.284308e+00 2.035986e+00 2.135505e+00 2.496746e+00 2.106752e+00 2.276377e+00 2.196489e+00 2.344409e+00 1.475263e+00 3.620795e-04
<GCONST> 8.545142e+01
<MIXTURE> 90 7.114505e-03
<MEAN> 25
 2.448767e+00 -9.719355e+00 -4.749919e+00 -3.973920e+00 -3.381662e+00 -1.806755e+00 3.360744e+00 1.182377e+00 -7.530265e+00 -1.020956e+01 -3.429552e+00 -7.433257e-01 -1.641615e-01 9.084185e-01 1.169343e+00 -8.523395e-01 -1.611509e+00 -2.124395e-01 6.439759e-01 -2.088818e-01 -1.680432e-01 7.379775e-01 1.826025e-01 -5.508061e-01 -1.115020e-02
<VARIANCE> 25
 8.489144e+00 1.779633e+01 1.983615e+01 2.802803e+01 3.682185e+01 3.224699e+01 3.853084e+01 3.638529e+01 3.521814e+01 2.774136e+01 2.698256e+01 2.614869e+01 2.244752e-01 6.130368e-01 7.868842e-01 1.047095e+00 1.471986e+00 1.591420e+00 1.780343e+00 1.655411e+00 1.810358e+00 1.678374e+00 1.494522e+00 1.308994e+00 2.150041e-04
<GCONST> 7.814671e+01
<MIXTURE> 91 7.852945e-03
<MEAN> 25
 6.117481e+00 -7.020780e+00 -7.786247e+00 -4.494397e+00 3.808564e+00 9.348912e-01 -2.034225e+00 7.089961e-01 1.460873e+00 -1.953529e+00 -4.653786e+00 -5.551859e+00 2.291931e-01 1.003353e+00 3.290581e-01 5.851497e-01 -9.279493e-02 -7.566484e-01 -2.596498e-01 -4.024623e-03 5.669098e-02 4.868182e-01 -1.721118e-01 1.297106e-01 -3.236131e-02
<VARIANCE> 25
 8.864845e+00 2.120091e+01 2.003919e+01 3.719414e+01 3.019814e+01 5.430717e+01 4.591333e+01 3.542891e+01 4.665480e+01 5.889857e+01 3.304543e+01 3.602736e+01 4.163941e-01 8.629527e-01 1.103231e+00 1.313066e+00 1.991147e+00 2.398115e+00 2.122034e+00 2.486614e+00 2.092036e+00 1.999797e+00 1.738855e+00 1.764828e+00 5.541766e-04
<GCONST> 8.522260e+01
<MIXTURE> 92 7.852945e-03
<MEAN> 25
 6.117481e+00 -7.020780e+00 -7.786247e+00 -4.494397e+00 3.808564e+00 9.348912e-01 -2.034225e+00 7.089961e-01 1.460873e+00 -1.953529e+00 -4.653786e+00 -5.551859e+00 2.291931e-01 1.003353e+00 3.290581e-01 5.851497e-01 -9.279493e-02 -7.566484e-01 -2.596498e-01 -4.024623e-03 5.669098e-02 4.868182e-01 -1.721118e-01 1.297106e-01 -3.236131e-02
<VARIANCE> 25
 8.864845e+00 2.120091e+01 2.003919e+01 3.719414e+01 3.019814e+01 5.430717e+01 4.591333e+01 3.542891e+01 4.665480e+01 5.889857e+01 3.304543e+01 3.602736e+01 4.163941e-01 8.629527e-01 1.103231e+00 1.313066e+00 1.991147e+00 2.398115e+00 2.122034e+00 2.486614e+00 2.092036e+00 1.999797e+00 1.738855e+00 1.764828e+00 5.541766e-04
<GCONST> 8.522260e+01
<MIXTURE> 93 6.122769e-03
<MEAN> 25
 -6.825819e+00 -9.612056e-01 -2.402231e+00 5.798120e+00 5.908294e+00 3.922797e+00 6.123493e+00 3.609040e+00 4.119614e+00 2.509350e+00 1.818382e+00 3.705910e+00 -6.164000e-02 -1.543872e-01 -2.573870e-01 -3.317066e-01 -3.337587e-01 -2.844732e-01 -2.177871e-01 -1.742780e-01 -1.667204e-01 -1.506447e-01 -1.044153e-01 -3.554936e-02 -3.837683e-06
<VARIANCE> 25
 9.093901e+00 6.027777e+00 8.185111e+00 1.136881e+01 1.149258e+01 1.598249e+01 1.527640e+01 1.644382e+01 1.475774e+01 1.454170e+01 1.678724e+01 1.344866e+01 8.272374e-02 1.533694e-01 2.637162e-01 3.805642e-01 4.977629e-01 6.423341e-01 7.793725e-01 8.873125e-01 9.166239e-01 8.761251e-01 8.923470e-01 9.178919e-01 1.000000e-06
<GCONST> 5.360219e+01
<MIXTURE> 94 6.122769e-03
<MEAN> 25
 -6.825819e+00 -9.612056e-01 -2.402231e+00 5.798120e+00 5.908294e+00 3.922797e+00 6.123493e+00 3.609040e+00 4.119614e+00 2.509350e+00 1.818382e+00 3.705910e+00 -6.164000e-02 -1.543872e-01 -2.573870e-01 -3.317066e-01 -3.337587e-01 -2.844732e-01 -2.177871e-01 -1.742780e-01 -1.667204e-01 -1.506447e-01 -1.044153e-01 -3.554936e-02 -3.837683e-06
<VARIANCE> 25
 9.093901e+00 6.027777e+00 8.185111e+00 1.136881e+01 1.149258e+01 1.598249e+01 1.527640e+01 1.644382e+01 1.475774e+01 1.454170e+01 1.678724e+01 1.344866e+01 8.272374e-02 1.533694e-01 2.637162e-01 3.805642e-01 4.977629e-01 6.423341e-01 7.793725e-01 8.873125e-01 9.166239e-01 8.761251e-01 8.923470e-01 9.178919e-01 1.000000e-06
<GCONST> 5.360219e+01
<MIXTURE> 95 5.258835e-03
<MEAN> 25
 -5.711410e+00 -6.142787e-01 -1.977053e+00 4.805669e+00 4.305838e+00 2.631555e+00 4.144237e+00 1.578485e+00 2.208003e+00 9.221923e-01 1.012626e+00 2.602633e+00 1.244489e-01 1.588105e-01 1.029289e-01 -1.033766e-01 -3.698408e-01 -7.344251e-01 -1.038186e+00 -1.289178e+00 -1.260950e+00 -9.813688e-01 -6.463809e-01 -2.363238e-01 2.659198e-05
<VARIANCE> 25
 1.061365e+01 7.024762e+00 1.198604e+01 1.287458e+01 1.401334e+01 1.932587e+01 1.756245e+01 1.684150e+01 1.512130e+01 1.520612e+01 2.105403e+01 1.405835e+01 2.256073e-01 2.958333e-01 4.606258e-01 6.338496e-01 7.910752e-01 8.941439e-01 9.087551e-01 9.068278e-01 9.508907e-01 1.060198e+00 1.135855e+00 1.320402e+00 4.237123e-05
<GCONST> 6.358331e+01
<MIXTURE> 96 7.034694e-03
<MEAN> 25
 -5.096676e+00 -4.548352e-01 -2.243811e+00 5.163478e+00 3.866032e+00 1.791501e+00 3.541566e+00 1.804465e+00 2.453365e+00 9.499912e-01 1.147341e+00 2.837089e+00 -2.968468e-02 8.781838e-02 2.134370e-01 4.057707e-01 5.389143e-01 4.999281e-01 2.461946e-01 -1.265887e-01 -4.634765e-01 -6.517613e-01 -6.085039e-01 -3.674167e-01 -1.581863e-05
<VARIANCE> 25
 1.101202e+01 9.725837e+00 1.288803e+01 1.428365e+01 1.502163e+01 1.952112e+01 1.807648e+01 1.930171e+01 1.800599e+01 1.660915e+01 1.976787e+01 1.453510e+01 1.204457e-01 2.181627e-01 3.166818e-01 3.977631e-01 4.946318e-01 6.606247e-01 8.674675e-01 9.963827e-01 9.568194e-01 8.641353e-01 8.866712e-01 9.406826e-01 1.000000e-06
<GCONST> 5.757094e+01
<MIXTURE> 97 7.034694e-03
<MEAN> 25
 -5.096676e+00 -4.548352e-01 -2.243811e+00 5.163478e+00 3.866032e+00 1.791501e+00 3.541566e+00 1.804465e+00 2.453365e+00 9.499912e-01 1.147341e+00 2.837089e+00 -2.968468e-02 8.781838e-02 2.134370e-01 4.057707e-01 5.389143e-01 4.999281e-01 2.461946e-01 -1.265887e-01 -4.634765e-01 -6.517613e-01 -6.085039e-01 -3.674167e-01 -1.581863e-05
<VARIANCE> 25
 1.101202e+01 9.725837e+00 1.288803e+01 1.428365e+01 1.502163e+01 1.952112e+01 1.807648e+01 1.930171e+01 1.800599e+01 1.660915e+01 1.976787e+01 1.453510e+01 1.204457e-01 2.181627e-01 3.166818e-01 3.977631e-01 4.946318e-01 6.606247e-01 8.674675e-01 9.963827e-01 9.568194e-01 8.641353e-01 8.866712e-01 9.406826e-01 1.000000e-06
<GCONST> 5.757094e+01
<MIXTURE> 98 9.917808e-03
<MEAN> 25
 -1.061963e+00 4.203070e-01 9.792375e-01 4.259964e+00 3.032929e+00 2.610011e+00 2.673193e+00 1.473327e+00 1.230702e+00 1.221548e+00 1.103249e+00 4.517271e-01 -1.695911e+00 -1.098041e+00 -1.028001e+00 2.381456e-02 5.246938e-01 3.877586e-01 1.427731e+00 1.111098e+00 1.635881e+00 1.109142e+00 1.407628e+00 1.293929e+00 -2.742115e-02
<VARIANCE> 25
 1.305631e+01 1.909132e+01 3.250796e+01 2.832731e+01 3.876274e+01 3.269541e+01 3.070179e+01 2.872901e+01 2.474449e+01 2.850964e+01 2.478934e+01 2.578466e+01 1.337054e+00 1.990863e+00 2.254312e+00 2.289207e+00 2.469665e+00 4.205627e+00 2.889553e+00 3.238820e+00 2.261491e+00 2.614682e+00 2.942163e+00 2.460854e+00 2.251358e-03
<GCONST> 9.009421e+01
<MIXTURE> 99 6.696178e-03
<MEAN> 25
 -7.155265e+00 9.489503e+00 4.941635e+00 3.827075e+00 1.543646e-01 -7.001198e+00 -5.138158e-01 -4.028930e+00 -3.990212e+00 -3.734169e+00 -1.249452e-01 9.719524e-01 7.005831e-01 -6.013602e-01 2.488303e-01 -8.417311e-02 -1.384269e+00 -2.012500e-01 -3.442211e-01 -2.895350e-01 -1.887742e-01 -4.902448e-01 8.630279e-04 -1.723852e-02 7.387411e-04
<VARIANCE> 25
 3.090184e+01 2.103419e+01 4.758108e+01 2.584735e+01 3.322047e+01 3.950842e+01 2.536447e+01 2.497555e+01 2.535963e+01 2.609089e+01 2.557417e+01 2.582180e+01 2.004131e+00 1.942420e+00 1.277279e+00 1.864767e+00 2.487711e+00 2.455886e+00 1.297593e+00 2.018593e+00 1.418876e+00 2.063655e+00 1.224292e+00 1.258816e+00 1.718496e-03
<GCONST> 8.629738e+01
<MIXTURE> 100 4.498084e-03
<MEAN> 25
 -1.597519e+00 6.342552e+00 1.027586e+01 -7.459853e+00 -1.077984e+01 -5.074116e+00 -4.941429e+00 -9.966711e+00 -4.716457e+00 -8.564253e-01 -2.733065e+00 -2.706983e+00 2.917288e+00 -1.260658e+00 1.299893e+00 -2.184945e+00 -3.418991e+00 -7.831392e-01 -1.218769e+00 -8.197532e-01 -1.475268e+00 3.462285e-01 -1.654731e+00 -2.865506e-01 2.009541e-03
<VARIANCE> 25
 1.362920e+01 2.106877e+01 2.245965e+01 2.644696e+01 2.302613e+01 2.372081e+01 2.910772e+01 2.171361e+01 2.749092e+01 2.265038e+01 2.240980e+01 2.133944e+01 1.799678e+00 3.952676e+00 2.919425e+00 4.288349e+00 4.184099e+00 4.539042e+00 4.014331e+00 4.340435e+00 4.167179e+00 3.896389e+00 3.912009e+00 3.224838e+00 1.674477e-03
<GCONST> 9.257092e+01
<MIXTURE> 101 6.007792e-03
<MEAN> 25
 8.042959e+00 -3.452013e+00 -6.304053e+00 -6.839440e+00 8.253506e-01 -1.231673e+00 -1.049636e+01 -2.048456e+00 1.628886e+00 2.714558e+00 -2.382155e+00 -5.095020e+00 6.702490e-01 6.392971e-01 -1.464743e+00 -1.608154e+00 1.015248e+00 2.318855e+00 1.892800e-01 -1.449627e+00 -1.073475e+00 1.000632e+00 1.359342e+00 -4.172264e-01 -4.818156e-03
<VARIANCE> 25
 9.489287e+00 1.670559e+01 2.957915e+01 4.248275e+01 3.595679e+01 3.559045e+01 3.760801e+01 3.591024e+01 3.753383e+01 4.359516e+01 5.130712e+01 2.425528e+01 2.929399e-01 6.780742e-01 1.170128e+00 1.538919e+00 1.704345e+00 2.077247e+00 2.073996e+00 1.987118e+00 2.339183e+00 2.339290e+00 1.790807e+00 1.918676e+00 3.420355e-04
<GCONST> 8.364394e+01
<MIXTURE> 102 6.007792e-03
<MEAN> 25
 8.042959e+00 -3.452013e+00 -6.304053e+00 -6.839440e+00 8.253506e-01 -1.231673e+00 -1.049636e+01 -2.048456e+00 1.628886e+00 2.714558e+00 -2.382155e+00 -5.095020e+00 6.702490e-01 6.392971e-01 -1.464743e+00 -1.608154e+00 1.015248e+00 2.318855e+00 1.892800e-01 -1.449627e+00 -1.073475e+00 1.000632e+00 1.359342e+00 -4.172264e-01 -4.818156e-03
<VARIANCE> 25
 9.489287e+00 1.670559e+01 2.957915e+01 4.248275e+01 3.595679e+01 3.559045e+01 3.760801e+01 3.591024e+01 3.753383e+01 4.359516e+01 5.130712e+01 2.425528e+01 2.929399e-01 6.780742e-01 1.170128e+00 1.538919e+00 1.704345e+00 2.077247e+00 2.073996e+00 1.987118e+00 2.339183e+00 2.339290e+00 1.790807e+00 1.918676e+00 3.420355e-04
<GCONST> 8.364394e+01
<MIXTURE> 103 5.694618e-03
<MEAN> 25
 3.288029e+00 -8.726903e+00 -6.044453e+00 -3.188776e+00 -1.351079e+00 -1.239055e+00 2.358806e+00 2.200385e+00 -4.468005e+00 -8.676200e+00 -4.779673e+00 4.989163e-01 -9.217353e-02 -1.471978e+00 -9.596058e-01 2.609895e-01 1.219007e+00 1.050809e+00 4.599250e-03 -2.037910e-01 -8.276155e-01 -9.619774e-01 -1.631076e-02 2.170139e-02 2.574017e-02
<VARIANCE> 25
 1.017712e+01 2.330758e+01 2.243735e+01 2.920134e+01 4.427174e+01 3.640881e+01 4.402036e+01 3.427510e+01 3.878342e+01 3.038684e+01 2.850279e+01 2.421135e+01 6.435890e-01 1.149701e+00 1.448045e+00 1.928838e+00 2.698816e+00 2.317005e+00 2.921316e+00 2.432503e+00 2.523641e+00 2.351611e+00 1.973631e+00 2.045420e+00 7.609906e-04
<GCONST> 8.672923e+01
<MIXTURE> 104 5.694618e-03
<MEAN> 25
 3.288029e+00 -8.726903e+00 -6.044453e+00 -3.188776e+00 -1.351079e+00 -1.239055e+00 2.358806e+00 2.200385e+00 -4.468005e+00 -8.676200e+00 -4.779673e+00 4.989163e-01 -9.217353e-02 -1.471978e+00 -9.596058e-01 2.609895e-01 1.219007e+00 1.050809e+00 4.599250e-03 -2.037910e-01 -8.276155e-01 -9.619774e-01 -1.631076e-02 2.170139e-02 2.574017e-02
<VARIANCE> 25
 1.017712e+01 2.330758e+01 2.243735e+01 2.920134e+01 4.427174e+01 3.640881e+01 4.402036e+01 3.427510e+01 3.878342e+01 3.038684e+01 2.850279e+01 2.421135e+01 6.435890e-01 1.149701e+00 1.448045e+00 1.928838e+00 2.698816e+00 2.317005e+00 2.921316e+00 2.432503e+00 2.523641e+00 2.351611e+00 1.973631e+00 2.045420e+00 7.609906e-04
<GCONST> 8.672923e+01
<MIXTURE> 105 4.710235e-03
<MEAN> 25
 2.183991e+00 -1.469655e+00 9.200624e+00 -2.654813e+00 -1.155525e+01 -5.087880e+00 -4.188590e+00 -7.791991e-01 -3.731885e+00 -3.140944e+00 1.517427e+00 -1.096246e+00 8.643001e-03 3.497357e-02 5.178094e-02 -4.275786e-02 3.406089e-04 4.561321e-02 -2.957898e-02 2.548444e-02 -3.078150e-02 3.777964e-02 3.444476e-02 -2.926033e-02 -1.883982e-03
<VARIANCE> 25
 1.329274e+01 2.832599e+01 4.049692e+01 4.440906e+01 3.749451e+01 5.325366e+01 4.070074e+01 4.286092e+01 3.983682e+01 4.173418e+01 4.137523e+01 3.061699e+01 8.287103e-02 1.853625e-01 3.400075e-01 2.919794e-01 3.702606e-01 4.295216e-01 4.938365e-01 5.303922e-01 5.013332e-01 4.440724e-01 4.219244e-01 3.951644e-01 9.492766e-05
<GCONST> 6.677628e+01
<MIXTURE> 106 4.710235e-03
<MEAN> 25
 2.183991e+00 -1.469655e+00 9.200624e+00 -2.654813e+00 -1.155525e+01 -5.087880e+00 -4.188590e+00 -7.791991e-01 -3.731885e+00 -3.140944e+00 1.517427e+00 -1.096246e+00 8.643001e-03 3.497357e-02 5.178094e-02 -4.275786e-02 3.406089e-04 4.561321e-02 -2.957898e-02 2.548444e-02 -3.078150e-02 3.777964e-02 3.444476e-02 -2.926033e-02 -1.883982e-03
<VARIANCE> 25
 1.329274e+01 2.832599e+01 4.049692e+01 4.440906e+01 3.749451e+01 5.325366e+01 4.070074e+01 4.286092e+01 3.983682e+01 4.173418e+01 4.137523e+01 3.061699e+01 8.287103e-02 1.853625e-01 3.400075e-01 2.919794e-01 3.702606e-01 4.295216e-01 4.938365e-01 5.303922e-01 5.013332e-01 4.440724e-01 4.219244e-01 3.951644e-01 9.492766e-05
<GCONST> 6.677628e+01
<MIXTURE> 107 5.452374e-03
<MEAN> 25
 8.390676e+00 -2.451785e+00 -7.690711e+00 -9.124851e+00 2.059041e+00 3.468598e+00 -8.243945e+00 -4.151181e+00 -8.534096e-01 3.231409e+00 7.762473e-01 -5.142920e+00 -6.074722e-01 -7.206571e-01 8.384650e-01 1.773768e+00 2.136530e-01 -1.948466e+00 -9.114055e-01 7.800661e-01 1.668137e+00 1.872448e-01 -1.602825e+00 -8.950027e-01 -2.346757e-03
<VARIANCE> 25
 9.580694e+00 1.951864e+01 2.896771e+01 4.314039e+01 3.402023e+01 4.002538e+01 5.026113e+01 3.647412e+01 4.375074e+01 3.987162e+01 4.863630e+01 2.892267e+01 3.573086e-01 9.417269e-01 1.426105e+00 2.269452e+00 2.246518e+00 2.926766e+00 2.717468e+00 2.604263e+00 2.362040e+00 3.167006e+00 1.878005e+00 2.227743e+00 6.686734e-04
<GCONST> 8.781088e+01
<MIXTURE> 108 5.452374e-03
<MEAN> 25
 8.390676e+00 -2.451785e+00 -7.690711e+00 -9.124851e+00 2.059041e+00 3.468598e+00 -8.243945e+00 -4.151181e+00 -8.534096e-01 3.231409e+00 7.762473e-01 -5.142920e+00 -6.074722e-01 -7.206571e-01 8.384650e-01 1.773768e+00 2.136530e-01 -1.948466e+00 -9.114055e-01 7.800661e-01 1.668137e+00 1.872448e-01 -1.602825e+00 -8.950027e-01 -2.346757e-03
<VARIANCE> 25
 9.580694e+00 1.951864e+01 2.896771e+01 4.314039e+01 3.402023e+01 4.002538e+01 5.026113e+01 3.647412e+01 4.375074e+01 3.987162e+01 4.863630e+01 2.892267e+01 3.573086e-01 9.417269e-01 1.426105e+00 2.269452e+00 2.246518e+00 2.926766e+00 2.717468e+00 2.604263e+00 2.362040e+00 3.167006e+00 1.878005e+00 2.227743e+00 6.686734e-04
<GCONST> 8.781088e+01
<MIXTURE> 109 6.661064e-03
<MEAN> 25
 4.093024e+00 -1.048583e+01 -8.245243e+00 -1.386975e+00 2.730661e+00 3.707368e-02 -5.375254e-02 1.452408e+00 -2.541523e+00 -8.340219e+00 -5.321937e+00 6.407507e-02 -2.867899e-02 -1.384464e-01 -2.953170e-02 2.555923e-01 2.054734e-01 1.223314e-01 -1.431839e-01 -9.981917e-02 -4.430088e-02 -1.232159e-01 2.216817e-01 -1.253580e-02 -3.397328e-03
<VARIANCE> 25
 9.027337e+00 1.842010e+01 2.021314e+01 3.127068e+01 4.065049e+01 3.718195e+01 4.649231e+01 3.413153e+01 4.568694e+01 3.511074e+01 2.965700e+01 2.802477e+01 1.953094e-01 4.251677e-01 5.408667e-01 6.349998e-01 1.229747e+00 1.001761e+00 1.297551e+00 1.088731e+00 1.134866e+00 9.561440e-01 8.732522e-01 9.369804e-01 1.835607e-04
<GCONST> 7.457807e+01
<MIXTURE> 110 6.661064e-03
<MEAN> 25
 4.093024e+00 -1.048583e+01 -8.245243e+00 -1.386975e+00 2.730661e+00 3.707368e-02 -5.375254e-02 1.452408e+00 -2.541523e+00 -8.340219e+00 -5.321937e+00 6.407507e-02 -2.867899e-02 -1.384464e-01 -2.953170e-02 2.555923e-01 2.054734e-01 1.223314e-01 -1.431839e-01 -9.981917e-02 -4.430088e-02 -1.232159e-01 2.216817e-01 -1.253580e-02 -3.397328e-03
<VARIANCE> 25
 9.027337e+00 1.842010e+01 2.021314e+01 3.127068e+01 4.065049e+01 3.718195e+01 4.649231e+01 3.413153e+01 4.568694e+01 3.511074e+01 2.965700e+01 2.802477e+01 1.953094e-01 4.251677e-01 5.408667e-01 6.349998e-01 1.229747e+00 1.001761e+00 1.297551e+00 1.088731e+00 1.134866e+00 9.561440e-01 8.732522e-01 9.369804e-01 1.835607e-04
<GCONST> 7.457807e+01
<MIXTURE> 111 4.337247e-03
<MEAN> 25
 -4.464580e+00 -9.028700e-01 -1.736346e+00 1.674165e+00 9.543490e-01 9.695363e-01 3.051487e-01 2.094247e-01 8.094186e-02 -5.411839e-01 -6.367399e-01 1.966193e+00 -2.128440e-02 -3.467199e-02 -7.574527e-02 -7.702433e-02 -3.576026e-02 1.227156e-02 -1.934287e-03 -6.088570e-02 -1.467774e-01 -2.064126e-01 -1.924935e-01 -1.052084e-01 -1.967081e-04
<VARIANCE> 25
 7.018069e+00 4.970015e+00 1.028506e+01 9.461636e+00 1.312425e+01 2.380004e+01 1.466451e+01 1.313578e+01 1.159888e+01 1.188282e+01 1.361331e+01 1.156063e+01 7.902391e-02 1.652016e-01 2.795065e-01 4.243825e-01 5.690113e-01 7.180423e-01 7.989062e-01 8.572368e-01 9.069647e-01 8.587213e-01 8.621973e-01 8.466179e-01 2.239073e-05
<GCONST> 5.605067e+01
<MIXTURE> 112 4.337247e-03
<MEAN> 25
 -4.464580e+00 -9.028700e-01 -1.736346e+00 1.674165e+00 9.543490e-01 9.695363e-01 3.051487e-01 2.094247e-01 8.094186e-02 -5.411839e-01 -6.367399e-01 1.966193e+00 -2.128440e-02 -3.467199e-02 -7.574527e-02 -7.702433e-02 -3.576026e-02 1.227156e-02 -1.934287e-03 -6.088570e-02 -1.467774e-01 -2.064126e-01 -1.924935e-01 -1.052084e-01 -1.967081e-04
<VARIANCE> 25
 7.018069e+00 4.970015e+00 1.028506e+01 9.461636e+00 1.312425e+01 2.380004e+01 1.466451e+01 1.313578e+01 1.159888e+01 1.188282e+01 1.361331e+01 1.156063e+01 7.902391e-02 1.652016e-01 2.795065e-01 4.243825e-01 5.690113e-01 7.180423e-01 7.989062e-01 8.572368e-01 9.069647e-01 8.587213e-01 8.621973e-01 8.466179e-01 2.239073e-05
<GCONST> 5.605067e+01
<MIXTURE> 113 5.938666e-03
<MEAN> 25
 9.977784e+00 1.754519e+00 -8.781180e+00 -1.704704e+01 -1.033384e+00 5.660599e+00 -5.280847e+00 -1.465723e+00 -5.695202e+00 -4.939615e-01 2.988514e-01 -1.982089e-01 4.835524e-03 1.383173e-02 -5.944095e-02 -1.132306e-01 1.043108e-01 1.506574e-01 5.937282e-02 3.598720e-02 -5.687984e-02 -5.100518e-02 1.796560e-01 3.498300e-02 -1.408916e-03
<VARIANCE> 25
 8.873675e+00 1.639377e+01 2.967296e+01 3.420065e+01 5.273874e+01 3.387288e+01 3.970497e+01 3.914058e+01 3.737676e+01 4.640144e+01 3.629556e+01 2.844301e+01 1.217859e-01 3.205594e-01 3.161959e-01 6.316590e-01 6.128381e-01 6.537527e-01 7.765439e-01 8.453562e-01 9.594746e-01 9.057311e-01 7.245312e-01 7.141072e-01 1.247934e-04
<GCONST> 7.110624e+01
<MIXTURE> 114 5.938666e-03
<MEAN> 25
 9.977784e+00 1.754519e+00 -8.781180e+00 -1.704704e+01 -1.033384e+00 5.660599e+00 -5.280847e+00 -1.465723e+00 -5.695202e+00 -4.939615e-01 2.988514e-01 -1.982089e-01 4.835524e-03 1.383173e-02 -5.944095e-02 -1.132306e-01 1.043108e-01 1.506574e-01 5.937282e-02 3.598720e-02 -5.687984e-02 -5.100518e-02 1.796560e-01 3.498300e-02 -1.408916e-03
<VARIANCE> 25
 8.873675e+00 1.639377e+01 2.967296e+01 3.420065e+01 5.273874e+01 3.387288e+01 3.970497e+01 3.914058e+01 3.737676e+01 4.640144e+01 3.629556e+01 2.844301e+01 1.217859e-01 3.205594e-01 3.161959e-01 6.316590e-01 6.128381e-01 6.537527e-01 7.765439e-01 8.453562e-01 9.594746e-01 9.057311e-01 7.245312e-01 7.141072e-01 1.247934e-04
<GCONST> 7.110624e+01
<MIXTURE> 115 2.935202e-03
<MEAN> 25
 -4.031508e+00 -7.523134e-01 -3.108292e+00 3.656949e+00 2.413549e+00 -4.277790e-01 2.235019e+00 4.127970e-01 1.388240e+00 -1.980280e-02 4.044602e-02 2.687725e+00 3.161651e-02 -7.211528e-02 -2.307798e-01 -4.386980e-01 -6.334474e-01 -6.703678e-01 -5.921516e-01 -5.095131e-01 -4.866898e-01 -4.566612e-01 -3.437370e-01 -1.649531e-01 -3.168033e-06
<VARIANCE> 25
 9.267219e+00 9.883682e+00 1.353192e+01 1.270435e+01 1.348816e+01 1.756121e+01 1.708409e+01 2.080719e+01 1.793073e+01 1.721353e+01 1.919555e+01 1.466582e+01 2.037629e-01 3.456421e-01 4.855044e-01 5.616056e-01 6.341601e-01 7.979911e-01 1.008026e+00 1.130844e+00 1.075163e+00 9.943575e-01 1.025555e+00 1.064796e+00 1.000000e-06
<GCONST> 6.016114e+01
<MIXTURE> 116 2.935202e-03
<MEAN> 25
 -4.031508e+00 -7.523134e-01 -3.108292e+00 3.656949e+00 2.413549e+00 -4.277790e-01 2.235019e+00 4.127970e-01 1.388240e+00 -1.980280e-02 4.044602e-02 2.687725e+00 3.161651e-02 -7.211528e-02 -2.307798e-01 -4.386980e-01 -6.334474e-01 -6.703678e-01 -5.921516e-01 -5.095131e-01 -4.866898e-01 -4.566612e-01 -3.437370e-01 -1.649531e-01 -3.168033e-06
<VARIANCE> 25
 9.267219e+00 9.883682e+00 1.353192e+01 1.270435e+01 1.348816e+01 1.756121e+01 1.708409e+01 2.080719e+01 1.793073e+01 1.721353e+01 1.919555e+01 1.466582e+01 2.037629e-01 3.456421e-01 4.855044e-01 5.616056e-01 6.341601e-01 7.979911e-01 1.008026e+00 1.130844e+00 1.075163e+00 9.943575e-01 1.025555e+00 1.064796e+00 1.000000e-06
<GCONST> 6.016114e+01
<MIXTURE> 117 6.506003e-03
<MEAN> 25
 -4.644592e+00 1.117793e+00 1.054499e+00 9.758447e+00 6.260121e+00 6.256477e+00 6.463082e+00 5.044496e+00 6.385674e+00 4.929173e+00 6.367208e+00 2.709929e+00 -7.503008e-02 -2.341336e-01 -3.583474e-01 -4.199596e-01 -3.675186e-01 -3.027199e-01 -2.873273e-01 -3.314594e-01 -3.917833e-01 -3.689738e-01 -2.631080e-01 -1.159785e-01 -9.052962e-06
<VARIANCE> 25
 7.187259e+00 8.753097e+00 9.809425e+00 1.430823e+01 1.561781e+01 1.534934e+01 1.772638e+01 1.796108e+01 1.640261e+01 1.637152e+01 1.674076e+01 1.475332e+01 2.166086e-01 3.075042e-01 4.261350e-01 6.171185e-01 8.536685e-01 1.055364e+00 1.177562e+00 1.232911e+00 1.223976e+00 1.194855e+00 1.167213e+00 1.113683e+00 1.000000e-06
<GCONST> 6.042865e+01
<MIXTURE> 118 6.506003e-03
<MEAN> 25
 -4.644592e+00 1.117793e+00 1.054499e+00 9.758447e+00 6.260121e+00 6.256477e+00 6.463082e+00 5.044496e+00 6.385674e+00 4.929173e+00 6.367208e+00 2.709929e+00 -7.503008e-02 -2.341336e-01 -3.583474e-01 -4.199596e-01 -3.675186e-01 -3.027199e-01 -2.873273e-01 -3.314594e-01 -3.917833e-01 -3.689738e-01 -2.631080e-01 -1.159785e-01 -9.052962e-06
<VARIANCE> 25
 7.187259e+00 8.753097e+00 9.809425e+00 1.430823e+01 1.561781e+01 1.534934e+01 1.772638e+01 1.796108e+01 1.640261e+01 1.637152e+01 1.674076e+01 1.475332e+01 2.166086e-01 3.075042e-01 4.261350e-01 6.171185e-01 8.536685e-01 1.055364e+00 1.177562e+00 1.232911e+00 1.223976e+00 1.194855e+00 1.167213e+00 1.113683e+00 1.000000e-06
<GCONST> 6.042865e+01
<MIXTURE> 119 4.297961e-03
<MEAN> 25
 -4.964982e+00 -7.606792e+00 2.235399e+00 2.016395e+00 2.213034e+00 1.734284e-01 5.246029e+00 5.925226e+00 1.182472e+00 9.720097e-01 6.597199e+00 1.573487e+00 -5.053693e-02 -7.718877e-02 3.664752e-02 -5.776859e-02 -1.271573e-01 -1.784141e-01 -7.252942e-02 -1.936019e-02 -8.928097e-02 -1.078899e-01 -5.359351e-02 -5.723416e-02 1.195650e-03
<VARIANCE> 25
 8.513302e+00 9.998495e+00 1.654829e+01 2.011586e+01 2.297924e+01 2.344705e+01 2.514110e+01 2.645462e+01 2.503430e+01 2.801112e+01 2.041101e+01 2.034084e+01 1.600098e-01 2.832738e-01 4.583849e-01 6.321439e-01 8.015580e-01 1.001401e+00 1.100127e+00 1.281925e+00 1.287125e+00 1.246176e+00 1.190673e+00 1.108790e+00 2.327381e-04
<GCONST> 6.974573e+01
<MIXTURE> 120 4.297961e-03
<MEAN> 25
 -4.964982e+00 -7.606792e+00 2.235399e+00 2.016395e+00 2.213034e+00 1.734284e-01 5.246029e+00 5.925226e+00 1.182472e+00 9.720097e-01 6.597199e+00 1.573487e+00 -5.053693e-02 -7.718877e-02 3.664752e-02 -5.776859e-02 -1.271573e-01 -1.784141e-01 -7.252942e-02 -1.936019e-02 -8.928097e-02 -1.078899e-01 -5.359351e-02 -5.723416e-02 1.195650e-03
<VARIANCE> 25
 8.513302e+00 9.998495e+00 1.654829e+01 2.011586e+01 2.297924e+01 2.344705e+01 2.514110e+01 2.645462e+01 2.503430e+01 2.801112e+01 2.041101e+01 2.034084e+01 1.600098e-01 2.832738e-01 4.583849e-01 6.321439e-01 8.015580e-01 1.001401e+00 1.100127e+00 1.281925e+00 1.287125e+00 1.246176e+00 1.190673e+00 1.108790e+00 2.327381e-04
<GCONST> 6.974573e+01
<MIXTURE> 121 4.567511e-03
<MEAN> 25
 2.055022e-01 -2.518376e+00 5.151774e+00 -1.288798e+01 -1.264191e+01 -1.673745e+00 9.916166e-01 -5.102003e+00 -4.192582e+00 -4.882727e-01 -5.499666e+00 -4.300703e+00 2.400619e-02 1.329083e-01 -4.105292e-02 7.998829e-02 1.575840e-01 7.805337e-02 -8.140309e-02 -1.855905e-01 -2.684153e-01 -2.563189e-01 -1.141902e-01 6.919251e-04 -7.396167e-03
<VARIANCE> 25
 7.725207e+00 1.560863e+01 1.726346e+01 2.050619e+01 2.439799e+01 2.927647e+01 2.955600e+01 2.458320e+01 3.527505e+01 2.830938e+01 1.977066e+01 2.126988e+01 1.548478e-01 6.426446e-01 6.228201e-01 7.044447e-01 7.702447e-01 1.149393e+00 1.120054e+00 1.123794e+00 1.216549e+00 1.192897e+00 9.407697e-01 8.710150e-01 2.116193e-04
<GCONST> 7.140553e+01
<MIXTURE> 122 4.567511e-03
<MEAN> 25
 2.055022e-01 -2.518376e+00 5.151774e+00 -1.288798e+01 -1.264191e+01 -1.673745e+00 9.916166e-01 -5.102003e+00 -4.192582e+00 -4.882727e-01 -5.499666e+00 -4.300703e+00 2.400619e-02 1.329083e-01 -4.105292e-02 7.998829e-02 1.575840e-01 7.805337e-02 -8.140309e-02 -1.855905e-01 -2.684153e-01 -2.563189e-01 -1.141902e-01 6.919251e-04 -7.396167e-03
<VARIANCE> 25
 7.725207e+00 1.560863e+01 1.726346e+01 2.050619e+01 2.439799e+01 2.927647e+01 2.955600e+01 2.458320e+01 3.527505e+01 2.830938e+01 1.977066e+01 2.126988e+01 1.548478e-01 6.426446e-01 6.228201e-01 7.044447e-01 7.702447e-01 1.149393e+00 1.120054e+00 1.123794e+00 1.216549e+00 1.192897e+00 9.407697e-01 8.710150e-01 2.116193e-04
<GCONST> 7.140553e+01
<MIXTURE> 123 4.393044e-03
<MEAN> 25
 -4.218670e+00 9.779629e-01 1.624305e-01 6.086411e+00 5.162072e+00 3.501545e+00 3.317131e+00 3.631235e-01 2.364392e-01 -5.607653e-01 1.537865e-02 8.387543e-01 -4.676702e-01 -7.593911e-01 -8.824767e-01 -6.386443e-01 -2.615931e-01 8.594777e-02 3.985159e-01 6.692988e-01 7.965041e-01 7.604395e-01 6.996008e-01 5.420281e-01 -2.674133e-03
<VARIANCE> 25
 1.050349e+01 1.021623e+01 1.563026e+01 1.778005e+01 2.278763e+01 2.715375e+01 2.176229e+01 1.945435e+01 1.929991e+01 1.748071e+01 2.199679e+01 1.954104e+01 3.823273e-01 3.759796e-01 5.361655e-01 7.334664e-01 9.670743e-01 1.173442e+00 1.218796e+00 1.207204e+00 1.154278e+00 1.172390e+00 1.225147e+00 1.204979e+00 1.013802e-04
<GCONST> 6.974556e+01
<MIXTURE> 124 4.069876e-03
<MEAN> 25
 -6.565010e+00 -1.211011e+00 -2.923103e+00 5.106268e+00 4.972325e+00 3.390449e+00 5.390555e+00 2.565902e+00 3.193088e+00 1.279642e+00 1.127693e+00 3.043824e+00 -2.048482e-01 -3.230448e-01 -3.621842e-01 -2.167044e-01 1.279921e-01 5.196313e-01 8.104666e-01 8.601755e-01 6.548764e-01 3.274187e-01 7.226630e-02 -2.495558e-02 4.234802e-05
<VARIANCE> 25
 1.100917e+01 6.983245e+00 1.114288e+01 1.243205e+01 1.210751e+01 1.981946e+01 1.551588e+01 1.706865e+01 1.544148e+01 1.606992e+01 1.920493e+01 1.444099e+01 1.048239e-01 1.681124e-01 2.702850e-01 4.177250e-01 5.929995e-01 7.065688e-01 7.480275e-01 8.141062e-01 9.084589e-01 9.809870e-01 1.008202e+00 9.927142e-01 1.798431e-05
<GCONST> 5.879307e+01
<MIXTURE> 125 4.069876e-03
<MEAN> 25
 -6.565010e+00 -1.211011e+00 -2.923103e+00 5.106268e+00 4.972325e+00 3.390449e+00 5.390555e+00 2.565902e+00 3.193088e+00 1.279642e+00 1.127693e+00 3.043824e+00 -2.048482e-01 -3.230448e-01 -3.621842e-01 -2.167044e-01 1.279921e-01 5.196313e-01 8.104666e-01 8.601755e-01 6.548764e-01 3.274187e-01 7.226630e-02 -2.495558e-02 4.234802e-05
<VARIANCE> 25
 1.100917e+01 6.983245e+00 1.114288e+01 1.243205e+01 1.210751e+01 1.981946e+01 1.551588e+01 1.706865e+01 1.544148e+01 1.606992e+01 1.920493e+01 1.444099e+01 1.048239e-01 1.681124e-01 2.702850e-01 4.177250e-01 5.929995e-01 7.065688e-01 7.480275e-01 8.141062e-01 9.084589e-01 9.809870e-01 1.008202e+00 9.927142e-01 1.798431e-05
<GCONST> 5.879307e+01
<MIXTURE> 126 2.402244e-03
<MEAN> 25
 -3.787164e+00 -6.765005e+00 -5.179276e+00 2.328191e+00 4.094165e+00 -3.346847e+00 1.794255e-02 3.536852e+00 3.403922e+00 -2.542725e+00 -1.374953e+00 3.046166e+00 -6.937657e-03 7.357694e-03 -3.807360e-02 -1.577364e-01 -3.290775e-01 -3.846137e-01 -2.983788e-01 -1.824270e-01 -1.162877e-01 -9.293955e-02 -1.041384e-01 -2.705176e-02 -9.396174e-04
<VARIANCE> 25
 7.298401e+00 1.377796e+01 1.408623e+01 1.484162e+01 2.578540e+01 2.376103e+01 2.240448e+01 2.791378e+01 3.098573e+01 2.690715e+01 2.154929e+01 1.879735e+01 1.693473e-01 3.599029e-01 4.769604e-01 5.752648e-01 7.445210e-01 9.792710e-01 1.129049e+00 1.273705e+00 1.324030e+00 1.310469e+00 1.191735e+00 1.128457e+00 2.201997e-04
<GCONST> 6.986921e+01
<MIXTURE> 127 2.402244e-03
<MEAN> 25
 -3.787164e+00 -6.765005e+00 -5.179276e+00 2.328191e+00 4.094165e+00 -3.346847e+00 1.794255e-02 3.536852e+00 3.403922e+00 -2.542725e+00 -1.374953e+00 3.046166e+00 -6.937657e-03 7.357694e-03 -3.807360e-02 -1.577364e-01 -3.290775e-01 -3.846137e-01 -2.983788e-01 -1.824270e-01 -1.162877e-01 -9.293955e-02 -1.041384e-01 -2.705176e-02 -9.396174e-04
<VARIANCE> 25
 7.298401e+00 1.377796e+01 1.408623e+01 1.484162e+01 2.578540e+01 2.376103e+01 2.240448e+01 2.791378e+01 3.098573e+01 2.690715e+01 2.154929e+01 1.879735e+01 1.693473e-01 3.599029e-01 4.769604e-01 5.752648e-01 7.445210e-01 9.792710e-01 1.129049e+00 1.273705e+00 1.324030e+00 1.310469e+00 1.191735e+00 1.128457e+00 2.201997e-04
<GCONST> 6.986921e+01
<MIXTURE> 128 3.790457e-03
<MEAN> 25
 -3.931232e+00 1.541646e+00 -3.391321e-01 6.574211e+00 3.620578e+00 1.858876e+00 3.576973e+00 2.371300e+00 3.962841e+00 3.700343e+00 3.770361e+00 3.524500e+00 -3.961113e-01 -1.970678e-01 9.862462e-02 7.266914e-01 1.184626e+00 1.135273e+00 7.179795e-01 1.309331e-01 -4.391713e-01 -7.879915e-01 -7.022334e-01 -3.934270e-01 -3.646973e-05
<VARIANCE> 25
 1.021744e+01 1.169833e+01 1.499306e+01 1.931551e+01 2.004336e+01 2.117739e+01 2.431536e+01 2.466991e+01 2.641269e+01 2.387451e+01 2.680089e+01 1.821400e+01 8.926292e-01 1.146677e+00 1.365844e+00 1.502600e+00 1.580503e+00 1.864290e+00 2.248799e+00 2.325388e+00 2.147804e+00 1.857436e+00 1.744918e+00 1.749484e+00 1.000096e-06
<GCONST> 7.364517e+01
<TRANSP> 3
 0.000000e+00 1.000000e+00 0.000000e+00
 0.000000e+00 9.999990e-01 9.999998e-07
 0.000000e+00 0.000000e+00 0.000000e+00
<ENDHMM>
