~o
<STREAMINFO> 1 25
<VECSIZE> 25<NULLD><MFCC_E_D_N><DIAGC>
~h "jmodel"
<BEGINHMM>
<NUMSTATES> 3
<STATE> 2
<NUMMIXES> 128
<MIXTURE> 1 5.748963e-03
<MEAN> 25
 -2.583719e+00 3.181209e+00 2.312243e+00 8.753915e+00 4.372025e+00 3.448971e+00 4.061815e+00 3.934858e+00 5.831584e+00 5.253123e+00 5.884495e+00 3.080274e+00 -2.004776e+00 -1.634712e+00 -8.645911e-01 1.076358e+00 1.561023e+00 2.232664e+00 2.154633e+00 2.084646e+00 1.693235e+00 1.269559e+00 1.567515e+00 6.131367e-01 -4.692299e-02
<VARIANCE> 25
 1.006410e+01 1.176064e+01 1.494726e+01 1.869793e+01 2.318975e+01 2.215144e+01 2.190439e+01 2.197890e+01 2.100019e+01 2.253559e+01 2.094748e+01 1.708142e+01 1.788749e+00 2.111862e+00 3.026469e+00 3.210209e+00 3.739118e+00 3.356384e+00 3.318449e+00 3.381943e+00 3.522378e+00 3.726948e+00 3.513438e+00 2.834471e+00 3.121481e-03
<GCONST> 8.846584e+01
<MIXTURE> 2 4.549242e-03
<MEAN> 25
 -4.875671e+00 1.311720e+00 9.943511e-01 9.899809e+00 6.692275e+00 7.424650e+00 7.847087e+00 6.958091e+00 8.373269e+00 6.373019e+00 7.624402e+00 3.074697e+00 -6.200235e-02 4.161923e-02 1.425301e-01 2.258583e-01 2.652900e-01 2.813653e-01 2.954302e-01 3.195550e-01 3.497573e-01 3.089160e-01 1.971766e-01 8.006547e-02 1.228299e-06
<VARIANCE> 25
 6.952293e+00 8.901894e+00 1.065126e+01 1.591096e+01 1.723581e+01 1.556308e+01 1.689898e+01 1.848562e+01 1.658668e+01 1.738619e+01 1.811029e+01 1.434002e+01 1.252503e-01 2.266278e-01 3.364712e-01 4.671271e-01 6.492781e-01 8.148874e-01 9.298787e-01 1.003176e+00 1.051662e+00 1.077774e+00 1.075658e+00 1.013934e+00 1.000000e-06
<GCONST> 5.804302e+01
<MIXTURE> 3 4.549242e-03
<MEAN> 25
 -4.875671e+00 1.311720e+00 9.943511e-01 9.899809e+00 6.692275e+00 7.424650e+00 7.847087e+00 6.958091e+00 8.373269e+00 6.373019e+00 7.624402e+00 3.074697e+00 -6.200235e-02 4.161923e-02 1.425301e-01 2.258583e-01 2.652900e-01 2.813653e-01 2.954302e-01 3.195550e-01 3.497573e-01 3.089160e-01 1.971766e-01 8.006547e-02 1.228299e-06
<VARIANCE> 25
 6.952293e+00 8.901894e+00 1.065126e+01 1.591096e+01 1.723581e+01 1.556308e+01 1.689898e+01 1.848562e+01 1.658668e+01 1.738619e+01 1.811029e+01 1.434002e+01 1.252503e-01 2.266278e-01 3.364712e-01 4.671271e-01 6.492781e-01 8.148874e-01 9.298787e-01 1.003176e+00 1.051662e+00 1.077774e+00 1.075658e+00 1.013934e+00 1.000000e-06
<GCONST> 5.804302e+01
<MIXTURE> 4 1.671429e-02
<MEAN> 25
 3.436977e+00 2.543178e+00 -3.770218e+00 9.205829e-01 4.321615e+00 -2.159447e-01 5.182557e-02 5.366171e-03 1.510949e+00 1.311192e+00 -1.882056e+00 1.083576e-01 -2.771131e+00 1.215380e+00 1.763366e+00 3.093098e+00 9.273317e-01 5.092958e-01 1.518705e+00 1.034640e+00 9.693945e-01 4.306083e-01 1.241430e+00 8.926390e-01 -1.037651e-01
<VARIANCE> 25
 2.112909e+01 2.946560e+01 2.946346e+01 3.982481e+01 4.562252e+01 6.862135e+01 6.532435e+01 5.365049e+01 5.529308e+01 6.206956e+01 4.968464e+01 3.585156e+01 2.342386e+00 5.045444e+00 3.799494e+00 4.932259e+00 5.017348e+00 6.165757e+00 6.087918e+00 5.592448e+00 5.969993e+00 6.418652e+00 6.105124e+00 4.471066e+00 6.112848e-03
<GCONST> 1.055006e+02
<MIXTURE> 5 3.206198e-03
<MEAN> 25
 -3.417109e+00 2.181467e+00 6.105028e-01 9.428417e+00 6.697039e+00 6.315991e+00 7.112015e+00 4.723143e+00 5.495811e+00 3.847951e+00 4.658559e+00 2.606708e+00 -3.246319e-01 7.529396e-01 1.224811e+00 1.032569e+00 3.077013e-01 -1.002221e-01 -8.381534e-02 3.367175e-02 4.580762e-01 6.837549e-01 4.037800e-01 8.798841e-02 -2.788372e-05
<VARIANCE> 25
 1.025016e+01 1.394309e+01 2.348565e+01 2.561973e+01 2.022049e+01 1.942458e+01 2.011785e+01 2.036050e+01 2.141917e+01 2.128339e+01 2.409689e+01 1.635969e+01 1.210045e+00 1.244367e+00 1.357099e+00 1.673683e+00 2.284741e+00 2.376296e+00 2.301464e+00 2.275621e+00 2.315555e+00 2.238106e+00 2.085768e+00 1.873924e+00 1.000616e-06
<GCONST> 7.516734e+01
<MIXTURE> 6 5.475854e-03
<MEAN> 25
 9.702644e+00 -4.178293e-01 -6.691973e+00 -1.104592e+01 -2.117115e+00 6.735220e+00 -5.899917e+00 -5.296871e+00 -3.657476e+00 1.829426e+00 4.644425e+00 -1.252134e+00 4.850883e-01 8.962566e-01 -3.511056e-01 -1.468859e+00 -6.383603e-01 1.314989e+00 1.536769e+00 2.476053e-01 -1.218799e+00 -1.218178e+00 3.231283e-01 1.228799e+00 -8.164532e-03
<VARIANCE> 25
 8.962084e+00 1.707959e+01 2.395571e+01 3.911944e+01 3.678338e+01 3.064854e+01 4.407772e+01 3.807372e+01 4.075600e+01 3.947661e+01 4.210628e+01 2.841945e+01 3.116044e-01 8.573235e-01 9.455924e-01 1.977991e+00 1.605833e+00 2.015916e+00 1.919316e+00 2.051846e+00 2.398895e+00 1.963936e+00 2.246082e+00 1.438105e+00 5.860111e-04
<GCONST> 8.387624e+01
<MIXTURE> 7 5.475854e-03
<MEAN> 25
 9.702644e+00 -4.178293e-01 -6.691973e+00 -1.104592e+01 -2.117115e+00 6.735220e+00 -5.899917e+00 -5.296871e+00 -3.657476e+00 1.829426e+00 4.644425e+00 -1.252134e+00 4.850883e-01 8.962566e-01 -3.511056e-01 -1.468859e+00 -6.383603e-01 1.314989e+00 1.536769e+00 2.476053e-01 -1.218799e+00 -1.218178e+00 3.231283e-01 1.228799e+00 -8.164532e-03
<VARIANCE> 25
 8.962084e+00 1.707959e+01 2.395571e+01 3.911944e+01 3.678338e+01 3.064854e+01 4.407772e+01 3.807372e+01 4.075600e+01 3.947661e+01 4.210628e+01 2.841945e+01 3.116044e-01 8.573235e-01 9.455924e-01 1.977991e+00 1.605833e+00 2.015916e+00 1.919316e+00 2.051846e+00 2.398895e+00 1.963936e+00 2.246082e+00 1.438105e+00 5.860111e-04
<GCONST> 8.387624e+01
<MIXTURE> 8 1.165917e-02
<MEAN> 25
 -4.730116e+00 1.363080e+00 1.292599e+00 9.559102e+00 6.575325e+00 6.254947e+00 6.479562e+00 5.688544e+00 6.659072e+00 5.632267e+00 6.573390e+00 3.152959e+00 -6.297773e-01 -1.425649e+00 -1.071313e+00 -1.731284e+00 -2.311713e-01 -9.456150e-01 -1.777330e-01 -2.894087e-01 -2.529178e-01 -1.740228e-01 -2.135005e-01 8.119517e-02 9.888890e-02
<VARIANCE> 25
 9.340010e+00 9.847658e+00 1.161086e+01 1.606149e+01 1.663419e+01 1.570598e+01 1.813217e+01 1.751232e+01 1.704295e+01 1.737536e+01 1.887487e+01 1.399777e+01 2.757123e+00 2.815658e+00 3.906832e+00 3.761540e+00 3.455822e+00 3.315773e+00 3.128840e+00 3.081142e+00 2.871959e+00 2.655689e+00 2.434850e+00 1.902134e+00 6.682209e-03
<GCONST> 8.628836e+01
<MIXTURE> 9 1.199672e-02
<MEAN> 25
 9.280924e+00 3.362400e+00 -6.163574e+00 -1.060590e+01 -2.226472e+00 4.928781e+00 -2.199118e+00 -2.297095e+00 -5.357580e+00 -1.230713e+00 5.703595e-01 1.350574e-02 1.442385e+00 -1.314160e-01 -4.718126e-01 -2.694503e+00 -1.664061e+00 8.328975e-01 -9.851236e-01 -2.297718e-01 -1.674799e-01 -5.766681e-01 5.938675e-01 -1.538007e-01 7.320621e-02
<VARIANCE> 25
 1.221760e+01 2.141018e+01 3.367673e+01 5.388253e+01 4.995088e+01 3.230611e+01 4.300274e+01 5.183847e+01 4.213520e+01 4.145025e+01 3.591982e+01 2.682723e+01 2.074937e+00 2.439047e+00 4.598774e+00 4.859165e+00 5.020257e+00 4.142433e+00 4.236887e+00 6.001757e+00 5.030082e+00 4.053607e+00 4.053762e+00 2.786212e+00 2.200876e-03
<GCONST> 9.876836e+01
<MIXTURE> 10 6.596976e-03
<MEAN> 25
 8.221304e-01 7.626646e+00 5.377305e+00 7.136629e+00 1.589199e+00 -2.114628e+00 -5.249641e-01 -1.685258e+00 8.764151e-01 8.634148e-01 8.382640e-01 6.581720e-01 -1.925457e+00 -6.724215e-01 -4.613678e-01 3.028568e+00 2.463557e+00 2.710829e+00 2.373235e+00 2.273390e+00 1.858363e+00 1.543617e+00 2.334749e+00 5.227852e-01 -1.379926e-01
<VARIANCE> 25
 1.952559e+01 2.072572e+01 2.228522e+01 2.918649e+01 3.828128e+01 3.490769e+01 3.515804e+01 3.381028e+01 2.759011e+01 2.903368e+01 2.693630e+01 2.499247e+01 2.232925e+00 3.423689e+00 5.537883e+00 5.164775e+00 5.546999e+00 4.465217e+00 4.695711e+00 4.859197e+00 4.395257e+00 5.018484e+00 4.439317e+00 3.192321e+00 2.716949e-03
<GCONST> 9.746516e+01
<MIXTURE> 11 1.633820e-02
<MEAN> 25
 7.845617e+00 4.293757e+00 3.480065e+00 5.269636e+00 -3.332268e+00 -2.104136e+00 -2.355883e+00 -6.549295e+00 -3.567355e+00 1.070739e-01 -2.632668e+00 -2.180724e+00 -2.723648e-01 5.162994e-01 1.674073e-01 2.732348e-01 5.154045e-01 -7.321689e-02 2.743207e-01 -1.460197e-01 -1.809447e-01 -3.825101e-02 -1.189149e-01 1.753173e-01 -1.687661e-02
<VARIANCE> 25
 1.075824e+01 2.441876e+01 2.114581e+01 3.130679e+01 3.889433e+01 3.904468e+01 4.888084e+01 4.386303e+01 4.340927e+01 3.550887e+01 3.488237e+01 2.942612e+01 9.441718e-01 1.261369e+00 1.731733e+00 2.215896e+00 2.083999e+00 2.174197e+00 2.114362e+00 2.763646e+00 2.146732e+00 1.957898e+00 1.896850e+00 1.602646e+00 9.785196e-04
<GCONST> 8.769756e+01
<MIXTURE> 12 5.904134e-03
<MEAN> 25
 1.076557e+01 3.743657e+00 -4.502538e+00 -1.599374e+01 -8.696450e+00 8.642670e+00 -8.969023e-01 -1.922025e+00 -1.722948e+00 -4.886546e+00 1.774660e+00 7.167218e-01 6.774690e-02 2.937658e-01 7.963203e-02 -3.682849e-01 -3.103198e-01 2.953711e-02 3.055213e-01 4.477992e-01 1.410508e-01 -3.846995e-01 -3.855896e-01 5.392363e-02 -6.302694e-03
<VARIANCE> 25
 8.882919e+00 2.100266e+01 2.335698e+01 3.503224e+01 4.206005e+01 3.096058e+01 4.179758e+01 4.898220e+01 4.406384e+01 3.738948e+01 3.799832e+01 2.892743e+01 2.468046e-01 6.883603e-01 6.860521e-01 1.169902e+00 1.186484e+00 1.053909e+00 1.171059e+00 1.386193e+00 1.240576e+00 1.222240e+00 1.221473e+00 9.564636e-01 5.786552e-04
<GCONST> 7.892084e+01
<MIXTURE> 13 5.904134e-03
<MEAN> 25
 1.076557e+01 3.743657e+00 -4.502538e+00 -1.599374e+01 -8.696450e+00 8.642670e+00 -8.969023e-01 -1.922025e+00 -1.722948e+00 -4.886546e+00 1.774660e+00 7.167218e-01 6.774690e-02 2.937658e-01 7.963203e-02 -3.682849e-01 -3.103198e-01 2.953711e-02 3.055213e-01 4.477992e-01 1.410508e-01 -3.846995e-01 -3.855896e-01 5.392363e-02 -6.302694e-03
<VARIANCE> 25
 8.882919e+00 2.100266e+01 2.335698e+01 3.503224e+01 4.206005e+01 3.096058e+01 4.179758e+01 4.898220e+01 4.406384e+01 3.738948e+01 3.799832e+01 2.892743e+01 2.468046e-01 6.883603e-01 6.860521e-01 1.169902e+00 1.186484e+00 1.053909e+00 1.171059e+00 1.386193e+00 1.240576e+00 1.222240e+00 1.221473e+00 9.564636e-01 5.786552e-04
<GCONST> 7.892084e+01
<MIXTURE> 14 6.488954e-03
<MEAN> 25
 -4.316912e+00 -3.785948e-01 -3.136616e-01 8.906832e+00 7.514470e+00 7.379069e+00 7.829093e+00 7.323007e+00 7.247646e+00 5.224338e+00 6.866326e+00 4.102530e+00 -2.738904e-01 1.939324e-01 3.654634e-01 3.094602e-01 6.862740e-03 6.016333e-02 9.665055e-02 1.780573e-01 2.960437e-01 5.398836e-01 5.057562e-01 7.517763e-02 -9.331277e-03
<VARIANCE> 25
 9.291767e+00 1.386671e+01 1.863618e+01 1.787146e+01 2.089138e+01 1.958177e+01 2.152656e+01 2.066146e+01 2.011802e+01 2.391232e+01 2.136873e+01 1.597442e+01 9.623358e-01 1.640267e+00 1.773466e+00 1.935941e+00 2.245207e+00 2.257904e+00 2.256170e+00 2.241798e+00 2.284619e+00 2.506328e+00 2.197730e+00 1.812922e+00 1.029459e-03
<GCONST> 8.191711e+01
<MIXTURE> 15 2.475190e-03
<MEAN> 25
 -5.420191e+00 -6.469608e-01 -2.047727e-01 7.365454e+00 5.720864e+00 5.698703e+00 6.061820e+00 4.974802e+00 5.159678e+00 4.152599e+00 5.501775e+00 2.542351e+00 -1.209313e-01 -2.945304e-02 7.496955e-02 2.435225e-01 4.900787e-01 7.870357e-01 1.072202e+00 1.181332e+00 1.057708e+00 7.560787e-01 4.206559e-01 1.535012e-01 -8.662593e-05
<VARIANCE> 25
 6.999565e+00 5.610857e+00 9.049180e+00 1.281319e+01 1.407268e+01 1.429897e+01 1.491743e+01 1.491845e+01 1.412459e+01 1.417837e+01 1.509349e+01 1.251150e+01 1.248249e-01 2.062661e-01 3.196405e-01 5.029100e-01 6.999369e-01 7.934889e-01 7.627754e-01 7.925029e-01 9.118599e-01 1.023265e+00 1.072440e+00 1.040766e+00 2.796148e-05
<GCONST> 5.859790e+01
<MIXTURE> 16 2.475190e-03
<MEAN> 25
 -5.420191e+00 -6.469608e-01 -2.047727e-01 7.365454e+00 5.720864e+00 5.698703e+00 6.061820e+00 4.974802e+00 5.159678e+00 4.152599e+00 5.501775e+00 2.542351e+00 -1.209313e-01 -2.945304e-02 7.496955e-02 2.435225e-01 4.900787e-01 7.870357e-01 1.072202e+00 1.181332e+00 1.057708e+00 7.560787e-01 4.206559e-01 1.535012e-01 -8.662593e-05
<VARIANCE> 25
 6.999565e+00 5.610857e+00 9.049180e+00 1.281319e+01 1.407268e+01 1.429897e+01 1.491743e+01 1.491845e+01 1.412459e+01 1.417837e+01 1.509349e+01 1.251150e+01 1.248249e-01 2.062661e-01 3.196405e-01 5.029100e-01 6.999369e-01 7.934889e-01 7.627754e-01 7.925029e-01 9.118599e-01 1.023265e+00 1.072440e+00 1.040766e+00 2.796148e-05
<GCONST> 5.859790e+01
<MIXTURE> 17 9.518312e-03
<MEAN> 25
 3.888778e+00 -8.008661e-01 6.313623e+00 2.278955e+00 -6.056489e+00 -6.251078e+00 -3.136701e+00 -2.105219e-01 -2.565833e+00 -3.152345e+00 1.568077e-02 8.727282e-02 -7.068011e-01 -1.218735e+00 1.330888e+00 -2.096250e+00 -2.408457e+00 -2.194851e-01 1.224520e-01 7.411801e-01 -2.207421e-01 -2.037441e-01 9.289730e-01 3.819182e-01 8.150974e-02
<VARIANCE> 25
 1.649406e+01 3.074818e+01 2.961996e+01 3.898796e+01 4.391898e+01 4.813756e+01 4.114280e+01 3.346692e+01 3.492834e+01 2.678047e+01 2.741283e+01 2.753556e+01 1.892791e+00 2.628677e+00 3.909345e+00 3.041754e+00 4.045623e+00 5.444052e+00 4.986379e+00 4.602891e+00 4.072622e+00 3.934924e+00 3.333537e+00 2.665116e+00 2.089718e-03
<GCONST> 9.667258e+01
<MIXTURE> 18 1.221018e-02
<MEAN> 25
 3.949102e+00 4.471720e+00 6.780909e+00 4.460218e+00 -4.469101e+00 -8.226918e+00 -1.916547e+00 -1.124581e+00 -3.187045e+00 -2.255667e+00 -7.973325e-01 6.504516e-01 -7.985968e-01 2.121623e+00 -2.683966e-01 2.049767e+00 3.118308e+00 1.522023e+00 8.141009e-01 -2.568771e-01 5.823035e-01 5.140837e-01 -2.358105e-01 -9.646358e-02 -1.206265e-01
<VARIANCE> 25
 1.578036e+01 2.554959e+01 3.214981e+01 2.845969e+01 4.000989e+01 3.354407e+01 3.885131e+01 3.445774e+01 3.947337e+01 3.519831e+01 3.216223e+01 3.049236e+01 2.550058e+00 3.018535e+00 4.797906e+00 3.973522e+00 3.992244e+00 4.605007e+00 4.553676e+00 4.420773e+00 4.435904e+00 4.207663e+00 4.574478e+00 3.581316e+00 4.401228e-03
<GCONST> 9.849103e+01
<MIXTURE> 19 9.912824e-03
<MEAN> 25
 -9.775264e+00 1.813888e+00 2.244062e-01 9.481796e-01 3.995438e+00 1.651249e+00 3.348536e+00 1.190756e+00 1.801906e+00 1.125841e+00 1.101371e+00 1.983657e+00 2.030537e+00 1.709379e+00 2.174277e+00 6.786215e-01 -1.112949e+00 -9.724658e-01 -1.066900e+00 -1.415599e+00 -1.458816e+00 -1.135573e+00 -8.709712e-01 -7.597314e-01 2.475104e-03
<VARIANCE> 25
 5.487637e+01 2.901875e+01 4.629659e+01 5.254990e+01 3.242030e+01 3.166089e+01 3.038612e+01 2.850545e+01 2.949312e+01 2.596754e+01 2.952937e+01 1.949144e+01 2.430418e+00 2.144162e+00 2.092616e+00 2.360322e+00 2.624725e+00 2.327308e+00 2.524307e+00 2.327300e+00 2.138481e+00 1.988579e+00 2.176395e+00 1.769874e+00 2.328407e-03
<GCONST> 9.137301e+01
<MIXTURE> 20 6.308331e-03
<MEAN> 25
 -1.418141e+01 7.416175e+00 8.452275e-01 6.152227e+00 4.843545e+00 1.637086e+00 5.209257e+00 8.536986e-01 9.222747e-01 7.986997e-01 2.568576e+00 -3.024432e-01 -3.285933e+00 -8.668821e-01 -1.565162e+00 3.325766e-01 1.541041e+00 2.063139e+00 1.979228e+00 2.056197e+00 2.144578e+00 2.040234e+00 1.684750e+00 9.453097e-01 4.732125e-02
<VARIANCE> 25
 1.966362e+01 2.345557e+01 3.096049e+01 3.717679e+01 3.084964e+01 2.789019e+01 2.993287e+01 3.147513e+01 2.796427e+01 2.821417e+01 2.515966e+01 2.091768e+01 2.092060e+00 2.182248e+00 1.909940e+00 2.541354e+00 2.702731e+00 2.313084e+00 2.310149e+00 2.320025e+00 2.235474e+00 2.652253e+00 2.241417e+00 1.865651e+00 1.886413e-03
<GCONST> 8.921885e+01
<MIXTURE> 21 7.928653e-03
<MEAN> 25
 4.013239e+00 -4.528789e+00 5.783763e+00 -1.580849e+00 -1.057840e+01 -8.723115e+00 -2.624069e+00 4.174199e+00 -2.053004e+00 -3.397922e+00 2.247005e-01 3.609336e-01 -7.189997e-01 1.341610e+00 2.580407e+00 -4.763781e-02 -1.527715e+00 3.381854e-01 5.781133e-01 -1.492843e+00 -1.946515e+00 3.173635e-01 1.326112e+00 2.455163e-01 -1.275407e-02
<VARIANCE> 25
 8.869721e+00 1.864324e+01 2.953972e+01 2.851983e+01 2.843796e+01 3.305468e+01 4.277934e+01 3.918407e+01 4.281992e+01 3.148126e+01 3.376794e+01 2.320967e+01 3.750838e-01 9.463841e-01 1.863430e+00 1.289069e+00 2.330118e+00 2.180174e+00 3.648831e+00 2.496878e+00 2.179639e+00 2.587058e+00 2.008551e+00 2.276194e+00 4.278082e-04
<GCONST> 8.510023e+01
<MIXTURE> 22 8.827789e-03
<MEAN> 25
 -1.792091e+01 7.154785e+00 -4.131347e+00 7.392482e+00 4.602546e+00 2.761039e+00 8.399819e+00 1.748462e+00 5.379299e+00 3.301012e+00 5.716434e+00 1.185148e+00 -3.095726e-01 -2.075880e-01 -1.255633e-01 -1.492641e-01 -7.208806e-03 1.369678e-01 1.807591e-01 1.779423e-01 2.484757e-01 2.073076e-01 1.726615e-01 1.924446e-01 8.857626e-03
<VARIANCE> 25
 8.116920e+00 1.682541e+01 1.738343e+01 2.517213e+01 2.289636e+01 2.083704e+01 1.943101e+01 1.871084e+01 1.813996e+01 2.086667e+01 1.924184e+01 1.378720e+01 1.090756e+00 1.357369e+00 1.363971e+00 1.572030e+00 1.408815e+00 1.526971e+00 1.508942e+00 1.532825e+00 1.614233e+00 1.544764e+00 1.357418e+00 1.168007e+00 1.745583e-03
<GCONST> 7.830949e+01
<MIXTURE> 23 6.455497e-03
<MEAN> 25
 7.832271e+00 2.407504e+00 2.936879e+00 2.516302e+00 -4.785833e+00 -3.113175e+00 -4.244582e+00 -6.499923e+00 -3.341888e+00 -9.093883e-01 -4.087859e+00 -2.134145e+00 3.588112e-02 1.687008e-01 5.391027e-03 5.987421e-02 -1.305113e-02 2.268163e-02 9.944878e-03 -4.788613e-02 -1.343834e-02 2.281937e-02 1.826280e-02 5.402273e-02 -4.490979e-03
<VARIANCE> 25
 1.096336e+01 2.195836e+01 2.465460e+01 4.040787e+01 3.775626e+01 5.294805e+01 5.806004e+01 5.392319e+01 4.785343e+01 4.698283e+01 4.759395e+01 3.953299e+01 1.182250e-01 2.925366e-01 3.743124e-01 4.843555e-01 6.081525e-01 7.301538e-01 7.691019e-01 8.631515e-01 8.887571e-01 9.126619e-01 8.203444e-01 7.554971e-01 8.895497e-05
<GCONST> 7.293333e+01
<MIXTURE> 24 6.455497e-03
<MEAN> 25
 7.832271e+00 2.407504e+00 2.936879e+00 2.516302e+00 -4.785833e+00 -3.113175e+00 -4.244582e+00 -6.499923e+00 -3.341888e+00 -9.093883e-01 -4.087859e+00 -2.134145e+00 3.588112e-02 1.687008e-01 5.391027e-03 5.987421e-02 -1.305113e-02 2.268163e-02 9.944878e-03 -4.788613e-02 -1.343834e-02 2.281937e-02 1.826280e-02 5.402273e-02 -4.490979e-03
<VARIANCE> 25
 1.096336e+01 2.195836e+01 2.465460e+01 4.040787e+01 3.775626e+01 5.294805e+01 5.806004e+01 5.392319e+01 4.785343e+01 4.698283e+01 4.759395e+01 3.953299e+01 1.182250e-01 2.925366e-01 3.743124e-01 4.843555e-01 6.081525e-01 7.301538e-01 7.691019e-01 8.631515e-01 8.887571e-01 9.126619e-01 8.203444e-01 7.554971e-01 8.895497e-05
<GCONST> 7.293333e+01
<MIXTURE> 25 1.118642e-02
<MEAN> 25
 2.933052e-01 3.481495e+00 1.678733e+01 -1.039100e+00 -1.132866e+01 -1.758914e+00 -4.992546e+00 -2.946601e+00 -6.938736e+00 -5.447487e+00 4.101293e+00 -1.644573e+00 -1.354876e-01 4.406340e-01 1.693694e-01 1.513244e-01 2.177654e-01 1.104797e-01 1.928864e-01 -1.691203e-01 -2.492536e-01 7.441674e-02 -7.252118e-02 -1.076059e-01 -1.292102e-02
<VARIANCE> 25
 8.867016e+00 2.222970e+01 2.084559e+01 2.869408e+01 3.167109e+01 4.110344e+01 2.735485e+01 2.998674e+01 2.837596e+01 3.660754e+01 2.095968e+01 2.759898e+01 5.960604e-01 1.444818e+00 1.404827e+00 1.382690e+00 2.277435e+00 2.036867e+00 1.747867e+00 1.629700e+00 1.536402e+00 1.650391e+00 1.349360e+00 1.297218e+00 1.282456e-03
<GCONST> 8.273895e+01
<MIXTURE> 26 7.727677e-03
<MEAN> 25
 2.173741e+00 -6.439712e+00 -1.039113e+01 -6.958172e-01 7.997501e+00 5.487751e+00 4.068330e+00 -2.777612e-01 2.267389e+00 -9.630223e-01 -2.892091e+00 -9.860505e-01 -6.533660e-01 6.276625e-01 3.636093e-01 6.950710e-01 1.752884e-01 2.422478e-01 2.884137e-01 3.346720e-01 2.876605e-01 8.326415e-02 3.873862e-01 4.278919e-01 -5.273129e-02
<VARIANCE> 25
 2.509734e+01 3.406404e+01 2.564260e+01 6.232645e+01 3.901330e+01 4.242286e+01 4.607500e+01 4.397384e+01 3.933422e+01 5.435320e+01 4.009479e+01 4.671206e+01 1.652052e+00 1.957067e+00 1.935015e+00 2.003103e+00 2.316983e+00 2.365219e+00 2.521224e+00 2.735744e+00 2.331242e+00 2.334161e+00 2.161850e+00 2.001007e+00 3.320043e-03
<GCONST> 9.391432e+01
<MIXTURE> 27 7.727677e-03
<MEAN> 25
 2.173741e+00 -6.439712e+00 -1.039113e+01 -6.958172e-01 7.997501e+00 5.487751e+00 4.068330e+00 -2.777612e-01 2.267389e+00 -9.630223e-01 -2.892091e+00 -9.860505e-01 -6.533660e-01 6.276625e-01 3.636093e-01 6.950710e-01 1.752884e-01 2.422478e-01 2.884137e-01 3.346720e-01 2.876605e-01 8.326415e-02 3.873862e-01 4.278919e-01 -5.273129e-02
<VARIANCE> 25
 2.509734e+01 3.406404e+01 2.564260e+01 6.232645e+01 3.901330e+01 4.242286e+01 4.607500e+01 4.397384e+01 3.933422e+01 5.435320e+01 4.009479e+01 4.671206e+01 1.652052e+00 1.957067e+00 1.935015e+00 2.003103e+00 2.316983e+00 2.365219e+00 2.521224e+00 2.735744e+00 2.331242e+00 2.334161e+00 2.161850e+00 2.001007e+00 3.320043e-03
<GCONST> 9.391432e+01
<MIXTURE> 28 5.036674e-03
<MEAN> 25
 -5.450025e+00 1.187986e-02 -1.568602e+00 6.614728e+00 5.231290e+00 3.517257e+00 5.412489e+00 3.127744e+00 3.921902e+00 2.393493e+00 2.637362e+00 3.218606e+00 -1.151417e-01 2.232299e-01 5.286914e-01 7.848123e-01 8.216966e-01 7.028652e-01 5.230437e-01 3.917091e-01 4.445218e-01 4.823075e-01 3.713980e-01 1.896286e-01 -1.182077e-05
<VARIANCE> 25
 1.044192e+01 8.351996e+00 1.215800e+01 1.485957e+01 1.470996e+01 1.772987e+01 1.807617e+01 1.903157e+01 1.718306e+01 1.672904e+01 2.060558e+01 1.500624e+01 2.564741e-01 3.364699e-01 4.067326e-01 4.640104e-01 6.219626e-01 8.467457e-01 1.056168e+00 1.144695e+00 1.102614e+00 1.029970e+00 1.036774e+00 1.066385e+00 1.001001e-06
<GCONST> 6.025570e+01
<MIXTURE> 29 5.036674e-03
<MEAN> 25
 -5.450025e+00 1.187986e-02 -1.568602e+00 6.614728e+00 5.231290e+00 3.517257e+00 5.412489e+00 3.127744e+00 3.921902e+00 2.393493e+00 2.637362e+00 3.218606e+00 -1.151417e-01 2.232299e-01 5.286914e-01 7.848123e-01 8.216966e-01 7.028652e-01 5.230437e-01 3.917091e-01 4.445218e-01 4.823075e-01 3.713980e-01 1.896286e-01 -1.182077e-05
<VARIANCE> 25
 1.044192e+01 8.351996e+00 1.215800e+01 1.485957e+01 1.470996e+01 1.772987e+01 1.807617e+01 1.903157e+01 1.718306e+01 1.672904e+01 2.060558e+01 1.500624e+01 2.564741e-01 3.364699e-01 4.067326e-01 4.640104e-01 6.219626e-01 8.467457e-01 1.056168e+00 1.144695e+00 1.102614e+00 1.029970e+00 1.036774e+00 1.066385e+00 1.001001e-06
<GCONST> 6.025570e+01
<MIXTURE> 30 8.917812e-03
<MEAN> 25
 -4.491377e+00 -1.974835e-01 6.505020e-01 9.085352e+00 7.775576e+00 7.506931e+00 7.584304e+00 6.875630e+00 6.528741e+00 4.894434e+00 7.011141e+00 3.503063e+00 -2.357682e-02 3.003676e-02 5.637748e-02 8.876124e-02 8.235721e-02 4.521451e-02 1.379624e-02 -3.339698e-03 1.646631e-02 5.204984e-02 6.260118e-02 3.481023e-02 -5.580156e-04
<VARIANCE> 25
 6.949356e+00 9.866777e+00 1.041735e+01 1.375816e+01 1.574422e+01 1.642683e+01 1.911928e+01 1.821317e+01 1.630955e+01 1.836468e+01 2.123460e+01 1.437101e+01 9.744845e-02 1.996521e-01 3.248588e-01 4.815202e-01 6.205665e-01 7.249889e-01 7.722522e-01 8.120301e-01 8.765091e-01 9.369628e-01 9.222328e-01 8.620222e-01 5.095191e-05
<GCONST> 6.059997e+01
<MIXTURE> 31 4.136493e-03
<MEAN> 25
 -3.235124e+00 -5.394536e+00 -1.850891e-03 4.695635e+00 3.536722e+00 1.685877e+00 5.272634e+00 6.371193e+00 2.369694e+00 1.184167e+00 6.354040e+00 3.058259e+00 2.656780e-01 4.441181e-01 -2.286714e-01 2.945290e-01 1.383272e-01 4.128384e-01 2.283699e-01 -6.098383e-03 3.766299e-01 4.155341e-01 1.067841e-01 9.659748e-02 -1.832473e-02
<VARIANCE> 25
 7.252921e+00 1.643062e+01 1.719080e+01 1.825978e+01 2.525616e+01 2.293313e+01 2.275523e+01 2.566405e+01 2.746900e+01 2.677356e+01 2.021632e+01 1.884059e+01 1.882623e-01 5.004890e-01 6.057246e-01 7.615591e-01 9.836910e-01 1.070137e+00 1.205843e+00 1.401922e+00 1.309391e+00 1.290059e+00 1.258500e+00 1.175977e+00 2.509407e-04
<GCONST> 7.181762e+01
<MIXTURE> 32 4.136493e-03
<MEAN> 25
 -3.235124e+00 -5.394536e+00 -1.850891e-03 4.695635e+00 3.536722e+00 1.685877e+00 5.272634e+00 6.371193e+00 2.369694e+00 1.184167e+00 6.354040e+00 3.058259e+00 2.656780e-01 4.441181e-01 -2.286714e-01 2.945290e-01 1.383272e-01 4.128384e-01 2.283699e-01 -6.098383e-03 3.766299e-01 4.155341e-01 1.067841e-01 9.659748e-02 -1.832473e-02
<VARIANCE> 25
 7.252921e+00 1.643062e+01 1.719080e+01 1.825978e+01 2.525616e+01 2.293313e+01 2.275523e+01 2.566405e+01 2.746900e+01 2.677356e+01 2.021632e+01 1.884059e+01 1.882623e-01 5.004890e-01 6.057246e-01 7.615591e-01 9.836910e-01 1.070137e+00 1.205843e+00 1.401922e+00 1.309391e+00 1.290059e+00 1.258500e+00 1.175977e+00 2.509407e-04
<GCONST> 7.181762e+01
<MIXTURE> 33 1.508826e-02
<MEAN> 25
 6.592116e+00 -4.015190e+00 -2.203200e+00 -2.642498e+00 -1.964147e+00 -5.623435e+00 -7.278080e+00 1.743014e+00 2.320701e+00 -4.536210e-01 -4.701956e+00 -2.994992e+00 6.503394e-01 -1.170084e+00 -2.441465e+00 -1.864684e+00 1.463616e+00 1.420494e+00 -7.527184e-01 6.548535e-01 1.022589e+00 5.593411e-01 -3.040274e-01 -1.334422e+00 3.763571e-02
<VARIANCE> 25
 9.896827e+00 2.113632e+01 2.916434e+01 3.612422e+01 4.062750e+01 4.402018e+01 4.307182e+01 4.665966e+01 4.048563e+01 4.385561e+01 3.499635e+01 2.846740e+01 1.167879e+00 1.947723e+00 2.204204e+00 2.209204e+00 4.220180e+00 3.439787e+00 4.320055e+00 5.625693e+00 3.779220e+00 4.400014e+00 3.386765e+00 2.602018e+00 1.476781e-03
<GCONST> 9.447089e+01
<MIXTURE> 34 1.588179e-02
<MEAN> 25
 8.920946e+00 4.373791e-02 1.481457e-01 1.202458e+00 -2.942412e+00 -1.527671e+00 -6.158553e+00 -4.680840e+00 -1.797440e+00 1.621552e-01 -2.642988e+00 -3.685949e+00 -2.021911e-02 1.346128e+00 1.468840e+00 2.396877e+00 -3.614357e-02 -1.485980e-01 7.906528e-01 -1.642382e+00 -9.005236e-01 2.595558e-01 -5.517431e-01 2.424330e-01 -6.228989e-02
<VARIANCE> 25
 7.686120e+00 3.100973e+01 2.952623e+01 4.996352e+01 4.233564e+01 4.941038e+01 5.494512e+01 5.671163e+01 5.265756e+01 4.325960e+01 4.834878e+01 3.160442e+01 1.267904e+00 1.981459e+00 4.286205e+00 4.045913e+00 5.645440e+00 5.839966e+00 5.505661e+00 6.156702e+00 5.194842e+00 4.974947e+00 5.030318e+00 3.877623e+00 1.157342e-03
<GCONST> 9.972445e+01
<MIXTURE> 35 1.467755e-02
<MEAN> 25
 -2.150269e+00 -5.241435e+00 -9.976227e+00 2.158467e-01 9.703135e+00 7.981431e-01 1.605832e+00 2.539824e+00 1.470628e+00 4.580010e+00 5.004906e-02 1.883065e+00 5.479593e-01 -1.114965e+00 -1.425717e+00 -1.386604e+00 4.047909e-01 -7.989306e-01 -6.826565e-01 -1.309729e-01 -1.582487e-01 1.635755e-01 -6.534429e-01 -4.990176e-01 1.076161e-01
<VARIANCE> 25
 1.959481e+01 2.949868e+01 4.343330e+01 6.234046e+01 4.211699e+01 5.740875e+01 5.098915e+01 4.358836e+01 5.043169e+01 3.847733e+01 3.655698e+01 3.093716e+01 3.464647e+00 3.574222e+00 6.788889e+00 5.557184e+00 5.233407e+00 5.580472e+00 4.927710e+00 4.746387e+00 5.050933e+00 4.512247e+00 4.076161e+00 3.794263e+00 5.303882e-03
<GCONST> 1.036080e+02
<MIXTURE> 36 1.093293e-02
<MEAN> 25
 5.055842e+00 -3.551875e+00 7.042862e+00 2.248118e+00 -1.013146e+01 -8.877385e+00 -6.141229e+00 3.127615e+00 -1.749281e+00 -4.427685e+00 2.508933e+00 4.948046e-02 3.230040e-01 1.926330e-01 -8.502994e-01 -1.241908e-02 9.690483e-01 6.748023e-02 -5.112997e-01 1.704219e-02 4.257412e-01 5.838358e-01 -3.541319e-01 -3.001347e-01 -1.551683e-02
<VARIANCE> 25
 9.480755e+00 1.618021e+01 2.159234e+01 3.144400e+01 3.029861e+01 3.083272e+01 4.504287e+01 3.363664e+01 3.835450e+01 3.184865e+01 2.857130e+01 2.641710e+01 4.875545e-01 7.777122e-01 1.571375e+00 1.231161e+00 1.884381e+00 1.604842e+00 2.125816e+00 1.694479e+00 1.920567e+00 1.640871e+00 1.461161e+00 1.413100e+00 7.158426e-04
<GCONST> 8.210684e+01
<MIXTURE> 37 1.246826e-02
<MEAN> 25
 5.719571e-01 7.637148e+00 1.196883e+01 -5.552049e+00 -7.837350e+00 -1.063748e+00 -5.121064e+00 -8.205804e+00 -3.595453e+00 -8.155678e-01 -3.602672e+00 -1.243041e+00 1.377920e-01 6.408527e-01 -1.386151e+00 3.579731e+00 2.001581e+00 -2.431232e-01 1.101133e+00 3.901093e-01 4.950514e-01 -3.171650e-01 5.497192e-01 -1.227550e-01 -9.309568e-02
<VARIANCE> 25
 1.573628e+01 2.661069e+01 3.077711e+01 5.014824e+01 3.553181e+01 3.149987e+01 4.333596e+01 3.529866e+01 3.870951e+01 3.584474e+01 3.743176e+01 3.054292e+01 3.019484e+00 3.361127e+00 3.026034e+00 4.027398e+00 4.550514e+00 3.876081e+00 4.143742e+00 3.865171e+00 3.456342e+00 3.562658e+00 3.816860e+00 2.780325e+00 4.054477e-03
<GCONST> 9.778233e+01
<MIXTURE> 38 1.154525e-02
<MEAN> 25
 -4.199769e+00 8.562805e+00 4.683088e+00 2.844454e+00 9.955215e-01 -5.031092e+00 -9.053674e-01 -2.717110e+00 -2.596533e+00 -2.769711e+00 -1.449224e+00 -4.747052e-01 -4.424891e+00 1.201161e+00 -4.525706e-01 1.552752e+00 2.567184e+00 1.471889e+00 2.039926e+00 8.007463e-01 6.741971e-01 6.050855e-01 1.005891e+00 2.353677e-01 4.706171e-02
<VARIANCE> 25
 3.144020e+01 3.150380e+01 3.733658e+01 3.440440e+01 4.702378e+01 3.463676e+01 3.640696e+01 3.973484e+01 3.456952e+01 3.316224e+01 2.320853e+01 2.748820e+01 2.414435e+00 3.808278e+00 4.114482e+00 5.109958e+00 4.050521e+00 4.909291e+00 4.562420e+00 4.883365e+00 4.482728e+00 4.729481e+00 4.186613e+00 3.271368e+00 1.998401e-03
<GCONST> 9.899224e+01
<MIXTURE> 39 9.501865e-03
<MEAN> 25
 1.380559e+00 2.537468e+00 1.019155e+01 -9.216930e+00 -1.127691e+01 -1.049307e+00 -2.971810e+00 -6.472640e+00 -4.471298e+00 8.568362e-01 -3.692974e+00 -2.229289e+00 -7.265608e-01 1.520120e+00 1.618438e+00 -1.386197e+00 1.101056e-01 1.217473e+00 -1.205184e+00 -1.242064e+00 4.296782e-01 4.504040e-01 -4.881043e-01 1.252535e-01 1.295776e-03
<VARIANCE> 25
 9.008018e+00 3.025587e+01 3.137317e+01 3.784108e+01 3.689698e+01 4.266368e+01 4.401737e+01 3.417754e+01 3.935366e+01 3.290596e+01 3.589756e+01 2.959266e+01 6.859413e-01 1.533044e+00 1.503598e+00 2.901713e+00 2.496705e+00 2.798860e+00 3.023484e+00 2.735429e+00 2.412373e+00 2.596127e+00 2.130033e+00 2.052681e+00 1.174083e-03
<GCONST> 8.958912e+01
<MIXTURE> 40 1.030800e-02
<MEAN> 25
 -8.941832e+00 2.091728e+00 -1.253511e+00 7.694395e+00 3.846852e+00 5.310382e+00 5.120506e+00 4.243030e+00 4.477907e+00 4.094597e+00 5.562280e+00 1.526913e+00 -8.632834e-02 -2.061771e-01 -1.905944e-02 -2.899155e-01 -1.225138e-01 -9.139767e-02 6.146321e-02 9.028529e-02 -1.400615e-02 1.971273e-03 4.100813e-02 5.477112e-03 4.001698e-03
<VARIANCE> 25
 4.289515e+01 2.002307e+01 2.856672e+01 3.087364e+01 2.497612e+01 1.944720e+01 2.018309e+01 1.851402e+01 1.777751e+01 1.802329e+01 1.839149e+01 1.517414e+01 7.456289e-01 7.187746e-01 8.751139e-01 1.105104e+00 1.096114e+00 1.240191e+00 1.324342e+00 1.317882e+00 1.235092e+00 1.172551e+00 1.149228e+00 1.117028e+00 8.185958e-04
<GCONST> 7.671373e+01
<MIXTURE> 41 6.713375e-03
<MEAN> 25
 1.362599e+00 1.757478e+00 1.040423e+01 -6.915087e+00 -1.043825e+01 -3.834016e+00 -2.489978e+00 -5.019436e+00 -4.601742e+00 2.654159e+00 -1.738240e+00 -9.148872e-01 8.960354e-02 -7.629699e-01 1.701206e+00 -3.536416e+00 -2.475345e+00 -1.334944e-01 -5.220910e-01 -3.547926e-01 -8.030003e-01 1.069723e+00 -1.060134e+00 8.016153e-02 8.600870e-02
<VARIANCE> 25
 1.191980e+01 2.947725e+01 3.294135e+01 3.993878e+01 3.852063e+01 3.986379e+01 3.683153e+01 2.968503e+01 3.314468e+01 2.858029e+01 3.160032e+01 2.709832e+01 3.165354e+00 3.284295e+00 3.793366e+00 3.820425e+00 4.883117e+00 5.869347e+00 4.705656e+00 4.518340e+00 4.004048e+00 4.216574e+00 3.820776e+00 3.195637e+00 2.913154e-03
<GCONST> 9.784826e+01
<MIXTURE> 42 1.106211e-02
<MEAN> 25
 -1.674504e+00 4.364283e+00 4.476466e+00 2.805179e+00 1.202688e-01 -6.103235e+00 -9.244613e-01 -1.815255e+00 -1.499448e+00 -1.075316e+00 -2.131060e+00 1.356547e+00 4.101780e+00 -3.405844e-01 1.565438e+00 1.427963e-01 -3.010800e+00 -1.198971e+00 -2.295457e+00 -7.923672e-01 -7.036385e-01 -7.185051e-01 4.303611e-01 -1.035281e+00 1.107416e-02
<VARIANCE> 25
 3.678986e+01 2.155744e+01 4.618537e+01 2.563596e+01 3.847954e+01 3.874174e+01 3.656491e+01 2.646529e+01 2.880007e+01 2.741306e+01 2.026960e+01 1.754058e+01 3.618241e+00 4.740315e+00 5.973056e+00 4.702620e+00 4.547902e+00 5.872297e+00 4.955165e+00 5.129475e+00 4.994637e+00 4.699639e+00 4.363758e+00 3.312432e+00 4.371876e-03
<GCONST> 9.951867e+01
<MIXTURE> 43 7.108249e-03
<MEAN> 25
 3.166878e+00 -6.307752e+00 -2.248791e+00 -5.189025e+00 -7.399520e+00 -3.404721e+00 4.139952e+00 1.311096e+00 -5.063006e+00 -7.093318e+00 -4.324639e+00 -1.247868e+00 2.377522e-01 2.164652e+00 1.913860e+00 -1.336942e-01 -1.429296e+00 -7.945880e-01 -9.705878e-01 -7.792868e-01 8.216193e-01 1.468378e+00 3.428174e-01 2.084237e-02 -4.508427e-02
<VARIANCE> 25
 9.598976e+00 1.968652e+01 2.736020e+01 3.520949e+01 3.840945e+01 3.662963e+01 3.328915e+01 3.979597e+01 3.964727e+01 3.863823e+01 2.653354e+01 2.955558e+01 6.907019e-01 1.249748e+00 1.570138e+00 2.490668e+00 2.380004e+00 2.382471e+00 2.653532e+00 3.026042e+00 2.605853e+00 2.576786e+00 2.331091e+00 1.918948e+00 9.442646e-04
<GCONST> 8.796835e+01
<MIXTURE> 44 7.328289e-03
<MEAN> 25
 -1.317684e+01 2.246367e+00 3.195802e+00 -4.122627e+00 3.285929e+00 2.722021e+00 -5.667742e-01 2.158242e+00 1.822482e-01 -1.468272e+00 1.864866e+00 1.109080e+00 -1.479952e-01 1.866596e-02 1.909395e-01 2.150981e-01 -1.124743e-01 3.074111e-01 3.522398e-01 1.031211e-01 9.275366e-02 2.518533e-01 2.141034e-01 6.928193e-02 5.501057e-03
<VARIANCE> 25
 4.170883e+01 2.210145e+01 2.750831e+01 2.497652e+01 2.285180e+01 2.645650e+01 1.976367e+01 2.585916e+01 2.698780e+01 2.370692e+01 2.251240e+01 1.765192e+01 9.931449e-01 1.231273e+00 1.159006e+00 1.152663e+00 1.736992e+00 1.427369e+00 1.337584e+00 1.592448e+00 1.532542e+00 1.640012e+00 1.607400e+00 1.089229e+00 9.973279e-04
<GCONST> 8.111902e+01
<MIXTURE> 45 1.364932e-02
<MEAN> 25
 -1.240490e+01 3.410872e+00 -1.258927e+00 2.824586e+00 5.721757e+00 1.216296e-01 4.740936e+00 2.850223e+00 3.289591e+00 2.181965e+00 2.370968e+00 2.575630e+00 -2.933253e+00 5.964195e-01 -4.905413e-01 -5.276667e-01 1.971108e-01 -1.192309e-02 4.618569e-01 6.639750e-02 -7.074472e-02 -7.157147e-02 2.478854e-01 9.091204e-02 1.186142e-01
<VARIANCE> 25
 3.381400e+01 3.023376e+01 3.073113e+01 3.499390e+01 3.132484e+01 2.904270e+01 2.968930e+01 2.653872e+01 2.478680e+01 2.330386e+01 2.794891e+01 1.560973e+01 2.430826e+00 3.053914e+00 2.852269e+00 2.695757e+00 2.494787e+00 2.636133e+00 2.306993e+00 2.273409e+00 2.141305e+00 2.115600e+00 1.971901e+00 1.640449e+00 4.118728e-03
<GCONST> 9.055468e+01
<MIXTURE> 46 9.336259e-03
<MEAN> 25
 -9.462763e+00 2.310022e+00 1.198940e+00 7.567982e+00 5.942978e+00 3.337404e+00 7.066955e+00 4.495436e+00 5.707728e+00 4.692935e+00 5.040203e+00 2.927071e+00 1.060563e+00 -2.402724e-01 4.020590e-02 1.001636e+00 6.040426e-01 9.428368e-01 3.871401e-01 6.748021e-01 4.731244e-01 5.079723e-01 6.404409e-01 5.237039e-01 -1.056804e-01
<VARIANCE> 25
 3.424081e+01 4.383618e+01 3.853404e+01 4.995718e+01 5.082996e+01 4.079910e+01 3.708937e+01 3.537476e+01 3.316272e+01 3.095252e+01 2.823649e+01 2.022712e+01 3.912329e+00 4.143797e+00 3.883193e+00 4.140234e+00 4.175466e+00 3.698176e+00 3.381363e+00 3.116344e+00 2.982157e+00 2.865658e+00 2.310034e+00 1.784422e+00 7.952462e-03
<GCONST> 9.830421e+01
<MIXTURE> 47 7.116147e-03
<MEAN> 25
 7.330745e+00 -7.376133e+00 -7.760511e+00 -6.449895e+00 1.505272e+00 8.375457e-01 -2.387999e+00 1.223888e+00 3.017026e+00 1.469159e-01 -4.258173e+00 -6.713554e+00 -1.843131e-01 -1.257314e+00 -6.920169e-01 -4.201184e-01 6.229461e-01 8.163789e-01 8.771455e-01 3.001270e-01 1.174856e-01 -8.864323e-01 -4.670046e-01 -4.573219e-01 3.011953e-02
<VARIANCE> 25
 1.070947e+01 2.105774e+01 2.050624e+01 3.322437e+01 3.621864e+01 5.276804e+01 4.528362e+01 4.080548e+01 4.340960e+01 4.701129e+01 4.862157e+01 3.354268e+01 5.193741e-01 7.715479e-01 1.124912e+00 1.667006e+00 1.978120e+00 2.204380e+00 2.318831e+00 2.480432e+00 2.192811e+00 2.142579e+00 2.186992e+00 2.011675e+00 5.495660e-04
<GCONST> 8.644318e+01
<MIXTURE> 48 7.116147e-03
<MEAN> 25
 7.330745e+00 -7.376133e+00 -7.760511e+00 -6.449895e+00 1.505272e+00 8.375457e-01 -2.387999e+00 1.223888e+00 3.017026e+00 1.469159e-01 -4.258173e+00 -6.713554e+00 -1.843131e-01 -1.257314e+00 -6.920169e-01 -4.201184e-01 6.229461e-01 8.163789e-01 8.771455e-01 3.001270e-01 1.174856e-01 -8.864323e-01 -4.670046e-01 -4.573219e-01 3.011953e-02
<VARIANCE> 25
 1.070947e+01 2.105774e+01 2.050624e+01 3.322437e+01 3.621864e+01 5.276804e+01 4.528362e+01 4.080548e+01 4.340960e+01 4.701129e+01 4.862157e+01 3.354268e+01 5.193741e-01 7.715479e-01 1.124912e+00 1.667006e+00 1.978120e+00 2.204380e+00 2.318831e+00 2.480432e+00 2.192811e+00 2.142579e+00 2.186992e+00 2.011675e+00 5.495660e-04
<GCONST> 8.644318e+01
<MIXTURE> 49 5.548473e-03
<MEAN> 25
 -5.078900e+00 3.527825e-01 1.641608e-01 8.446064e+00 6.145157e+00 5.620530e+00 6.067916e+00 4.479659e+00 5.016715e+00 3.716550e+00 4.930782e+00 2.859456e+00 3.668177e-01 6.552945e-01 7.030168e-01 3.527490e-01 -1.967269e-01 -6.681308e-01 -1.009913e+00 -1.120374e+00 -9.548137e-01 -6.789892e-01 -4.918958e-01 -2.720525e-01 -7.529074e-06
<VARIANCE> 25
 9.637579e+00 1.003295e+01 1.428495e+01 1.590762e+01 1.587951e+01 1.712789e+01 1.946236e+01 1.945375e+01 1.826937e+01 1.795989e+01 2.063046e+01 1.429640e+01 2.808221e-01 2.632703e-01 3.593810e-01 6.117798e-01 8.688089e-01 9.740660e-01 9.922490e-01 1.052861e+00 1.135256e+00 1.220154e+00 1.281424e+00 1.207663e+00 1.447173e-05
<GCONST> 6.434354e+01
<MIXTURE> 50 6.234641e-03
<MEAN> 25
 -4.630940e+00 1.038609e-01 -1.433015e+00 6.147008e+00 4.203442e+00 2.278509e+00 3.621187e+00 1.940132e+00 2.743606e+00 1.382673e+00 2.141034e+00 2.790054e+00 5.717001e-02 1.725007e-01 9.365483e-02 -1.695563e-01 -5.121217e-01 -6.042917e-01 -4.194958e-01 -5.144108e-02 4.334665e-01 7.734352e-01 7.431850e-01 4.401987e-01 -2.932518e-06
<VARIANCE> 25
 1.077416e+01 1.112463e+01 1.426664e+01 1.596700e+01 1.523990e+01 1.849126e+01 1.914512e+01 1.974656e+01 1.857573e+01 1.748255e+01 2.143317e+01 1.527616e+01 1.433893e-01 2.402788e-01 3.765823e-01 5.203209e-01 5.959832e-01 7.356936e-01 9.548301e-01 1.114861e+00 1.051727e+00 9.019263e-01 9.167320e-01 9.808875e-01 1.033515e-06
<GCONST> 5.961061e+01
<MIXTURE> 51 6.234641e-03
<MEAN> 25
 -4.630940e+00 1.038609e-01 -1.433015e+00 6.147008e+00 4.203442e+00 2.278509e+00 3.621187e+00 1.940132e+00 2.743606e+00 1.382673e+00 2.141034e+00 2.790054e+00 5.717001e-02 1.725007e-01 9.365483e-02 -1.695563e-01 -5.121217e-01 -6.042917e-01 -4.194958e-01 -5.144108e-02 4.334665e-01 7.734352e-01 7.431850e-01 4.401987e-01 -2.932518e-06
<VARIANCE> 25
 1.077416e+01 1.112463e+01 1.426664e+01 1.596700e+01 1.523990e+01 1.849126e+01 1.914512e+01 1.974656e+01 1.857573e+01 1.748255e+01 2.143317e+01 1.527616e+01 1.433893e-01 2.402788e-01 3.765823e-01 5.203209e-01 5.959832e-01 7.356936e-01 9.548301e-01 1.114861e+00 1.051727e+00 9.019263e-01 9.167320e-01 9.808875e-01 1.033515e-06
<GCONST> 5.961061e+01
<MIXTURE> 52 6.367945e-03
<MEAN> 25
 1.012409e+01 2.049371e+00 -6.198589e+00 -1.428665e+01 -4.222361e+00 8.537684e+00 -2.752695e+00 -3.061040e+00 -4.408453e+00 -2.132985e+00 3.354725e+00 7.466573e-01 -3.855920e-01 -4.802872e-01 -6.964383e-02 1.140550e+00 1.339759e+00 -4.735020e-01 -6.029696e-01 -6.591303e-01 4.291024e-02 1.246413e+00 3.874820e-01 -5.457838e-01 -1.381981e-02
<VARIANCE> 25
 9.287472e+00 2.048961e+01 2.533449e+01 3.858441e+01 4.573242e+01 3.071616e+01 4.654858e+01 4.894510e+01 4.306497e+01 4.604115e+01 3.995126e+01 3.000907e+01 4.496172e-01 1.480764e+00 1.310601e+00 2.758095e+00 2.328853e+00 2.199865e+00 2.986008e+00 2.799600e+00 3.006294e+00 2.667037e+00 2.520501e+00 2.277603e+00 1.546113e-03
<GCONST> 8.973338e+01
<MIXTURE> 53 6.367945e-03
<MEAN> 25
 1.012409e+01 2.049371e+00 -6.198589e+00 -1.428665e+01 -4.222361e+00 8.537684e+00 -2.752695e+00 -3.061040e+00 -4.408453e+00 -2.132985e+00 3.354725e+00 7.466573e-01 -3.855920e-01 -4.802872e-01 -6.964383e-02 1.140550e+00 1.339759e+00 -4.735020e-01 -6.029696e-01 -6.591303e-01 4.291024e-02 1.246413e+00 3.874820e-01 -5.457838e-01 -1.381981e-02
<VARIANCE> 25
 9.287472e+00 2.048961e+01 2.533449e+01 3.858441e+01 4.573242e+01 3.071616e+01 4.654858e+01 4.894510e+01 4.306497e+01 4.604115e+01 3.995126e+01 3.000907e+01 4.496172e-01 1.480764e+00 1.310601e+00 2.758095e+00 2.328853e+00 2.199865e+00 2.986008e+00 2.799600e+00 3.006294e+00 2.667037e+00 2.520501e+00 2.277603e+00 1.546113e-03
<GCONST> 8.973338e+01
<MIXTURE> 54 7.368620e-03
<MEAN> 25
 -3.631464e+00 4.972012e-02 -6.839145e-01 8.034446e+00 6.482058e+00 4.623026e+00 4.675084e+00 4.599564e+00 4.051619e+00 3.590996e+00 4.453412e+00 2.324691e+00 -2.162496e-03 2.628433e-02 3.419147e-02 4.745562e-02 5.092013e-02 4.716032e-02 3.841644e-02 2.817256e-02 3.075752e-02 2.508054e-02 1.465184e-02 1.397586e-03 -1.296844e-05
<VARIANCE> 25
 9.142127e+00 1.035888e+01 9.292050e+00 1.818541e+01 1.332094e+01 1.353519e+01 1.198876e+01 1.129438e+01 1.134025e+01 1.355856e+01 1.782319e+01 1.253226e+01 4.086508e-02 8.755207e-02 1.540333e-01 2.265566e-01 3.081899e-01 3.967570e-01 4.611240e-01 5.223944e-01 5.418347e-01 5.209496e-01 5.145111e-01 5.165570e-01 1.002747e-06
<GCONST> 4.725852e+01
<MIXTURE> 55 7.368620e-03
<MEAN> 25
 -3.631464e+00 4.972012e-02 -6.839145e-01 8.034446e+00 6.482058e+00 4.623026e+00 4.675084e+00 4.599564e+00 4.051619e+00 3.590996e+00 4.453412e+00 2.324691e+00 -2.162496e-03 2.628433e-02 3.419147e-02 4.745562e-02 5.092013e-02 4.716032e-02 3.841644e-02 2.817256e-02 3.075752e-02 2.508054e-02 1.465184e-02 1.397586e-03 -1.296844e-05
<VARIANCE> 25
 9.142127e+00 1.035888e+01 9.292050e+00 1.818541e+01 1.332094e+01 1.353519e+01 1.198876e+01 1.129438e+01 1.134025e+01 1.355856e+01 1.782319e+01 1.253226e+01 4.086508e-02 8.755207e-02 1.540333e-01 2.265566e-01 3.081899e-01 3.967570e-01 4.611240e-01 5.223944e-01 5.418347e-01 5.209496e-01 5.145111e-01 5.165570e-01 1.002747e-06
<GCONST> 4.725852e+01
<MIXTURE> 56 6.132464e-03
<MEAN> 25
 7.550277e+00 -6.767693e+00 -9.152012e+00 -8.641740e+00 3.950832e+00 3.921319e+00 -2.173549e+00 -1.487958e+00 1.950449e+00 6.545724e-01 -2.481936e+00 -7.141825e+00 -1.152543e-02 2.477632e-02 -8.471191e-02 2.099662e-02 2.587383e-01 6.470899e-02 1.151799e-01 -1.375354e-01 -4.761619e-02 -3.734045e-02 -8.087056e-02 1.959559e-02 -7.032729e-03
<VARIANCE> 25
 9.368765e+00 2.329333e+01 1.999579e+01 4.147714e+01 3.318576e+01 5.100629e+01 6.187462e+01 3.682771e+01 3.892966e+01 3.766476e+01 4.021355e+01 3.111135e+01 2.067059e-01 4.321682e-01 4.532682e-01 7.714674e-01 7.964754e-01 1.112389e+00 9.097811e-01 9.062101e-01 9.081909e-01 9.266824e-01 1.035603e+00 7.846296e-01 2.395716e-04
<GCONST> 7.514392e+01
<MIXTURE> 57 6.132464e-03
<MEAN> 25
 7.550277e+00 -6.767693e+00 -9.152012e+00 -8.641740e+00 3.950832e+00 3.921319e+00 -2.173549e+00 -1.487958e+00 1.950449e+00 6.545724e-01 -2.481936e+00 -7.141825e+00 -1.152543e-02 2.477632e-02 -8.471191e-02 2.099662e-02 2.587383e-01 6.470899e-02 1.151799e-01 -1.375354e-01 -4.761619e-02 -3.734045e-02 -8.087056e-02 1.959559e-02 -7.032729e-03
<VARIANCE> 25
 9.368765e+00 2.329333e+01 1.999579e+01 4.147714e+01 3.318576e+01 5.100629e+01 6.187462e+01 3.682771e+01 3.892966e+01 3.766476e+01 4.021355e+01 3.111135e+01 2.067059e-01 4.321682e-01 4.532682e-01 7.714674e-01 7.964754e-01 1.112389e+00 9.097811e-01 9.062101e-01 9.081909e-01 9.266824e-01 1.035603e+00 7.846296e-01 2.395716e-04
<GCONST> 7.514392e+01
<MIXTURE> 58 6.172147e-03
<MEAN> 25
 3.367887e+00 -3.574073e+00 6.961812e+00 -4.868674e+00 -1.323524e+01 -5.864489e+00 9.348845e-01 9.972509e-01 -1.654606e+00 1.514927e+00 -1.778122e-01 -4.484162e-02 -1.004355e-01 -1.585212e-01 1.121682e-01 -3.808776e-01 -4.696658e-03 7.489813e-02 2.276394e-01 3.503582e-01 4.125556e-02 1.075543e-02 -3.939304e-02 -7.482066e-02 1.792875e-03
<VARIANCE> 25
 8.521852e+00 1.337233e+01 1.770883e+01 2.430819e+01 1.955662e+01 3.844732e+01 2.910634e+01 2.900905e+01 2.877227e+01 2.634160e+01 2.142054e+01 1.908230e+01 2.867583e-01 8.122455e-01 7.572285e-01 1.143097e+00 1.087683e+00 1.228129e+00 1.079776e+00 1.147626e+00 9.031565e-01 9.103712e-01 8.034428e-01 7.534895e-01 6.922428e-04
<GCONST> 7.368181e+01
<MIXTURE> 59 6.172147e-03
<MEAN> 25
 3.367887e+00 -3.574073e+00 6.961812e+00 -4.868674e+00 -1.323524e+01 -5.864489e+00 9.348845e-01 9.972509e-01 -1.654606e+00 1.514927e+00 -1.778122e-01 -4.484162e-02 -1.004355e-01 -1.585212e-01 1.121682e-01 -3.808776e-01 -4.696658e-03 7.489813e-02 2.276394e-01 3.503582e-01 4.125556e-02 1.075543e-02 -3.939304e-02 -7.482066e-02 1.792875e-03
<VARIANCE> 25
 8.521852e+00 1.337233e+01 1.770883e+01 2.430819e+01 1.955662e+01 3.844732e+01 2.910634e+01 2.900905e+01 2.877227e+01 2.634160e+01 2.142054e+01 1.908230e+01 2.867583e-01 8.122455e-01 7.572285e-01 1.143097e+00 1.087683e+00 1.228129e+00 1.079776e+00 1.147626e+00 9.031565e-01 9.103712e-01 8.034428e-01 7.534895e-01 6.922428e-04
<GCONST> 7.368181e+01
<MIXTURE> 60 4.479129e-03
<MEAN> 25
 -3.558412e+00 -5.827323e-01 -1.017702e+00 3.988647e+00 1.930463e+00 1.950854e+00 1.274686e+00 7.604856e-01 1.947539e+00 1.101648e+00 2.059360e+00 1.244823e+00 3.552185e-03 7.514047e-02 1.332173e-01 1.587984e-01 1.337798e-01 1.533881e-01 1.303442e-01 2.497892e-01 4.342247e-01 6.633813e-01 5.497660e-01 2.887901e-01 -5.035217e-04
<VARIANCE> 25
 8.715780e+00 4.419718e+00 9.249454e+00 1.224020e+01 1.221705e+01 1.504226e+01 1.476685e+01 1.360295e+01 1.167495e+01 1.281300e+01 1.459826e+01 1.305584e+01 9.268790e-02 1.514518e-01 2.794558e-01 4.795267e-01 5.866214e-01 6.500050e-01 9.338009e-01 9.437564e-01 8.346150e-01 7.735962e-01 9.111525e-01 8.215093e-01 2.588642e-05
<GCONST> 5.644650e+01
<MIXTURE> 61 4.479129e-03
<MEAN> 25
 -3.558412e+00 -5.827323e-01 -1.017702e+00 3.988647e+00 1.930463e+00 1.950854e+00 1.274686e+00 7.604856e-01 1.947539e+00 1.101648e+00 2.059360e+00 1.244823e+00 3.552185e-03 7.514047e-02 1.332173e-01 1.587984e-01 1.337798e-01 1.533881e-01 1.303442e-01 2.497892e-01 4.342247e-01 6.633813e-01 5.497660e-01 2.887901e-01 -5.035217e-04
<VARIANCE> 25
 8.715780e+00 4.419718e+00 9.249454e+00 1.224020e+01 1.221705e+01 1.504226e+01 1.476685e+01 1.360295e+01 1.167495e+01 1.281300e+01 1.459826e+01 1.305584e+01 9.268790e-02 1.514518e-01 2.794558e-01 4.795267e-01 5.866214e-01 6.500050e-01 9.338009e-01 9.437564e-01 8.346150e-01 7.735962e-01 9.111525e-01 8.215093e-01 2.588642e-05
<GCONST> 5.644650e+01
<MIXTURE> 62 3.278034e-03
<MEAN> 25
 -5.090804e+00 1.241020e+00 1.025993e+00 8.818538e+00 6.130914e+00 5.050571e+00 5.499643e+00 4.033659e+00 4.985865e+00 3.917829e+00 4.966510e+00 2.951269e+00 -1.003274e+00 -1.166684e+00 -9.532127e-01 -2.767579e-01 4.276389e-01 1.005196e+00 1.384665e+00 1.552186e+00 1.478654e+00 1.243461e+00 1.067173e+00 7.260836e-01 -1.265040e-03
<VARIANCE> 25
 9.873789e+00 9.959555e+00 1.311723e+01 1.673365e+01 1.741413e+01 1.752499e+01 1.970104e+01 1.911308e+01 1.886091e+01 1.872655e+01 2.156075e+01 1.479603e+01 4.017764e-01 4.320395e-01 5.541658e-01 7.793389e-01 1.035046e+00 1.192183e+00 1.252327e+00 1.279125e+00 1.329887e+00 1.363825e+00 1.400015e+00 1.371300e+00 1.632445e-05
<GCONST> 6.752641e+01
<MIXTURE> 63 4.351215e-03
<MEAN> 25
 -3.779577e+00 -1.922711e+00 -4.158488e+00 2.598176e+00 3.243456e+00 -2.290069e-01 2.341701e+00 1.008617e+00 1.654362e+00 -7.442141e-01 -6.358457e-01 1.795761e+00 -1.367601e-01 3.249589e-01 3.831577e-01 3.469796e-01 3.912066e-01 4.374776e-01 4.034422e-01 1.939546e-01 7.187247e-02 1.898651e-01 2.242442e-01 1.769974e-01 -2.595868e-03
<VARIANCE> 25
 9.261316e+00 1.401457e+01 1.541866e+01 1.949857e+01 1.639907e+01 2.307543e+01 2.218414e+01 2.337679e+01 2.358789e+01 1.888299e+01 1.836501e+01 1.760314e+01 2.829196e-01 4.964241e-01 6.882899e-01 7.340676e-01 8.407931e-01 1.067179e+00 1.310195e+00 1.529766e+00 1.347668e+00 1.276725e+00 1.358757e+00 1.221926e+00 1.847277e-04
<GCONST> 7.097778e+01
<MIXTURE> 64 4.351215e-03
<MEAN> 25
 -3.779577e+00 -1.922711e+00 -4.158488e+00 2.598176e+00 3.243456e+00 -2.290069e-01 2.341701e+00 1.008617e+00 1.654362e+00 -7.442141e-01 -6.358457e-01 1.795761e+00 -1.367601e-01 3.249589e-01 3.831577e-01 3.469796e-01 3.912066e-01 4.374776e-01 4.034422e-01 1.939546e-01 7.187247e-02 1.898651e-01 2.242442e-01 1.769974e-01 -2.595868e-03
<VARIANCE> 25
 9.261316e+00 1.401457e+01 1.541866e+01 1.949857e+01 1.639907e+01 2.307543e+01 2.218414e+01 2.337679e+01 2.358789e+01 1.888299e+01 1.836501e+01 1.760314e+01 2.829196e-01 4.964241e-01 6.882899e-01 7.340676e-01 8.407931e-01 1.067179e+00 1.310195e+00 1.529766e+00 1.347668e+00 1.276725e+00 1.358757e+00 1.221926e+00 1.847277e-04
<GCONST> 7.097778e+01
<MIXTURE> 65 1.721197e-02
<MEAN> 25
 7.995268e+00 2.048203e+00 1.943974e+00 6.610007e-01 -5.441189e+00 -4.359649e+00 -5.807509e+00 -6.747560e+00 -3.806333e+00 -2.314155e+00 -5.534718e+00 -1.861886e+00 1.744043e-01 1.111460e-01 1.778532e-02 1.301171e-01 -1.740583e-01 2.510829e-01 -1.115243e-01 -1.674402e-01 1.846538e-01 1.280009e-02 -3.372813e-02 -1.447969e-01 -4.376699e-03
<VARIANCE> 25
 1.013703e+01 1.934057e+01 2.589898e+01 3.628728e+01 3.819675e+01 5.790096e+01 5.848793e+01 5.924669e+01 5.549076e+01 5.791737e+01 5.587531e+01 5.123479e+01 5.570889e-01 9.582372e-01 1.623051e+00 1.809858e+00 2.034431e+00 2.220133e+00 2.302309e+00 2.967872e+00 2.437583e+00 2.478967e+00 2.409746e+00 2.127712e+00 4.297492e-04
<GCONST> 8.951830e+01
<MIXTURE> 66 1.191532e-02
<MEAN> 25
 6.681906e+00 -4.094321e+00 -5.623547e+00 -4.831117e+00 1.277358e+00 -5.092873e+00 -6.924486e+00 1.193188e+00 6.846743e-01 -2.051306e+00 -6.140918e+00 -3.475374e+00 -4.559475e-02 1.667456e+00 2.240467e+00 2.317946e+00 -1.251137e+00 -1.253527e+00 5.536500e-02 -5.470121e-01 -1.447190e-01 -1.944871e-01 -2.017145e-01 1.044865e+00 -6.380343e-02
<VARIANCE> 25
 8.927414e+00 2.234604e+01 2.706229e+01 3.306558e+01 3.851984e+01 5.342551e+01 5.600254e+01 4.541549e+01 5.411099e+01 6.678442e+01 3.698484e+01 3.644698e+01 1.283736e+00 2.445685e+00 2.352240e+00 2.470527e+00 4.197980e+00 4.308790e+00 4.369275e+00 4.845561e+00 4.249541e+00 4.994481e+00 3.900426e+00 3.262283e+00 1.469080e-03
<GCONST> 9.683627e+01
<MIXTURE> 67 1.559142e-02
<MEAN> 25
 8.984959e+00 2.035048e+00 -5.977120e+00 -8.274307e+00 9.031308e-01 3.082485e+00 -3.325863e+00 -2.241666e+00 -3.772685e+00 7.790737e-01 -5.421574e-02 -1.732288e+00 -1.074249e+00 1.831838e+00 1.062344e+00 3.073100e+00 1.392826e+00 -5.094706e-01 1.302770e+00 1.200334e-01 1.568932e-01 2.512550e-01 -2.763578e-01 6.250765e-01 -1.299787e-01
<VARIANCE> 25
 1.146699e+01 3.885684e+01 3.080961e+01 5.584790e+01 4.914877e+01 5.406873e+01 6.209915e+01 5.280418e+01 6.478777e+01 5.711662e+01 5.577999e+01 4.737922e+01 2.179738e+00 3.465540e+00 3.291803e+00 4.517270e+00 4.523077e+00 4.554489e+00 4.706162e+00 5.071029e+00 5.476260e+00 4.778912e+00 5.135187e+00 3.746378e+00 3.044006e-03
<GCONST> 1.029191e+02
<MIXTURE> 68 1.485092e-02
<MEAN> 25
 -1.495857e+00 -2.206195e+00 -3.922942e+00 1.337524e+00 4.842348e+00 -6.390048e-01 2.246775e+00 1.717049e+00 1.457236e+00 1.770828e+00 7.675257e-01 2.095720e+00 2.701140e+00 5.322970e-01 2.365440e-01 -2.494092e+00 -2.570128e+00 -1.641154e+00 -2.459767e+00 -1.658473e+00 -1.402265e+00 -1.361497e+00 -2.000460e+00 -1.020428e+00 9.856779e-02
<VARIANCE> 25
 2.669578e+01 2.948640e+01 5.426619e+01 4.866718e+01 4.519136e+01 5.053113e+01 4.254653e+01 3.891400e+01 4.291637e+01 4.019333e+01 3.541974e+01 2.419048e+01 1.755058e+00 3.461424e+00 5.938375e+00 5.461426e+00 4.543522e+00 5.191040e+00 5.406627e+00 4.742077e+00 5.198004e+00 4.967519e+00 4.630136e+00 3.159594e+00 5.853340e-03
<GCONST> 1.023274e+02
<MIXTURE> 69 1.204884e-02
<MEAN> 25
 4.717576e+00 -4.181466e+00 -3.473563e+00 -3.588995e+00 -3.552857e+00 -7.759368e+00 -1.134869e+00 2.139183e+00 -3.075571e-01 -4.608413e+00 -5.594327e+00 9.979672e-01 1.674031e+00 -2.211171e+00 -1.272583e+00 -2.222584e+00 -5.958746e-01 -3.889339e-01 -5.093609e-01 6.040719e-01 -5.968080e-01 -1.446815e+00 -2.211533e+00 -1.735667e-01 6.240001e-02
<VARIANCE> 25
 8.816442e+00 2.153559e+01 2.681659e+01 2.556115e+01 4.215977e+01 3.575842e+01 4.814267e+01 3.134410e+01 3.919794e+01 3.824886e+01 3.102695e+01 2.424633e+01 3.486355e+00 2.904718e+00 3.505162e+00 3.660043e+00 5.893502e+00 5.004715e+00 7.070787e+00 5.976654e+00 5.914819e+00 5.773093e+00 4.275720e+00 3.637441e+00 2.403186e-03
<GCONST> 9.853554e+01
<MIXTURE> 70 1.329190e-02
<MEAN> 25
 7.490871e+00 -2.024247e+00 -3.787259e+00 -3.540421e+00 -5.051725e-01 -6.780807e-01 -7.531266e+00 -3.948926e+00 6.323630e-01 2.930350e+00 -1.126872e-01 -4.708991e+00 1.928958e+00 -1.123271e+00 -7.349411e-01 -2.181283e+00 -1.593348e+00 1.076532e+00 -1.382084e+00 -8.426848e-02 3.770182e-01 -3.710758e-02 6.049784e-01 -1.422023e+00 5.863633e-02
<VARIANCE> 25
 9.723316e+00 2.200220e+01 2.806894e+01 4.597404e+01 3.502014e+01 4.337394e+01 4.960164e+01 4.322541e+01 4.611277e+01 3.208898e+01 4.389354e+01 2.811141e+01 3.417802e+00 3.141725e+00 4.898564e+00 4.858642e+00 5.296324e+00 6.672153e+00 6.705045e+00 7.363921e+00 6.076096e+00 5.255984e+00 5.974226e+00 4.236431e+00 2.472900e-03
<GCONST> 1.015895e+02
<MIXTURE> 71 1.406903e-02
<MEAN> 25
 6.368941e+00 5.153072e+00 4.282461e+00 3.059088e+00 -3.423488e+00 -3.414446e+00 -3.456336e+00 -6.621229e+00 -4.621923e+00 -2.466907e+00 -5.205551e+00 -3.210357e+00 -1.581359e+00 -6.925161e-01 -2.717940e-01 -1.743612e+00 1.138807e+00 -1.268516e-01 6.247644e-02 1.511396e+00 2.967062e-01 -1.792873e-01 6.891950e-01 1.717666e-01 4.077615e-02
<VARIANCE> 25
 1.887112e+01 2.574702e+01 2.400913e+01 4.518236e+01 4.081226e+01 4.037054e+01 4.241788e+01 4.140685e+01 3.916055e+01 4.413097e+01 3.646769e+01 3.446761e+01 1.749637e+00 3.030438e+00 5.329020e+00 5.036010e+00 4.703350e+00 4.779159e+00 4.863289e+00 5.453615e+00 4.301334e+00 4.069091e+00 3.613706e+00 3.297914e+00 1.416496e-03
<GCONST> 9.872063e+01
<MIXTURE> 72 8.134747e-03
<MEAN> 25
 3.790411e+00 -3.678569e+00 5.447708e+00 -2.462291e+00 -1.039651e+01 -9.615793e+00 -2.441843e+00 1.924346e+00 -4.941301e+00 -2.201404e+00 -1.890585e+00 6.227473e-01 9.320188e-01 -7.854297e-01 -2.576090e+00 4.621669e-01 2.135803e+00 -6.540096e-01 -1.314237e+00 1.524260e+00 1.813063e+00 -5.953282e-01 -1.286045e+00 4.043271e-01 -6.170393e-03
<VARIANCE> 25
 1.077995e+01 1.948804e+01 3.291507e+01 3.842178e+01 3.234784e+01 3.341540e+01 4.108461e+01 3.616268e+01 4.365226e+01 4.131572e+01 3.875750e+01 2.849569e+01 4.321586e-01 1.025794e+00 2.022088e+00 1.468553e+00 2.184257e+00 2.353720e+00 3.066299e+00 2.730156e+00 2.602492e+00 2.958867e+00 2.030310e+00 2.127835e+00 5.417725e-04
<GCONST> 8.725169e+01
<MIXTURE> 73 1.213625e-02
<MEAN> 25
 -5.608945e+00 -7.907104e-01 -1.306289e+00 4.904727e+00 4.227541e+00 2.334780e+00 5.509162e+00 3.446734e+00 4.344994e+00 3.433381e+00 4.267085e+00 3.031105e+00 8.063134e-01 -1.026284e+00 -9.348691e-01 -2.645175e+00 -1.270301e+00 -1.753587e+00 -9.096778e-01 -5.063377e-01 -9.129411e-01 -6.997451e-01 -1.108675e+00 -2.841728e-01 1.545461e-01
<VARIANCE> 25
 1.310967e+01 1.336841e+01 1.515735e+01 2.263013e+01 2.333957e+01 2.471568e+01 2.038997e+01 1.997483e+01 1.803037e+01 1.901094e+01 2.274043e+01 1.554663e+01 4.038076e+00 3.088489e+00 5.986358e+00 4.664793e+00 6.161085e+00 4.548381e+00 4.312304e+00 4.240390e+00 3.903925e+00 4.219473e+00 3.534098e+00 2.666962e+00 4.324329e-03
<GCONST> 9.271684e+01
<MIXTURE> 74 1.756491e-02
<MEAN> 25
 4.630621e+00 -1.748677e+00 5.712386e+00 -2.058486e+00 -8.167260e+00 -8.113411e+00 -3.430223e+00 1.119342e+00 -3.017570e+00 -2.128356e+00 -1.256323e+00 8.838540e-01 6.930219e-02 1.926337e+00 -1.246054e-01 1.653849e+00 1.598485e+00 5.968544e-01 -5.722605e-02 -1.347955e+00 1.629492e-01 2.879009e-01 5.072504e-02 -2.212234e-01 -6.994275e-02
<VARIANCE> 25
 1.026122e+01 1.932536e+01 3.390368e+01 3.845264e+01 3.625621e+01 3.555747e+01 4.819968e+01 4.147677e+01 4.877030e+01 4.411610e+01 3.830501e+01 3.215916e+01 2.197504e+00 1.861371e+00 3.879866e+00 2.429665e+00 4.206102e+00 3.803952e+00 4.674555e+00 3.743504e+00 3.650013e+00 3.612026e+00 3.683746e+00 2.876983e+00 1.975847e-03
<GCONST> 9.596199e+01
<MIXTURE> 75 9.711651e-03
<MEAN> 25
 2.939546e+00 -1.254901e+00 1.063287e+01 1.542300e+00 -1.164622e+01 -7.352337e+00 -4.526761e+00 -6.029161e-01 -4.242251e+00 -4.366722e+00 2.998052e+00 3.201297e-01 1.722639e+00 -1.741220e+00 2.909185e-01 -2.868586e-01 -2.472298e+00 -6.051832e-01 -1.482465e+00 9.087594e-01 -5.376456e-02 -3.895634e-01 8.926442e-01 -6.125701e-01 3.932629e-02
<VARIANCE> 25
 1.185413e+01 1.694003e+01 3.168891e+01 2.698518e+01 2.632574e+01 3.288217e+01 2.993920e+01 2.983986e+01 3.325743e+01 3.122415e+01 2.067874e+01 2.105692e+01 2.278287e+00 1.817960e+00 4.209127e+00 2.377748e+00 3.768120e+00 4.248363e+00 3.961659e+00 3.397155e+00 3.923055e+00 3.230961e+00 3.576333e+00 2.387202e+00 1.470900e-03
<GCONST> 9.184032e+01
<MIXTURE> 76 1.052359e-02
<MEAN> 25
 -5.784019e+00 -9.249387e-01 -2.969704e+00 2.803831e+00 4.194459e+00 1.873463e+00 3.580026e+00 2.295216e+00 2.450873e+00 4.866655e-01 1.490570e+00 1.594968e+00 -7.810872e-02 -4.414348e-01 -2.012274e-01 -8.512598e-01 -5.539454e-01 -7.772954e-01 -5.249745e-01 -1.675666e-01 -3.927219e-01 -3.811238e-01 -2.752776e-01 -3.161319e-01 1.911870e-02
<VARIANCE> 25
 3.326182e+01 2.531635e+01 2.503477e+01 2.896309e+01 2.525784e+01 2.848079e+01 2.808754e+01 2.569815e+01 2.335542e+01 2.156151e+01 2.382358e+01 2.166650e+01 1.023994e+00 1.020837e+00 1.327336e+00 1.077060e+00 1.213678e+00 1.507035e+00 1.581667e+00 1.887226e+00 1.546321e+00 1.361630e+00 1.399860e+00 1.374519e+00 1.022342e-03
<GCONST> 8.150987e+01
<MIXTURE> 77 1.244626e-02
<MEAN> 25
 -6.212120e-01 8.501129e+00 1.226781e+01 -1.149942e+01 -6.752079e+00 1.053789e+00 -9.054075e+00 -7.140383e+00 -3.411708e+00 -2.832488e-01 -4.549537e+00 -1.519090e+00 4.435943e-02 1.427012e-01 8.850131e-02 2.330746e-01 -1.320332e-02 8.992055e-02 -7.864387e-02 -6.228239e-02 3.443779e-02 -7.813727e-02 5.866182e-02 1.114760e-01 -9.021961e-03
<VARIANCE> 25
 1.096414e+01 1.976227e+01 2.806215e+01 4.092334e+01 3.448446e+01 3.319734e+01 3.743855e+01 3.125248e+01 3.430984e+01 3.256623e+01 3.698177e+01 3.403487e+01 3.125572e-01 7.576308e-01 6.352439e-01 1.068031e+00 1.208317e+00 9.630026e-01 1.197855e+00 1.046028e+00 1.104867e+00 1.093201e+00 9.890311e-01 9.003565e-01 5.532574e-04
<GCONST> 7.775752e+01
<MIXTURE> 78 9.702551e-03
<MEAN> 25
 -1.157802e+01 1.134407e+00 -1.638993e+00 2.235008e+00 4.448411e+00 -2.235406e+00 3.758478e+00 2.655865e+00 2.614456e+00 7.493449e-01 -4.686723e-01 3.052697e+00 2.392564e+00 -2.648701e-01 1.822844e-01 5.729280e-01 -2.828299e-02 1.303113e-02 -3.059114e-01 -7.302857e-02 2.269692e-01 1.455918e-01 -3.841214e-01 -4.658115e-01 -6.170021e-02
<VARIANCE> 25
 4.115995e+01 3.280608e+01 3.264161e+01 3.258805e+01 3.960120e+01 3.728687e+01 3.589180e+01 3.286921e+01 2.823632e+01 2.760414e+01 2.709585e+01 2.018101e+01 4.941516e+00 2.590714e+00 2.859994e+00 3.087689e+00 2.854126e+00 3.511175e+00 3.263056e+00 2.873837e+00 2.353811e+00 2.360299e+00 2.257583e+00 2.131747e+00 4.711196e-03
<GCONST> 9.465691e+01
<MIXTURE> 79 1.156824e-02
<MEAN> 25
 2.421504e+00 1.578733e+00 9.192188e+00 -6.607648e+00 -1.207750e+01 -1.818839e+00 -1.911647e+00 -6.474816e+00 -6.580120e+00 3.233223e-01 -3.520013e+00 -3.294447e+00 1.222052e+00 -5.260268e-01 -1.433987e+00 2.354257e+00 3.805847e-01 -1.473490e+00 5.357128e-01 8.879921e-01 -4.357022e-01 -5.426647e-01 3.589669e-01 2.808130e-01 -3.634004e-02
<VARIANCE> 25
 1.423685e+01 2.414177e+01 3.794325e+01 4.981519e+01 3.340081e+01 4.352515e+01 4.289444e+01 3.681198e+01 3.895872e+01 3.982126e+01 4.392590e+01 3.071247e+01 9.431883e-01 2.262465e+00 1.894872e+00 2.087978e+00 2.473587e+00 2.816924e+00 3.198260e+00 3.534590e+00 2.516669e+00 2.735779e+00 2.317608e+00 2.031933e+00 1.232311e-03
<GCONST> 9.181152e+01
<MIXTURE> 80 7.550998e-03
<MEAN> 25
 -1.460806e+01 3.982821e+00 6.887418e-01 2.866009e+00 2.449382e+00 1.410243e+00 6.396991e+00 2.496727e+00 2.719255e+00 2.373465e+00 4.852895e+00 1.187099e+00 4.286258e+00 -1.599466e-02 1.637969e+00 -1.135569e+00 -2.889515e+00 -2.777550e+00 -2.323292e+00 -2.021410e+00 -1.974933e+00 -1.685136e+00 -1.650854e+00 -6.027530e-01 -4.422944e-02
<VARIANCE> 25
 2.095967e+01 1.984673e+01 3.444371e+01 3.470654e+01 3.017993e+01 2.920798e+01 2.828590e+01 2.855419e+01 2.674987e+01 2.881037e+01 2.685334e+01 1.810693e+01 2.357352e+00 2.666126e+00 2.673074e+00 4.119777e+00 3.394070e+00 2.705023e+00 3.025223e+00 3.204070e+00 2.749328e+00 2.701710e+00 2.782068e+00 2.145676e+00 1.512359e-03
<GCONST> 9.139710e+01
<MIXTURE> 81 8.025434e-03
<MEAN> 25
 -1.123797e+00 4.068349e+00 1.017457e+01 -1.479549e+01 -9.067758e+00 -1.416423e+00 -6.760538e+00 -8.420115e+00 -4.151942e+00 -4.197434e-01 -7.567442e+00 -2.247100e+00 1.327148e-01 -5.860614e-01 -1.810122e-03 -5.563730e-01 -4.630045e-01 3.354038e-01 3.185823e-01 1.367338e-01 -1.422843e-01 1.048484e-01 -4.673004e-01 -1.251484e-01 1.152677e-02
<VARIANCE> 25
 1.017218e+01 3.277414e+01 2.644265e+01 2.929366e+01 3.381119e+01 3.052429e+01 4.543027e+01 2.825595e+01 3.794809e+01 3.186087e+01 2.531569e+01 3.101706e+01 7.724611e-01 2.275783e+00 1.544653e+00 2.869139e+00 2.661582e+00 2.123637e+00 3.278152e+00 2.285112e+00 2.355936e+00 2.538882e+00 2.299877e+00 2.076088e+00 1.182122e-03
<GCONST> 8.867920e+01
<MIXTURE> 82 8.213053e-03
<MEAN> 25
 -9.964912e+00 -3.902608e+00 1.639745e+00 -2.971800e+00 3.113717e+00 6.713560e-01 1.994471e+00 9.379593e-01 2.975910e+00 1.729189e+00 1.742630e+00 3.085018e+00 -1.314049e+00 -1.248291e-01 2.898750e-01 -2.604248e+00 -1.105663e+00 -1.265326e+00 -1.013627e+00 -8.701549e-01 -3.165922e-01 -4.783110e-01 -3.168221e-01 -9.518982e-02 1.784279e-01
<VARIANCE> 25
 1.802389e+01 2.494008e+01 3.236770e+01 3.088643e+01 3.302280e+01 3.228884e+01 3.178004e+01 3.297997e+01 3.086163e+01 2.512471e+01 3.078706e+01 1.750367e+01 3.755176e+00 3.048928e+00 3.316927e+00 3.268413e+00 3.562528e+00 3.286693e+00 2.943684e+00 3.016243e+00 2.795099e+00 2.490708e+00 2.449486e+00 1.865832e+00 3.432627e-03
<GCONST> 9.308300e+01
<MIXTURE> 83 1.167529e-02
<MEAN> 25
 -2.004058e+01 5.504217e+00 -1.789625e+00 -4.052335e-01 7.829570e+00 -1.234365e+00 5.459959e+00 3.044538e+00 1.192254e+00 2.190746e+00 7.245015e-01 2.881630e+00 -2.631440e-02 -4.501695e-01 4.865921e-03 -3.655852e-01 -4.974653e-01 -1.258356e-01 -1.343534e-01 -9.940890e-02 -4.145336e-02 -3.918608e-02 -3.054494e-02 -3.464684e-02 4.403350e-03
<VARIANCE> 25
 8.821777e+00 1.645373e+01 2.851252e+01 2.248591e+01 2.127493e+01 2.408006e+01 2.202809e+01 2.336377e+01 2.043019e+01 2.221984e+01 2.319555e+01 1.448793e+01 1.060893e+00 9.361887e-01 1.240769e+00 1.065685e+00 1.359382e+00 1.291389e+00 1.283445e+00 1.388153e+00 1.348997e+00 1.310735e+00 1.220831e+00 1.071633e+00 8.923699e-04
<GCONST> 7.703545e+01
<MIXTURE> 84 1.066614e-02
<MEAN> 25
 1.180608e+00 8.942916e+00 7.235959e+00 7.869049e+00 2.844381e+00 -9.196003e-01 -1.575736e+00 -4.459581e+00 -4.057812e+00 -2.848029e+00 -2.397612e+00 -1.571900e+00 -1.793944e+00 -1.173069e+00 -1.226115e+00 1.309553e+00 2.257675e+00 1.518286e+00 1.456590e+00 1.257360e+00 1.143805e+00 3.987799e-01 4.222473e-01 4.070297e-01 -7.092205e-02
<VARIANCE> 25
 2.328633e+01 1.878374e+01 2.143781e+01 2.543758e+01 2.893042e+01 2.805100e+01 2.796956e+01 2.635667e+01 2.547854e+01 2.544790e+01 2.341422e+01 2.444905e+01 2.088786e+00 2.534986e+00 3.854949e+00 3.318777e+00 3.246944e+00 3.370434e+00 3.262164e+00 3.493863e+00 3.521171e+00 3.222904e+00 3.559566e+00 2.817936e+00 3.563283e-03
<GCONST> 9.259485e+01
<MIXTURE> 85 7.591393e-03
<MEAN> 25
 -3.090130e+00 7.871108e+00 5.711721e+00 1.283676e+00 -3.492937e+00 -5.315046e+00 -2.972954e+00 -6.109251e+00 -3.536363e+00 -3.171147e+00 -4.748681e-01 -1.886512e+00 3.938314e+00 3.232937e-01 1.757659e+00 -2.089633e+00 -3.416511e+00 -2.582855e+00 -2.886420e+00 -2.336401e+00 -2.240165e+00 -1.262160e+00 -2.303189e+00 -6.152865e-01 9.306720e-03
<VARIANCE> 25
 4.256491e+01 2.357059e+01 3.648153e+01 3.815000e+01 3.969173e+01 4.114353e+01 3.215002e+01 2.790277e+01 2.666241e+01 2.614874e+01 2.619324e+01 2.059643e+01 2.709794e+00 4.318671e+00 4.050772e+00 5.172553e+00 4.399842e+00 3.872593e+00 3.846241e+00 3.989587e+00 3.875775e+00 4.033381e+00 3.932607e+00 3.477436e+00 5.437847e-03
<GCONST> 9.835027e+01
<MIXTURE> 86 1.273941e-02
<MEAN> 25
 -4.837772e+00 -1.145054e+00 -8.524600e-01 6.227288e+00 4.980293e+00 4.562787e+00 5.258970e+00 4.500438e+00 4.590961e+00 3.823100e+00 5.219633e+00 2.553564e+00 -1.121553e-02 -1.152076e-02 -4.015284e-02 -8.612563e-02 -1.264806e-01 -1.662488e-01 -2.521881e-01 -3.403543e-01 -3.626040e-01 -3.071911e-01 -2.170047e-01 -1.027436e-01 -5.179698e-04
<VARIANCE> 25
 8.411140e+00 5.704503e+00 9.864968e+00 1.301497e+01 1.566559e+01 1.437474e+01 1.367612e+01 1.339853e+01 1.313249e+01 1.438427e+01 1.461921e+01 1.346027e+01 1.047631e-01 1.916172e-01 3.194105e-01 5.054356e-01 6.500898e-01 7.421807e-01 7.491015e-01 7.513344e-01 8.175915e-01 8.778340e-01 9.106380e-01 8.888155e-01 5.405162e-05
<GCONST> 5.841962e+01
<MIXTURE> 87 1.100681e-02
<MEAN> 25
 -3.302598e+00 4.543959e+00 3.505093e+00 7.022020e+00 5.570331e+00 8.928734e-01 1.642985e+00 -9.464656e-01 -5.885118e-01 -8.888099e-01 -7.869111e-01 3.091771e-02 -2.151692e+00 -2.786326e+00 -2.102753e+00 -2.225484e+00 -3.713175e-02 -1.825319e-01 6.134128e-01 1.299783e+00 1.403603e+00 1.030687e+00 9.446908e-01 1.003455e+00 1.046830e-01
<VARIANCE> 25
 3.811359e+01 2.953867e+01 2.806199e+01 3.373638e+01 2.872161e+01 3.191209e+01 2.814986e+01 2.730791e+01 2.594236e+01 2.469831e+01 2.481785e+01 2.316332e+01 3.861421e+00 2.717968e+00 3.917662e+00 3.655220e+00 4.793932e+00 4.311767e+00 4.155798e+00 3.898845e+00 3.535430e+00 3.385916e+00 3.384561e+00 2.733788e+00 4.959635e-03
<GCONST> 9.633569e+01
<MIXTURE> 88 1.256585e-02
<MEAN> 25
 -3.844575e+00 -6.031837e-01 -1.763955e+00 4.483959e+00 4.192023e+00 3.456545e+00 4.086266e+00 2.501212e+00 2.704623e+00 1.843769e+00 2.947659e+00 2.336774e+00 -1.242248e-01 3.246488e-01 8.172346e-03 4.059122e-01 3.237469e-01 2.811261e-01 5.480238e-02 -1.405527e-01 -2.420013e-01 -2.910208e-01 -1.540709e-01 -7.097436e-02 -4.194879e-03
<VARIANCE> 25
 8.913066e+00 1.048845e+01 1.389970e+01 1.736830e+01 1.817822e+01 1.785868e+01 2.000606e+01 1.880705e+01 1.735921e+01 1.601871e+01 1.905106e+01 1.418047e+01 1.430192e+00 1.543362e+00 2.344900e+00 2.360686e+00 2.292429e+00 2.493894e+00 2.552505e+00 2.672087e+00 2.263082e+00 2.303178e+00 2.063910e+00 1.795433e+00 1.249364e-03
<GCONST> 8.135318e+01
<MIXTURE> 89 9.333527e-03
<MEAN> 25
 6.082437e+00 -6.823295e+00 -3.540941e+00 -3.153359e+00 -1.651181e+00 -5.590480e+00 -6.098487e+00 4.082262e+00 3.464437e+00 -2.797635e+00 -6.022269e+00 -3.263223e+00 -5.692826e-01 1.512546e-01 1.987630e+00 8.970702e-01 -1.867646e+00 -1.649670e+00 8.792713e-01 1.262949e+00 -7.869925e-01 -1.314496e+00 4.019813e-01 1.530704e+00 -4.735482e-03
<VARIANCE> 25
 8.975770e+00 2.663964e+01 3.108825e+01 3.017305e+01 3.639936e+01 4.150558e+01 5.954779e+01 4.210200e+01 3.898531e+01 4.228405e+01 3.570657e+01 3.245743e+01 3.539303e-01 8.455539e-01 1.469301e+00 1.317299e+00 1.914381e+00 2.118755e+00 2.573181e+00 2.034461e+00 2.241661e+00 2.120858e+00 2.325363e+00 1.474277e+00 3.709711e-04
<GCONST> 8.527899e+01
<MIXTURE> 90 7.114505e-03
<MEAN> 25
 2.447951e+00 -9.720438e+00 -4.755339e+00 -3.974718e+00 -3.383778e+00 -1.814123e+00 3.365547e+00 1.177896e+00 -7.531333e+00 -1.021428e+01 -3.429004e+00 -7.405540e-01 -1.639023e-01 9.084228e-01 1.168708e+00 -8.538406e-01 -1.612146e+00 -2.121142e-01 6.448522e-01 -2.098587e-01 -1.690836e-01 7.365448e-01 1.834038e-01 -5.495397e-01 -1.113737e-02
<VARIANCE> 25
 8.490194e+00 1.780882e+01 1.980618e+01 2.804390e+01 3.682603e+01 3.216521e+01 3.850963e+01 3.642290e+01 3.520649e+01 2.770167e+01 2.699453e+01 2.613150e+01 2.238609e-01 6.135649e-01 7.864196e-01 1.042504e+00 1.471467e+00 1.591153e+00 1.779962e+00 1.654029e+00 1.809773e+00 1.678554e+00 1.495302e+00 1.308942e+00 2.152223e-04
<GCONST> 7.813551e+01
<MIXTURE> 91 7.852945e-03
<MEAN> 25
 6.390593e+00 -7.645485e+00 -8.581247e+00 -5.162921e+00 3.968838e+00 -1.192844e-01 -2.188262e+00 7.300987e-01 7.821202e-01 -2.944939e+00 -4.936370e+00 -5.180871e+00 2.596868e-01 1.002913e+00 1.911518e-01 4.491471e-01 -7.021510e-02 -5.595416e-01 -3.890200e-01 -1.012746e-01 -1.028237e-01 4.571379e-01 -1.169417e-01 2.114861e-01 -3.500580e-02
<VARIANCE> 25
 1.011939e+01 2.266904e+01 1.990998e+01 4.061295e+01 3.519187e+01 5.548273e+01 5.446130e+01 3.966269e+01 5.194459e+01 6.424477e+01 3.826734e+01 4.151518e+01 4.458219e-01 8.877071e-01 1.129237e+00 1.386455e+00 2.195308e+00 2.378517e+00 2.373301e+00 2.389860e+00 2.245031e+00 2.216444e+00 2.013641e+00 1.821327e+00 5.855898e-04
<GCONST> 8.718690e+01
<MIXTURE> 92 7.852945e-03
<MEAN> 25
 6.390593e+00 -7.645485e+00 -8.581247e+00 -5.162921e+00 3.968838e+00 -1.192844e-01 -2.188262e+00 7.300987e-01 7.821202e-01 -2.944939e+00 -4.936370e+00 -5.180871e+00 2.596868e-01 1.002913e+00 1.911518e-01 4.491471e-01 -7.021510e-02 -5.595416e-01 -3.890200e-01 -1.012746e-01 -1.028237e-01 4.571379e-01 -1.169417e-01 2.114861e-01 -3.500580e-02
<VARIANCE> 25
 1.011939e+01 2.266904e+01 1.990998e+01 4.061295e+01 3.519187e+01 5.548273e+01 5.446130e+01 3.966269e+01 5.194459e+01 6.424477e+01 3.826734e+01 4.151518e+01 4.458219e-01 8.877071e-01 1.129237e+00 1.386455e+00 2.195308e+00 2.378517e+00 2.373301e+00 2.389860e+00 2.245031e+00 2.216444e+00 2.013641e+00 1.821327e+00 5.855898e-04
<GCONST> 8.718690e+01
<MIXTURE> 93 6.122769e-03
<MEAN> 25
 -6.768214e+00 -9.418917e-01 -2.402997e+00 5.783679e+00 5.890612e+00 3.897683e+00 6.141209e+00 3.621753e+00 4.095225e+00 2.467973e+00 1.773352e+00 3.677730e+00 -6.208836e-02 -1.589809e-01 -2.554206e-01 -3.309008e-01 -3.385511e-01 -2.815731e-01 -2.246859e-01 -1.856250e-01 -1.650725e-01 -1.496024e-01 -1.052974e-01 -4.331897e-02 -2.484253e-05
<VARIANCE> 25
 9.421655e+00 6.023962e+00 8.119106e+00 1.130363e+01 1.143879e+01 1.592926e+01 1.519498e+01 1.633557e+01 1.470959e+01 1.463168e+01 1.689938e+01 1.343678e+01 8.208459e-02 1.547848e-01 2.621185e-01 3.777048e-01 4.965843e-01 6.381365e-01 7.792065e-01 8.958453e-01 9.095312e-01 8.692158e-01 8.852090e-01 9.177898e-01 1.045634e-06
<GCONST> 5.362087e+01
<MIXTURE> 94 6.122769e-03
<MEAN> 25
 -6.768214e+00 -9.418917e-01 -2.402997e+00 5.783679e+00 5.890612e+00 3.897683e+00 6.141209e+00 3.621753e+00 4.095225e+00 2.467973e+00 1.773352e+00 3.677730e+00 -6.208836e-02 -1.589809e-01 -2.554206e-01 -3.309008e-01 -3.385511e-01 -2.815731e-01 -2.246859e-01 -1.856250e-01 -1.650725e-01 -1.496024e-01 -1.052974e-01 -4.331897e-02 -2.484253e-05
<VARIANCE> 25
 9.421655e+00 6.023962e+00 8.119106e+00 1.130363e+01 1.143879e+01 1.592926e+01 1.519498e+01 1.633557e+01 1.470959e+01 1.463168e+01 1.689938e+01 1.343678e+01 8.208459e-02 1.547848e-01 2.621185e-01 3.777048e-01 4.965843e-01 6.381365e-01 7.792065e-01 8.958453e-01 9.095312e-01 8.692158e-01 8.852090e-01 9.177898e-01 1.045634e-06
<GCONST> 5.362087e+01
<MIXTURE> 95 5.258835e-03
<MEAN> 25
 -5.061785e+00 -6.450539e-01 -2.022723e+00 4.749425e+00 3.877402e+00 2.602348e+00 3.942051e+00 1.354937e+00 2.067037e+00 7.166508e-01 6.189629e-01 1.978448e+00 1.618953e-01 9.740300e-02 1.249561e-01 8.864903e-04 -3.984084e-01 -6.519721e-01 -1.134587e+00 -1.266891e+00 -1.153084e+00 -9.192563e-01 -5.054166e-01 -2.905924e-01 1.456393e-05
<VARIANCE> 25
 1.272403e+01 5.931807e+00 1.086787e+01 1.286347e+01 1.317928e+01 1.662938e+01 1.841606e+01 1.683963e+01 1.395474e+01 1.514039e+01 1.981921e+01 1.493416e+01 1.998077e-01 2.865117e-01 4.562610e-01 6.392027e-01 7.264508e-01 8.815484e-01 1.088752e+00 9.070293e-01 9.844397e-01 1.102079e+00 1.239922e+00 1.053283e+00 5.336044e-05
<GCONST> 6.334044e+01
<MIXTURE> 96 7.034694e-03
<MEAN> 25
 -5.073785e+00 -3.447033e-01 -2.130852e+00 4.889416e+00 3.734268e+00 1.765293e+00 3.466533e+00 1.828459e+00 2.430546e+00 8.898065e-01 1.002002e+00 2.730226e+00 -3.579931e-02 9.878192e-02 2.272844e-01 3.987059e-01 5.196583e-01 5.038626e-01 2.444247e-01 -1.503315e-01 -4.975952e-01 -6.726524e-01 -5.679537e-01 -3.509773e-01 2.671526e-05
<VARIANCE> 25
 1.090704e+01 9.856373e+00 1.298887e+01 1.633734e+01 1.511225e+01 1.893302e+01 1.783298e+01 1.917089e+01 1.745839e+01 1.635836e+01 1.996323e+01 1.447200e+01 1.180238e-01 2.176902e-01 3.165395e-01 3.874456e-01 4.940645e-01 6.439948e-01 8.469868e-01 9.825712e-01 9.715334e-01 8.809409e-01 9.129782e-01 9.209262e-01 1.041807e-06
<GCONST> 5.760106e+01
<MIXTURE> 97 7.034694e-03
<MEAN> 25
 -5.073785e+00 -3.447033e-01 -2.130852e+00 4.889416e+00 3.734268e+00 1.765293e+00 3.466533e+00 1.828459e+00 2.430546e+00 8.898065e-01 1.002002e+00 2.730226e+00 -3.579931e-02 9.878192e-02 2.272844e-01 3.987059e-01 5.196583e-01 5.038626e-01 2.444247e-01 -1.503315e-01 -4.975952e-01 -6.726524e-01 -5.679537e-01 -3.509773e-01 2.671526e-05
<VARIANCE> 25
 1.090704e+01 9.856373e+00 1.298887e+01 1.633734e+01 1.511225e+01 1.893302e+01 1.783298e+01 1.917089e+01 1.745839e+01 1.635836e+01 1.996323e+01 1.447200e+01 1.180238e-01 2.176902e-01 3.165395e-01 3.874456e-01 4.940645e-01 6.439948e-01 8.469868e-01 9.825712e-01 9.715334e-01 8.809409e-01 9.129782e-01 9.209262e-01 1.041807e-06
<GCONST> 5.760106e+01
<MIXTURE> 98 9.917808e-03
<MEAN> 25
 -1.342085e+00 9.556793e-01 -3.132342e-01 4.478433e+00 3.406713e+00 2.426042e+00 3.235929e+00 1.664823e+00 1.387218e+00 7.756522e-01 5.973637e-01 1.171621e+00 -1.706364e+00 -1.445509e+00 -1.076638e+00 1.495699e-01 6.494607e-01 7.967954e-01 1.272603e+00 1.386951e+00 1.623119e+00 1.102990e+00 1.321375e+00 9.792042e-01 -3.496435e-02
<VARIANCE> 25
 1.401732e+01 1.906569e+01 3.081943e+01 3.152825e+01 4.232134e+01 3.579575e+01 3.134272e+01 2.776664e+01 2.730090e+01 2.938602e+01 2.620647e+01 2.318058e+01 1.520723e+00 1.489010e+00 2.301498e+00 2.362415e+00 2.751189e+00 2.813625e+00 2.733620e+00 2.743906e+00 2.580045e+00 2.892435e+00 2.643243e+00 2.078315e+00 2.276238e-03
<GCONST> 8.980315e+01
<MIXTURE> 99 6.696178e-03
<MEAN> 25
 -6.433892e+00 9.826053e+00 6.687150e+00 3.155056e+00 9.780487e-01 -5.031179e+00 -1.678584e+00 -4.108720e+00 -3.544793e+00 -3.790799e+00 -1.578242e+00 2.618662e-01 5.201485e-01 -6.970133e-01 3.211182e-01 -3.949646e-01 -1.094279e+00 -4.723899e-01 -3.414330e-01 -2.405373e-01 -1.531842e-01 -8.609669e-02 2.857376e-01 1.673521e-01 1.093766e-02
<VARIANCE> 25
 3.486378e+01 2.550763e+01 4.640825e+01 3.402132e+01 3.554738e+01 3.641943e+01 2.686657e+01 2.900762e+01 2.614302e+01 2.717673e+01 2.008879e+01 2.858370e+01 2.184314e+00 1.855672e+00 1.401323e+00 1.690084e+00 2.651815e+00 2.101076e+00 1.562348e+00 1.611735e+00 1.584573e+00 1.572388e+00 1.348912e+00 1.237915e+00 1.521534e-03
<GCONST> 8.668571e+01
<MIXTURE> 100 4.498084e-03
<MEAN> 25
 -1.594530e+00 6.341426e+00 1.027394e+01 -7.460279e+00 -1.078079e+01 -5.073577e+00 -4.941168e+00 -9.965752e+00 -4.715916e+00 -8.547509e-01 -2.732934e+00 -2.705563e+00 2.917108e+00 -1.260470e+00 1.299929e+00 -2.185323e+00 -3.419645e+00 -7.847197e-01 -1.219006e+00 -8.195084e-01 -1.473975e+00 3.460366e-01 -1.656078e+00 -2.862427e-01 2.038098e-03
<VARIANCE> 25
 1.366217e+01 2.107505e+01 2.247244e+01 2.642868e+01 2.301187e+01 2.371745e+01 2.909891e+01 2.171820e+01 2.748188e+01 2.264278e+01 2.240166e+01 2.134756e+01 1.799682e+00 3.951985e+00 2.918809e+00 4.285217e+00 4.182600e+00 4.535982e+00 4.013813e+00 4.338570e+00 4.170983e+00 3.895265e+00 3.909069e+00 3.223552e+00 1.675204e-03
<GCONST> 9.256921e+01
<MIXTURE> 101 6.007792e-03
<MEAN> 25
 8.096079e+00 -3.488343e+00 -6.312625e+00 -6.867279e+00 8.470662e-01 -1.258883e+00 -1.058924e+01 -2.059193e+00 1.622421e+00 2.714293e+00 -2.387554e+00 -5.143009e+00 6.735162e-01 6.510686e-01 -1.457085e+00 -1.610713e+00 1.032406e+00 2.318736e+00 1.969982e-01 -1.460593e+00 -1.064593e+00 1.036849e+00 1.373428e+00 -4.156221e-01 -4.808852e-03
<VARIANCE> 25
 9.271352e+00 1.671453e+01 2.984297e+01 4.279351e+01 3.622900e+01 3.581821e+01 3.702962e+01 3.622841e+01 3.786591e+01 4.399052e+01 5.178077e+01 2.422963e+01 2.937014e-01 6.693079e-01 1.172397e+00 1.551514e+00 1.687607e+00 2.096311e+00 2.086355e+00 1.992397e+00 2.349168e+00 2.216585e+00 1.785569e+00 1.935392e+00 3.449597e-04
<GCONST> 8.364278e+01
<MIXTURE> 102 6.007792e-03
<MEAN> 25
 8.096079e+00 -3.488343e+00 -6.312625e+00 -6.867279e+00 8.470662e-01 -1.258883e+00 -1.058924e+01 -2.059193e+00 1.622421e+00 2.714293e+00 -2.387554e+00 -5.143009e+00 6.735162e-01 6.510686e-01 -1.457085e+00 -1.610713e+00 1.032406e+00 2.318736e+00 1.969982e-01 -1.460593e+00 -1.064593e+00 1.036849e+00 1.373428e+00 -4.156221e-01 -4.808852e-03
<VARIANCE> 25
 9.271352e+00 1.671453e+01 2.984297e+01 4.279351e+01 3.622900e+01 3.581821e+01 3.702962e+01 3.622841e+01 3.786591e+01 4.399052e+01 5.178077e+01 2.422963e+01 2.937014e-01 6.693079e-01 1.172397e+00 1.551514e+00 1.687607e+00 2.096311e+00 2.086355e+00 1.992397e+00 2.349168e+00 2.216585e+00 1.785569e+00 1.935392e+00 3.449597e-04
<GCONST> 8.364278e+01
<MIXTURE> 103 5.694618e-03
<MEAN> 25
 3.362943e+00 -9.459667e+00 -6.129849e+00 -3.074359e+00 -1.336560e+00 -1.973013e+00 2.441548e+00 2.503344e+00 -4.609216e+00 -9.243310e+00 -5.054845e+00 3.614410e-01 -1.579082e-01 -1.487036e+00 -9.794556e-01 3.740039e-01 1.212545e+00 1.017559e+00 1.602109e-01 -2.666564e-01 -7.798268e-01 -9.447032e-01 -3.191634e-02 1.221574e-01 2.687724e-02
<VARIANCE> 25
 1.032698e+01 2.046822e+01 2.286246e+01 3.172682e+01 4.795829e+01 3.493780e+01 4.631679e+01 3.673003e+01 4.203992e+01 2.936137e+01 3.003545e+01 2.639684e+01 6.434090e-01 1.250622e+00 1.539453e+00 1.937214e+00 2.921768e+00 2.410009e+00 2.888516e+00 2.572507e+00 2.558928e+00 2.520575e+00 2.096817e+00 2.014284e+00 8.090476e-04
<GCONST> 8.756203e+01
<MIXTURE> 104 5.694618e-03
<MEAN> 25
 3.362943e+00 -9.459667e+00 -6.129849e+00 -3.074359e+00 -1.336560e+00 -1.973013e+00 2.441548e+00 2.503344e+00 -4.609216e+00 -9.243310e+00 -5.054845e+00 3.614410e-01 -1.579082e-01 -1.487036e+00 -9.794556e-01 3.740039e-01 1.212545e+00 1.017559e+00 1.602109e-01 -2.666564e-01 -7.798268e-01 -9.447032e-01 -3.191634e-02 1.221574e-01 2.687724e-02
<VARIANCE> 25
 1.032698e+01 2.046822e+01 2.286246e+01 3.172682e+01 4.795829e+01 3.493780e+01 4.631679e+01 3.673003e+01 4.203992e+01 2.936137e+01 3.003545e+01 2.639684e+01 6.434090e-01 1.250622e+00 1.539453e+00 1.937214e+00 2.921768e+00 2.410009e+00 2.888516e+00 2.572507e+00 2.558928e+00 2.520575e+00 2.096817e+00 2.014284e+00 8.090476e-04
<GCONST> 8.756203e+01
<MIXTURE> 105 4.710235e-03
<MEAN> 25
 2.227815e+00 -1.496763e+00 9.230057e+00 -2.691544e+00 -1.159507e+01 -5.017572e+00 -4.170948e+00 -7.830251e-01 -3.815828e+00 -3.188238e+00 1.517156e+00 -1.159907e+00 8.775684e-03 2.971496e-02 4.886801e-02 -4.633317e-02 5.298008e-03 4.688640e-02 -1.259454e-02 4.940018e-02 -3.807532e-02 2.788380e-02 2.910873e-02 -2.828356e-02 -2.181768e-03
<VARIANCE> 25
 1.331379e+01 2.856944e+01 4.105600e+01 4.483352e+01 3.780123e+01 5.363065e+01 4.112672e+01 4.335613e+01 3.970078e+01 4.204463e+01 4.187140e+01 3.072657e+01 8.392156e-02 1.862224e-01 3.421874e-01 2.909513e-01 3.736563e-01 4.288872e-01 4.710220e-01 4.920052e-01 4.931345e-01 4.421578e-01 4.210490e-01 3.979498e-01 8.925521e-05
<GCONST> 6.669408e+01
<MIXTURE> 106 4.710235e-03
<MEAN> 25
 2.227815e+00 -1.496763e+00 9.230057e+00 -2.691544e+00 -1.159507e+01 -5.017572e+00 -4.170948e+00 -7.830251e-01 -3.815828e+00 -3.188238e+00 1.517156e+00 -1.159907e+00 8.775684e-03 2.971496e-02 4.886801e-02 -4.633317e-02 5.298008e-03 4.688640e-02 -1.259454e-02 4.940018e-02 -3.807532e-02 2.788380e-02 2.910873e-02 -2.828356e-02 -2.181768e-03
<VARIANCE> 25
 1.331379e+01 2.856944e+01 4.105600e+01 4.483352e+01 3.780123e+01 5.363065e+01 4.112672e+01 4.335613e+01 3.970078e+01 4.204463e+01 4.187140e+01 3.072657e+01 8.392156e-02 1.862224e-01 3.421874e-01 2.909513e-01 3.736563e-01 4.288872e-01 4.710220e-01 4.920052e-01 4.931345e-01 4.421578e-01 4.210490e-01 3.979498e-01 8.925521e-05
<GCONST> 6.669408e+01
<MIXTURE> 107 5.452374e-03
<MEAN> 25
 8.641843e+00 -2.310638e+00 -8.040833e+00 -9.562128e+00 1.965647e+00 2.958431e+00 -8.642028e+00 -4.554047e+00 -8.842390e-01 3.389175e+00 8.548495e-01 -5.074671e+00 -6.099593e-01 -7.685072e-01 8.360583e-01 1.773343e+00 2.254072e-01 -2.012986e+00 -9.218230e-01 8.486362e-01 1.767500e+00 4.703192e-02 -1.658221e+00 -8.203746e-01 -1.792304e-03
<VARIANCE> 25
 9.245130e+00 2.047052e+01 2.835444e+01 4.281239e+01 3.577460e+01 3.848095e+01 5.117598e+01 3.627522e+01 4.580029e+01 4.174104e+01 5.138119e+01 3.037210e+01 3.557792e-01 9.686381e-01 1.462010e+00 2.414206e+00 2.287014e+00 2.824238e+00 2.614747e+00 2.542145e+00 2.297743e+00 3.031284e+00 1.945374e+00 2.206977e+00 7.030100e-04
<GCONST> 8.804736e+01
<MIXTURE> 108 5.452374e-03
<MEAN> 25
 8.641843e+00 -2.310638e+00 -8.040833e+00 -9.562128e+00 1.965647e+00 2.958431e+00 -8.642028e+00 -4.554047e+00 -8.842390e-01 3.389175e+00 8.548495e-01 -5.074671e+00 -6.099593e-01 -7.685072e-01 8.360583e-01 1.773343e+00 2.254072e-01 -2.012986e+00 -9.218230e-01 8.486362e-01 1.767500e+00 4.703192e-02 -1.658221e+00 -8.203746e-01 -1.792304e-03
<VARIANCE> 25
 9.245130e+00 2.047052e+01 2.835444e+01 4.281239e+01 3.577460e+01 3.848095e+01 5.117598e+01 3.627522e+01 4.580029e+01 4.174104e+01 5.138119e+01 3.037210e+01 3.557792e-01 9.686381e-01 1.462010e+00 2.414206e+00 2.287014e+00 2.824238e+00 2.614747e+00 2.542145e+00 2.297743e+00 3.031284e+00 1.945374e+00 2.206977e+00 7.030100e-04
<GCONST> 8.804736e+01
<MIXTURE> 109 6.661064e-03
<MEAN> 25
 4.042573e+00 -1.040807e+01 -8.263021e+00 -1.264919e+00 2.672597e+00 -8.407865e-02 -4.014156e-02 1.342242e+00 -2.580185e+00 -8.299217e+00 -5.330750e+00 9.118953e-03 -4.163727e-02 -1.403707e-01 -2.246758e-02 2.418620e-01 2.008066e-01 1.073814e-01 -1.191954e-01 -1.059525e-01 -4.895210e-02 -1.364223e-01 2.349123e-01 2.218847e-02 -3.249793e-03
<VARIANCE> 25
 9.054975e+00 1.930296e+01 1.984582e+01 3.154986e+01 4.071053e+01 3.637163e+01 4.606818e+01 3.490040e+01 4.543673e+01 3.514436e+01 2.937219e+01 2.801007e+01 1.988355e-01 4.213655e-01 5.401528e-01 6.356042e-01 1.215209e+00 9.896665e-01 1.275430e+00 1.085577e+00 1.107752e+00 9.446383e-01 8.813809e-01 8.829759e-01 1.850317e-04
<GCONST> 7.448235e+01
<MIXTURE> 110 6.661064e-03
<MEAN> 25
 4.042573e+00 -1.040807e+01 -8.263021e+00 -1.264919e+00 2.672597e+00 -8.407865e-02 -4.014156e-02 1.342242e+00 -2.580185e+00 -8.299217e+00 -5.330750e+00 9.118953e-03 -4.163727e-02 -1.403707e-01 -2.246758e-02 2.418620e-01 2.008066e-01 1.073814e-01 -1.191954e-01 -1.059525e-01 -4.895210e-02 -1.364223e-01 2.349123e-01 2.218847e-02 -3.249793e-03
<VARIANCE> 25
 9.054975e+00 1.930296e+01 1.984582e+01 3.154986e+01 4.071053e+01 3.637163e+01 4.606818e+01 3.490040e+01 4.543673e+01 3.514436e+01 2.937219e+01 2.801007e+01 1.988355e-01 4.213655e-01 5.401528e-01 6.356042e-01 1.215209e+00 9.896665e-01 1.275430e+00 1.085577e+00 1.107752e+00 9.446383e-01 8.813809e-01 8.829759e-01 1.850317e-04
<GCONST> 7.448235e+01
<MIXTURE> 111 4.337247e-03
<MEAN> 25
 -3.641678e+00 -5.261425e-01 -1.535793e+00 1.921981e+00 9.802854e-01 1.087786e+00 4.387375e-01 -1.843054e-01 1.260723e-01 -4.897187e-01 -8.198974e-01 1.020011e+00 -1.687540e-02 -1.818330e-02 -7.277247e-02 -5.079364e-02 -4.586327e-02 6.106598e-03 -2.048156e-02 -2.036423e-01 -1.487688e-01 -1.147255e-01 -2.558731e-01 -1.307300e-01 -6.145224e-04
<VARIANCE> 25
 9.154783e+00 5.068612e+00 9.036800e+00 1.303510e+01 1.161966e+01 1.947368e+01 1.305336e+01 1.266237e+01 9.687478e+00 1.063148e+01 1.306705e+01 1.220093e+01 7.462911e-02 1.509890e-01 3.045560e-01 4.524795e-01 6.744686e-01 6.123121e-01 9.977173e-01 8.962495e-01 8.092861e-01 1.002038e+00 8.430638e-01 8.567729e-01 2.781247e-05
<GCONST> 5.630017e+01
<MIXTURE> 112 4.337247e-03
<MEAN> 25
 -3.641678e+00 -5.261425e-01 -1.535793e+00 1.921981e+00 9.802854e-01 1.087786e+00 4.387375e-01 -1.843054e-01 1.260723e-01 -4.897187e-01 -8.198974e-01 1.020011e+00 -1.687540e-02 -1.818330e-02 -7.277247e-02 -5.079364e-02 -4.586327e-02 6.106598e-03 -2.048156e-02 -2.036423e-01 -1.487688e-01 -1.147255e-01 -2.558731e-01 -1.307300e-01 -6.145224e-04
<VARIANCE> 25
 9.154783e+00 5.068612e+00 9.036800e+00 1.303510e+01 1.161966e+01 1.947368e+01 1.305336e+01 1.266237e+01 9.687478e+00 1.063148e+01 1.306705e+01 1.220093e+01 7.462911e-02 1.509890e-01 3.045560e-01 4.524795e-01 6.744686e-01 6.123121e-01 9.977173e-01 8.962495e-01 8.092861e-01 1.002038e+00 8.430638e-01 8.567729e-01 2.781247e-05
<GCONST> 5.630017e+01
<MIXTURE> 113 5.938666e-03
<MEAN> 25
 9.978278e+00 1.755162e+00 -8.781589e+00 -1.704793e+01 -1.034140e+00 5.659519e+00 -5.280940e+00 -1.466133e+00 -5.695857e+00 -4.937401e-01 2.990744e-01 -1.976733e-01 4.811692e-03 1.383111e-02 -5.952500e-02 -1.134082e-01 1.043259e-01 1.505917e-01 5.929131e-02 3.605672e-02 -5.699484e-02 -5.123753e-02 1.797035e-01 3.523221e-02 -1.410340e-03
<VARIANCE> 25
 8.872062e+00 1.639121e+01 2.967411e+01 3.419629e+01 5.273880e+01 3.386651e+01 3.970876e+01 3.914347e+01 3.737590e+01 4.640509e+01 3.629872e+01 2.844281e+01 1.217922e-01 3.205900e-01 3.161432e-01 6.314155e-01 6.128712e-01 6.536530e-01 7.765718e-01 8.452115e-01 9.594515e-01 9.052661e-01 7.245045e-01 7.135639e-01 1.247795e-04
<GCONST> 7.110384e+01
<MIXTURE> 114 5.938666e-03
<MEAN> 25
 9.978278e+00 1.755162e+00 -8.781589e+00 -1.704793e+01 -1.034140e+00 5.659519e+00 -5.280940e+00 -1.466133e+00 -5.695857e+00 -4.937401e-01 2.990744e-01 -1.976733e-01 4.811692e-03 1.383111e-02 -5.952500e-02 -1.134082e-01 1.043259e-01 1.505917e-01 5.929131e-02 3.605672e-02 -5.699484e-02 -5.123753e-02 1.797035e-01 3.523221e-02 -1.410340e-03
<VARIANCE> 25
 8.872062e+00 1.639121e+01 2.967411e+01 3.419629e+01 5.273880e+01 3.386651e+01 3.970876e+01 3.914347e+01 3.737590e+01 4.640509e+01 3.629872e+01 2.844281e+01 1.217922e-01 3.205900e-01 3.161432e-01 6.314155e-01 6.128712e-01 6.536530e-01 7.765718e-01 8.452115e-01 9.594515e-01 9.052661e-01 7.245045e-01 7.135639e-01 1.247795e-04
<GCONST> 7.110384e+01
<MIXTURE> 115 2.935202e-03
<MEAN> 25
 -3.902125e+00 -7.146763e-01 -3.103148e+00 3.605081e+00 2.353125e+00 -4.068932e-01 2.250332e+00 3.748582e-01 1.377198e+00 1.666262e-02 3.486075e-02 2.558331e+00 2.555685e-02 -7.978299e-02 -2.288768e-01 -4.321465e-01 -6.167331e-01 -6.552962e-01 -5.993361e-01 -5.285451e-01 -4.822676e-01 -4.310296e-01 -3.410348e-01 -1.757400e-01 -3.185960e-05
<VARIANCE> 25
 9.704774e+00 9.706789e+00 1.323770e+01 1.267716e+01 1.354334e+01 1.713529e+01 1.727199e+01 2.122761e+01 1.746678e+01 1.721601e+01 1.900493e+01 1.502084e+01 2.001299e-01 3.421419e-01 4.754561e-01 5.509602e-01 6.503755e-01 7.872887e-01 9.906726e-01 1.117535e+00 1.052185e+00 1.007943e+00 1.001585e+00 1.044713e+00 1.062663e-06
<GCONST> 6.008782e+01
<MIXTURE> 116 2.935202e-03
<MEAN> 25
 -3.902125e+00 -7.146763e-01 -3.103148e+00 3.605081e+00 2.353125e+00 -4.068932e-01 2.250332e+00 3.748582e-01 1.377198e+00 1.666262e-02 3.486075e-02 2.558331e+00 2.555685e-02 -7.978299e-02 -2.288768e-01 -4.321465e-01 -6.167331e-01 -6.552962e-01 -5.993361e-01 -5.285451e-01 -4.822676e-01 -4.310296e-01 -3.410348e-01 -1.757400e-01 -3.185960e-05
<VARIANCE> 25
 9.704774e+00 9.706789e+00 1.323770e+01 1.267716e+01 1.354334e+01 1.713529e+01 1.727199e+01 2.122761e+01 1.746678e+01 1.721601e+01 1.900493e+01 1.502084e+01 2.001299e-01 3.421419e-01 4.754561e-01 5.509602e-01 6.503755e-01 7.872887e-01 9.906726e-01 1.117535e+00 1.052185e+00 1.007943e+00 1.001585e+00 1.044713e+00 1.062663e-06
<GCONST> 6.008782e+01
<MIXTURE> 117 6.506003e-03
<MEAN> 25
 -4.644171e+00 1.117812e+00 1.054324e+00 9.758190e+00 6.259809e+00 6.256198e+00 6.463041e+00 5.044284e+00 6.385324e+00 4.928656e+00 6.366719e+00 2.709607e+00 -7.502013e-02 -2.341264e-01 -3.583609e-01 -4.200011e-01 -3.675793e-01 -3.027031e-01 -2.872940e-01 -3.314890e-01 -3.917644e-01 -3.689229e-01 -2.631144e-01 -1.160119e-01 -9.271283e-06
<VARIANCE> 25
 7.189311e+00 8.752482e+00 9.809223e+00 1.430837e+01 1.561826e+01 1.534946e+01 1.772546e+01 1.796096e+01 1.640319e+01 1.637415e+01 1.674347e+01 1.475396e+01 2.165964e-01 3.075009e-01 4.261219e-01 6.171296e-01 8.536646e-01 1.055294e+00 1.177574e+00 1.232871e+00 1.223896e+00 1.194814e+00 1.167132e+00 1.113628e+00 1.000615e-06
<GCONST> 6.042947e+01
<MIXTURE> 118 6.506003e-03
<MEAN> 25
 -4.644171e+00 1.117812e+00 1.054324e+00 9.758190e+00 6.259809e+00 6.256198e+00 6.463041e+00 5.044284e+00 6.385324e+00 4.928656e+00 6.366719e+00 2.709607e+00 -7.502013e-02 -2.341264e-01 -3.583609e-01 -4.200011e-01 -3.675793e-01 -3.027031e-01 -2.872940e-01 -3.314890e-01 -3.917644e-01 -3.689229e-01 -2.631144e-01 -1.160119e-01 -9.271283e-06
<VARIANCE> 25
 7.189311e+00 8.752482e+00 9.809223e+00 1.430837e+01 1.561826e+01 1.534946e+01 1.772546e+01 1.796096e+01 1.640319e+01 1.637415e+01 1.674347e+01 1.475396e+01 2.165964e-01 3.075009e-01 4.261219e-01 6.171296e-01 8.536646e-01 1.055294e+00 1.177574e+00 1.232871e+00 1.223896e+00 1.194814e+00 1.167132e+00 1.113628e+00 1.000615e-06
<GCONST> 6.042947e+01
<MIXTURE> 119 4.297961e-03
<MEAN> 25
 -4.969241e+00 -7.564153e+00 2.212142e+00 1.985104e+00 2.231359e+00 2.101858e-01 5.260159e+00 5.916516e+00 1.131676e+00 9.669729e-01 6.588030e+00 1.536004e+00 -4.837978e-02 -7.881485e-02 3.807323e-02 -5.715444e-02 -1.217995e-01 -1.764788e-01 -6.480918e-02 -2.059964e-02 -9.054893e-02 -1.045579e-01 -5.672328e-02 -6.235482e-02 1.067718e-03
<VARIANCE> 25
 8.462951e+00 1.039299e+01 1.653841e+01 2.021688e+01 2.280434e+01 2.304909e+01 2.490479e+01 2.642492e+01 2.524486e+01 2.790737e+01 2.035551e+01 2.045721e+01 1.631428e-01 2.810041e-01 4.575685e-01 6.337152e-01 8.018314e-01 1.002787e+00 1.096786e+00 1.282326e+00 1.283617e+00 1.251388e+00 1.190297e+00 1.118321e+00 2.314485e-04
<GCONST> 6.977039e+01
<MIXTURE> 120 4.297961e-03
<MEAN> 25
 -4.969241e+00 -7.564153e+00 2.212142e+00 1.985104e+00 2.231359e+00 2.101858e-01 5.260159e+00 5.916516e+00 1.131676e+00 9.669729e-01 6.588030e+00 1.536004e+00 -4.837978e-02 -7.881485e-02 3.807323e-02 -5.715444e-02 -1.217995e-01 -1.764788e-01 -6.480918e-02 -2.059964e-02 -9.054893e-02 -1.045579e-01 -5.672328e-02 -6.235482e-02 1.067718e-03
<VARIANCE> 25
 8.462951e+00 1.039299e+01 1.653841e+01 2.021688e+01 2.280434e+01 2.304909e+01 2.490479e+01 2.642492e+01 2.524486e+01 2.790737e+01 2.035551e+01 2.045721e+01 1.631428e-01 2.810041e-01 4.575685e-01 6.337152e-01 8.018314e-01 1.002787e+00 1.096786e+00 1.282326e+00 1.283617e+00 1.251388e+00 1.190297e+00 1.118321e+00 2.314485e-04
<GCONST> 6.977039e+01
<MIXTURE> 121 4.567511e-03
<MEAN> 25
 2.174980e-01 -2.526322e+00 5.158256e+00 -1.289123e+01 -1.263812e+01 -1.673966e+00 9.914895e-01 -5.088078e+00 -4.191012e+00 -4.893146e-01 -5.507689e+00 -4.293971e+00 2.319166e-02 1.344794e-01 -3.892065e-02 7.630153e-02 1.639368e-01 7.933108e-02 -8.266386e-02 -1.825521e-01 -2.670904e-01 -2.555460e-01 -1.116598e-01 2.399099e-03 -7.399960e-03
<VARIANCE> 25
 7.789385e+00 1.559084e+01 1.725122e+01 2.036687e+01 2.442233e+01 2.922928e+01 2.948867e+01 2.467810e+01 3.523198e+01 2.826972e+01 1.970749e+01 2.129051e+01 1.550532e-01 6.434585e-01 6.241878e-01 7.078216e-01 7.821060e-01 1.147451e+00 1.120126e+00 1.118410e+00 1.216282e+00 1.192353e+00 9.430839e-01 8.710476e-01 2.108418e-04
<GCONST> 7.141779e+01
<MIXTURE> 122 4.567511e-03
<MEAN> 25
 2.174980e-01 -2.526322e+00 5.158256e+00 -1.289123e+01 -1.263812e+01 -1.673966e+00 9.914895e-01 -5.088078e+00 -4.191012e+00 -4.893146e-01 -5.507689e+00 -4.293971e+00 2.319166e-02 1.344794e-01 -3.892065e-02 7.630153e-02 1.639368e-01 7.933108e-02 -8.266386e-02 -1.825521e-01 -2.670904e-01 -2.555460e-01 -1.116598e-01 2.399099e-03 -7.399960e-03
<VARIANCE> 25
 7.789385e+00 1.559084e+01 1.725122e+01 2.036687e+01 2.442233e+01 2.922928e+01 2.948867e+01 2.467810e+01 3.523198e+01 2.826972e+01 1.970749e+01 2.129051e+01 1.550532e-01 6.434585e-01 6.241878e-01 7.078216e-01 7.821060e-01 1.147451e+00 1.120126e+00 1.118410e+00 1.216282e+00 1.192353e+00 9.430839e-01 8.710476e-01 2.108418e-04
<GCONST> 7.141779e+01
<MIXTURE> 123 4.393044e-03
<MEAN> 25
 -3.607172e+00 9.935567e-01 -3.061474e-01 5.357274e+00 4.529865e+00 2.872615e+00 3.130235e+00 7.480019e-01 2.069696e-01 -3.426693e-01 6.662497e-02 7.790715e-01 -3.887606e-01 -7.454894e-01 -9.037364e-01 -6.349606e-01 -2.288026e-01 3.120226e-02 5.366775e-01 6.507032e-01 6.739540e-01 7.090954e-01 6.786361e-01 3.969135e-01 -3.325412e-03
<VARIANCE> 25
 1.142583e+01 8.952919e+00 1.434189e+01 1.937528e+01 2.184217e+01 2.612831e+01 2.108552e+01 1.770171e+01 1.733591e+01 1.551762e+01 1.934544e+01 2.021844e+01 3.550409e-01 3.883256e-01 4.879529e-01 6.593664e-01 1.096841e+00 1.135139e+00 1.113213e+00 1.129128e+00 1.023484e+00 1.001090e+00 1.150307e+00 1.490696e+00 1.505272e-04
<GCONST> 6.912954e+01
<MIXTURE> 124 4.069876e-03
<MEAN> 25
 -6.425951e+00 -1.244450e+00 -2.957500e+00 5.093925e+00 4.998105e+00 3.370401e+00 5.424236e+00 2.498710e+00 3.107094e+00 1.269544e+00 1.193705e+00 3.071664e+00 -1.955634e-01 -3.242691e-01 -3.583325e-01 -2.140260e-01 1.448327e-01 5.331981e-01 8.096184e-01 8.404899e-01 6.216401e-01 3.339636e-01 9.945031e-02 -2.291501e-02 -4.076950e-05
<VARIANCE> 25
 1.171421e+01 7.012720e+00 1.111579e+01 1.228670e+01 1.210328e+01 1.948213e+01 1.549488e+01 1.697258e+01 1.550840e+01 1.581841e+01 1.911586e+01 1.449794e+01 1.080792e-01 1.676182e-01 2.690986e-01 4.179409e-01 6.233221e-01 7.101237e-01 7.389354e-01 8.246130e-01 9.459686e-01 9.668684e-01 1.050290e+00 9.781131e-01 1.818414e-05
<GCONST> 5.895079e+01
<MIXTURE> 125 4.069876e-03
<MEAN> 25
 -6.425951e+00 -1.244450e+00 -2.957500e+00 5.093925e+00 4.998105e+00 3.370401e+00 5.424236e+00 2.498710e+00 3.107094e+00 1.269544e+00 1.193705e+00 3.071664e+00 -1.955634e-01 -3.242691e-01 -3.583325e-01 -2.140260e-01 1.448327e-01 5.331981e-01 8.096184e-01 8.404899e-01 6.216401e-01 3.339636e-01 9.945031e-02 -2.291501e-02 -4.076950e-05
<VARIANCE> 25
 1.171421e+01 7.012720e+00 1.111579e+01 1.228670e+01 1.210328e+01 1.948213e+01 1.549488e+01 1.697258e+01 1.550840e+01 1.581841e+01 1.911586e+01 1.449794e+01 1.080792e-01 1.676182e-01 2.690986e-01 4.179409e-01 6.233221e-01 7.101237e-01 7.389354e-01 8.246130e-01 9.459686e-01 9.668684e-01 1.050290e+00 9.781131e-01 1.818414e-05
<GCONST> 5.895079e+01
<MIXTURE> 126 2.402244e-03
<MEAN> 25
 -3.736804e+00 -6.758450e+00 -5.231071e+00 2.276186e+00 4.229457e+00 -3.196185e+00 5.016308e-02 3.500122e+00 3.318703e+00 -2.636810e+00 -1.434742e+00 2.893054e+00 -1.190141e-02 -1.550856e-02 -3.320215e-02 -1.638613e-01 -3.190789e-01 -3.957564e-01 -2.727453e-01 -1.606811e-01 -1.276845e-01 -1.249510e-01 -8.544230e-02 -3.481139e-02 -1.229458e-03
<VARIANCE> 25
 7.506416e+00 1.379453e+01 1.368602e+01 1.539841e+01 2.436687e+01 2.330436e+01 2.243968e+01 2.847183e+01 3.079862e+01 2.614939e+01 2.139251e+01 2.004524e+01 1.790686e-01 3.524251e-01 4.800983e-01 5.702037e-01 7.430946e-01 9.887123e-01 1.127034e+00 1.262789e+00 1.323776e+00 1.298461e+00 1.205028e+00 1.147797e+00 2.130379e-04
<GCONST> 6.988971e+01
<MIXTURE> 127 2.402244e-03
<MEAN> 25
 -3.736804e+00 -6.758450e+00 -5.231071e+00 2.276186e+00 4.229457e+00 -3.196185e+00 5.016308e-02 3.500122e+00 3.318703e+00 -2.636810e+00 -1.434742e+00 2.893054e+00 -1.190141e-02 -1.550856e-02 -3.320215e-02 -1.638613e-01 -3.190789e-01 -3.957564e-01 -2.727453e-01 -1.606811e-01 -1.276845e-01 -1.249510e-01 -8.544230e-02 -3.481139e-02 -1.229458e-03
<VARIANCE> 25
 7.506416e+00 1.379453e+01 1.368602e+01 1.539841e+01 2.436687e+01 2.330436e+01 2.243968e+01 2.847183e+01 3.079862e+01 2.614939e+01 2.139251e+01 2.004524e+01 1.790686e-01 3.524251e-01 4.800983e-01 5.702037e-01 7.430946e-01 9.887123e-01 1.127034e+00 1.262789e+00 1.323776e+00 1.298461e+00 1.205028e+00 1.147797e+00 2.130379e-04
<GCONST> 6.988971e+01
<MIXTURE> 128 3.790457e-03
<MEAN> 25
 -3.931921e+00 1.543297e+00 -3.393303e-01 6.571986e+00 3.620765e+00 1.859010e+00 3.575975e+00 2.370214e+00 3.962103e+00 3.699045e+00 3.770141e+00 3.525474e+00 -3.958450e-01 -1.966793e-01 9.864715e-02 7.261776e-01 1.184560e+00 1.135036e+00 7.175063e-01 1.316871e-01 -4.387441e-01 -7.877323e-01 -7.026469e-01 -3.938809e-01 -3.712045e-05
<VARIANCE> 25
 1.021004e+01 1.170008e+01 1.498571e+01 1.933186e+01 2.004101e+01 2.117275e+01 2.431272e+01 2.467035e+01 2.640804e+01 2.387231e+01 2.679506e+01 1.820009e+01 8.922910e-01 1.147025e+00 1.365538e+00 1.503207e+00 1.580133e+00 1.863528e+00 2.248829e+00 2.326593e+00 2.148474e+00 1.857595e+00 1.744324e+00 1.747987e+00 1.003493e-06
<GCONST> 7.364587e+01
<TRANSP> 3
 0.000000e+00 1.000000e+00 0.000000e+00
 0.000000e+00 9.999990e-01 9.999998e-07
 0.000000e+00 0.000000e+00 0.000000e+00
<ENDHMM>
